tree
version=v4
num_class=1
num_tree_per_iteration=1
label_index=0
max_feature_idx=60
objective=regression
feature_names=Column_0 Column_1 Column_2 Column_3 Column_4 Column_5 Column_6 Column_7 Column_8 Column_9 Column_10 Column_11 Column_12 Column_13 Column_14 Column_15 Column_16 Column_17 Column_18 Column_19 Column_20 Column_21 Column_22 Column_23 Column_24 Column_25 Column_26 Column_27 Column_28 Column_29 Column_30 Column_31 Column_32 Column_33 Column_34 Column_35 Column_36 Column_37 Column_38 Column_39 Column_40 Column_41 Column_42 Column_43 Column_44 Column_45 Column_46 Column_47 Column_48 Column_49 Column_50 Column_51 Column_52 Column_53 Column_54 Column_55 Column_56 Column_57 Column_58 Column_59 Column_60
feature_infos=[-0.55870342706051845:1.5539959215651329] [0:1] [0:1] [0:1] [0:1] [0:1] [-0.059362201463347253:0.093770230566206925] [5020.25:7016.5] [0:1] none [2.5899999999999999:4.6100000000000003] [-1.27:1.6200000000000001] [1.53:2.3399999999999999] [-0.37999999999999989:0.45999999999999996] [-0.46999999999999997:0.72999999999999998] [-0.19999999999999998:0.38999999999999996] [0:1] [-0.029008875680261385:0.048269472404831093] [-6.5683078083908981:6.9750959613041346] [-2.1819140324729838:2.5010613264434207] [-6.0376139908259283:6.3679711675470534] [-13.042553191489647:9.3541666666663303] [0.00017192765284372246:0.016775701892906229] [-0.040524228315226722:0.03462934370676353] [-0.015391297775175847:0.019819586858526556] [-0.043613613467594278:0.054173698472155661] [-0.018678121806596098:0.026231806140733394] [-0.024178293784117406:0.03149565573178667] [-0.059571514961795483:0.069841838627982628] [-0.038651858755462433:0.043258734933288003] [-0.5557756882429753:0.54600343625989745] [6.3630199273127062:95.938362189674976] [0.00021618114413349382:0.03526236865512658] [4.5958315961775355e-05:0.033955315051506146] [0.00057817028526808598:0.050757890727628381] [0.050000000000000003:1] [0:11] [-1:0.99987022497137468] [1:384] [-0.99996755571652796:0.99996755571652796] [-200493:77520] [-6.7175633317684929:7.2174898725917682] [-0.032896935896243956:0.025770932284036326] [0:3.4057417475715481] [-0.020929715710136815:0.0069832686021884405] [-0.35753873962348437:0.74039073966007019] [11.859999656677246:52.330001831054688] [-4.204985742629197:128.50201027105643] [-0.037302093557938655:0.047763982486964222] [-0.031014283356675054:0.041055087976994413] [-0.029798810617456803:0.039478810973787422] [-0.0284454557613604:0.039491691386354701] [-0.043494862852668105:0.043037023539715967] [-0.037398125909185287:0.054828704121789112] [-0.030079996804611674:0.040456502578095223] [-0.047590576683626186:0.050119421310524104] [-0.01553454645278138:0.025468945292821916] [-0.032045844364048857:0.038923832518320912] [-0.025865786159067657:0.02982799529579153] [-0.023869290063417332:0.032239960274770378] [-0.046675815276868926:0.049000678554009608]
tree_sizes=789 776 804 789 795 808 793 787 788 788 799 793 794 797 795 795 807 785 792 791 792 792 791 811 791 803 797 799 796 794 796 800 789 798 797 795 800 799 795 800 799 802 802 799 801 795 797 798 797 798 787 789 805 801 791 794 801 802 805 805 802 804 809 784 812 799 782 800 796 800 792 801 799 799 802 796 805 800 799 813 798 806 791 811 795 770 773 797 801 800 800 802 801 798 792 809 800 802 784 764 791 807 799 796 799 790 796 793 799 792 777 796 786 798 784 787 788 788 800 800 795 784 795 790 788 794 778 778 789 790 788 795 783 774 773 772 762 785 771 780 798 801 797 802 799 766 767 772 786 765 774 793 782 778 780 779 753 757 754 767 784 778 787 783 784 784 788 786 793 790 776 773 788 792 768 774 777 763 780 776 757 770 768 781 770 775 759 773 774 760 783 768 779 786 781 763 766 752 781 774 780 781 781 777 773 775 771 759 776 783 789 756 766 778 779 784 781 766 789 782 782 764 762 766 790 767 780 773 776 784 803 771 771 802 774 752 781 756 759 759 778 774 787 775 771 783 781 790 773 781 783 781 775 768 769 780 778 791 788 780 751 770 779 750 749

Tree=0
num_leaves=7
num_cat=0
split_feature=39 16 16 39 39 10
split_gain=1.29466e+08 1.04956e+07 9.44655e+06 6.46808e+06 4.57115e+06 1.92086e+06
threshold=1.0000000180025095e-35 1.0000000180025095e-35 1.0000000180025095e-35 -0.65705036282384954 0.66910889689578579 3.0450000000000004
decision_type=2 2 2 2 2 2
left_child=2 4 3 -1 -2 -6
right_child=1 -3 -4 -5 5 -7
leaf_value=160.10051081784482 163.53629958790768 161.77065505320016 161.09853812344494 158.85252789160501 163.15118709408767 162.54816500688406
leaf_weight=5135 5853 2818 2559 2482 3758 4881
leaf_count=5135 5853 2818 2559 2482 3758 4881
internal_value=161.835 162.887 160.045 159.692 163.104 162.811
internal_weight=27486 17310 10176 7617 14492 8639
internal_count=27486 17310 10176 7617 14492 8639
is_linear=0
shrinkage=1


Tree=1
num_leaves=7
num_cat=0
split_feature=21 21 37 37 37 12
split_gain=1.71474e+07 1.33272e+07 1.37264e+07 7.04075e+06 6.3198e+06 4.98111e+06
threshold=1.7281925481510312 -1.5626352813852962 0.36962201222991076 0.90342112280837894 0.85783016541116075 1.675
decision_type=2 2 2 2 2 2
left_child=1 4 -3 -2 -1 -4
right_child=3 2 5 -5 -6 -7
leaf_value=-0.51362830182559693 -0.77959585071458237 -0.11874718951969307 -1.04071308841665 -2.9359110234169985 -2.8466378902677283 1.0659446233619192
leaf_weight=3509 3983 9036 468 711 531 9248
leaf_count=3509 3983 9036 468 711 531 9248
internal_value=-0.00889358 0.217864 0.442359 -1.10899 -0.823409 0.963988
internal_weight=27486 22792 18752 4694 4040 9716
internal_count=27486 22792 18752 4694 4040 9716
is_linear=0
shrinkage=0.02


Tree=2
num_leaves=7
num_cat=0
split_feature=34 37 7 34 48 11
split_gain=1.31959e+07 8.39101e+06 6.71936e+06 6.24257e+06 5.0022e+06 4.85856e+06
threshold=0.0034054245618718639 0.48598341324260591 6021.3750000000009 0.0014471343511437292 -0.0014455166828807907 0.38999999999999996
decision_type=2 2 2 2 2 10
left_child=2 -2 -1 -4 -5 -3
right_child=1 5 3 4 -6 -7
leaf_value=-0.75265312255931949 -0.080124647425698484 1.2576996814016062 -1.6422451621220047 -0.65420085689797736 0.75377502514736294 0.0053383700352248129
leaf_weight=9071 5967 5055 700 1388 3664 1641
leaf_count=9071 5967 5055 700 1388 3664 1641
internal_value=-0.0087418 0.465286 -0.413715 0.120986 0.36668 0.951014
internal_weight=27486 12663 14823 5752 5052 6696
internal_count=27486 12663 14823 5752 5052 6696
is_linear=0
shrinkage=0.02


Tree=3
num_leaves=7
num_cat=0
split_feature=38 37 37 37 6 12
split_gain=1.22032e+08 1.39135e+07 1.2453e+07 2.23566e+06 2.10754e+06 3.22009e+06
threshold=190.50000000000003 -0.032214842672773823 0.24712910676566971 0.68687010614819843 0.0050057615692725719 2.1650000000000005
decision_type=2 2 2 2 2 2
left_child=2 -2 -1 -3 -4 -6
right_child=1 3 4 -5 5 -7
leaf_value=0.40083638494515933 -1.0119090544286946 -2.0072143255702164 1.2682484518677515 -2.8713083879484449 2.1245941828844179 0.49137851633247315
leaf_weight=7121 5527 2312 6136 2656 3160 574
leaf_count=7121 5527 2312 6136 2656 3160 574
internal_value=-0.00857101 -1.70373 1.03869 -2.4716 1.49845 1.87452
internal_weight=27486 10495 16991 4968 9870 3734
internal_count=27486 10495 16991 4968 9870 3734
is_linear=0
shrinkage=0.02


Tree=4
num_leaves=7
num_cat=0
split_feature=38 37 37 37 37 13
split_gain=1.17206e+08 1.33723e+07 1.19606e+07 1.94384e+06 1.79183e+06 1.7687e+06
threshold=190.50000000000003 0.056357683955637415 0.24712910676566971 -0.73224490866557657 0.72117904844717229 0.14000000000000004
decision_type=2 2 2 2 2 10
left_child=2 3 -1 -2 -3 -4
right_child=1 4 5 -5 -6 -7
leaf_value=0.39282529608736644 -0.6647324837205133 -2.0230025143499915 1.5966307792514487 -1.3958671083921468 -2.8285055798382577 0.90359629992202983
leaf_weight=7121 2918 2081 8038 2930 2566 1832
leaf_count=7121 2918 2081 8038 2930 2566 1832
internal_value=-0.00840542 -1.66971 1.01794 -1.03193 -2.47035 1.46852
internal_weight=27486 10495 16991 5848 4647 9870
internal_count=27486 10495 16991 5848 4647 9870
is_linear=0
shrinkage=0.02


Tree=5
num_leaves=7
num_cat=0
split_feature=39 16 16 39 21 15
split_gain=1.12697e+08 8.56416e+06 8.48055e+06 5.49181e+06 4.46302e+06 2.45836e+06
threshold=0.008055017313645732 1.0000000180025095e-35 1.0000000180025095e-35 -0.65705036282384954 1.5359838208454504 0.095000000000000029
decision_type=2 2 2 2 2 10
left_child=1 3 4 -1 5 -2
right_child=2 -3 -4 -5 -6 -7
leaf_value=-1.6302053009270463 1.5400958063320005 -0.67759421268205688 -0.040913607610192727 -2.7865603784294475 0.29425356640172529 0.96259854745378348
leaf_weight=5140 7723 2628 2701 2441 1973 4831
leaf_count=5140 7723 2628 2701 2441 1973 4831
internal_value=0.00148931 -1.66315 0.988122 -2.00413 1.1794 1.31834
internal_weight=27437 10209 17228 7581 14527 12554
internal_count=27437 10209 17228 7581 14527 12554
is_linear=0
shrinkage=0.02


Tree=6
num_leaves=7
num_cat=0
split_feature=38 37 37 37 6 13
split_gain=1.08664e+08 1.35411e+07 1.04072e+07 1.96449e+06 1.91544e+06 3.6877e+06
threshold=184.50000000000003 -0.048311812032526213 0.20002569377604437 0.61988438722114048 0.0050057615692725719 0.15500000000000005
decision_type=2 2 2 2 2 8
left_child=2 -2 -1 -3 -4 -6
right_child=1 3 4 -5 5 -7
leaf_value=0.39079668334353329 -0.90539496328201641 -1.8656254277710522 1.1988663959022459 -2.6806593059048764 2.0812727397952395 0.55666795876655362
leaf_weight=6465 5877 2175 6243 2784 3089 804
leaf_count=6465 5877 2175 6243 2784 3089 804
internal_value=0.00145101 -1.55603 1.01823 -2.32543 1.41804 1.76752
internal_weight=27437 10836 16601 4959 10136 3893
internal_count=27437 10836 16601 4959 10136 3893
is_linear=0
shrinkage=0.02


Tree=7
num_leaves=7
num_cat=0
split_feature=38 38 38 6 6 12
split_gain=1.04402e+08 1.22508e+07 1.07061e+07 1.86257e+06 3.21627e+06 3.03429e+06
threshold=188.50000000000003 294.50000000000006 82.500000000000014 -0.015040434669003786 0.0037599890860017253 2.2200000000000002
decision_type=2 2 2 2 2 2
left_child=2 -2 3 -1 -5 -6
right_child=1 -3 -4 4 5 -7
leaf_value=2.2381868721132778 -0.95289666954661456 -2.3253843092189066 0.37895477546371903 0.93737934259895872 1.8311823183460307 -0.41409745338110393
leaf_weight=968 5946 4637 6979 4556 4097 254
leaf_count=968 5946 4637 6979 4556 4097 254
internal_value=0.00141753 -1.55507 0.978944 1.40257 1.31055 1.69978
internal_weight=27437 10583 16854 9875 8907 4351
internal_count=27437 10583 16854 9875 8907 4351
is_linear=0
shrinkage=0.02


Tree=8
num_leaves=7
num_cat=0
split_feature=38 37 37 37 6 6
split_gain=1.00282e+08 1.37328e+07 8.55971e+06 2.61875e+06 1.78962e+06 3.089e+06
threshold=178.50000000000003 -0.2549182424821283 0.24712910676566971 0.61988438722114048 -0.015040434669003786 0.0037599890860017253
decision_type=2 2 2 2 2 2
left_child=2 -2 -1 -3 -4 -6
right_child=1 3 4 -5 5 -7
leaf_value=0.43304818483888197 -0.7378460488502897 -1.7157961570267128 2.1936531915877855 -2.5807179366939597 0.91865230424006616 1.6658207203056474
leaf_weight=6352 5493 2933 968 2784 4556 4351
leaf_count=6352 5493 2933 968 2784 4556 4351
internal_value=0.00139535 -1.45299 1.00626 -2.13887 1.37457 1.28437
internal_weight=27437 11210 16227 5717 9875 8907
internal_count=27437 11210 16227 5717 9875 8907
is_linear=0
shrinkage=0.02


Tree=9
num_leaves=7
num_cat=0
split_feature=38 37 37 37 21 15
split_gain=9.63822e+07 1.1327e+07 9.90908e+06 2.02895e+06 1.783e+06 1.93412e+06
threshold=188.50000000000003 0.12852514609802737 0.20002569377604437 -0.60072277358566406 1.5359838208454504 0.095000000000000029
decision_type=2 2 2 2 2 10
left_child=2 3 -1 -2 5 -4
right_child=1 -3 4 -5 -6 -7
leaf_value=0.34456452921917269 -0.64185982323384494 -2.284657545342204 1.648903805006934 -1.3706486481622582 0.5131497636776079 1.046843034193929
leaf_weight=6718 3620 4301 5694 2662 963 3479
leaf_count=6718 3620 4301 5694 2662 963 3479
internal_value=0.00136809 -1.49414 0.940598 -0.951529 1.33528 1.42126
internal_weight=27437 10583 16854 6282 10136 9173
internal_count=27437 10583 16854 6282 10136 9173
is_linear=0
shrinkage=0.02


Tree=10
num_leaves=7
num_cat=0
split_feature=38 37 37 37 21 15
split_gain=9.38385e+07 1.19479e+07 8.35004e+06 2.51069e+06 2.19609e+06 2.12932e+06
threshold=182.50000000000003 -0.23930789986230647 0.080463958036560437 0.68687010614819843 1.5359838208454504 0.095000000000000029
decision_type=2 2 2 2 2 10
left_child=2 -2 -1 -3 5 -4
right_child=1 3 4 -5 -6 -7
leaf_value=0.33474282210493417 -0.7459988967046971 -1.6689498904556324 1.6123939343616689 -2.5147659955377999 0.43290130931065973 0.99373568339996721
leaf_weight=5704 5333 3105 5969 2654 1097 3605
leaf_count=5704 5333 3105 5969 2654 1097 3605
internal_value=-0.00915142 -1.42916 0.952865 -2.06058 1.28296 1.38008
internal_weight=27467 11092 16375 5759 10671 9574
internal_count=27467 11092 16375 5759 10671 9574
is_linear=0
shrinkage=0.02


Tree=11
num_leaves=7
num_cat=0
split_feature=38 37 37 21 45 6
split_gain=9.01693e+07 9.81492e+06 9.75031e+06 2.10907e+06 1.82298e+06 1.96937e+06
threshold=192.50000000000003 0.080463958036560437 0.17628615772552472 1.5359838208454504 0.26245601507157795 0.0050057615692725719
decision_type=2 2 2 2 2 2
left_child=1 -1 -2 4 5 -3
right_child=2 3 -4 -5 -6 -7
leaf_value=0.26571219051730599 -0.96789668860887756 1.0739248817060374 -2.2152426727778072 0.42428257507605038 3.0009486337141555 1.6749012152305378
leaf_weight=6383 6186 5744 4227 1097 259 3571
leaf_count=6383 6186 5744 4227 1097 259 3571
internal_value=-0.00897405 0.886372 -1.47506 1.25733 1.35251 1.30509
internal_weight=27467 17054 10413 10671 9574 9315
internal_count=27467 17054 10413 10671 9574 9315
is_linear=0
shrinkage=0.02


Tree=12
num_leaves=7
num_cat=0
split_feature=38 37 37 37 45 6
split_gain=8.66645e+07 1.24542e+07 6.47227e+06 2.46171e+06 1.83714e+06 2.34166e+06
threshold=174.50000000000003 -0.28593640109604163 0.33949572413642698 0.68687010614819843 0.26245601507157795 0.0050057615692725719
decision_type=2 2 2 2 2 2
left_child=2 -2 -1 -3 5 -4
right_child=1 3 4 -5 -6 -7
leaf_value=0.46793528690297059 -0.65448201084422541 -1.5920155905622166 0.98102546096166976 -2.4203437110238077 2.9858319189064053 1.6401117242026972
leaf_weight=6532 5693 3249 5509 2654 246 3584
leaf_count=6532 5693 3249 5509 2654 246 3584
internal_value=-0.00878272 -1.32276 0.951378 -1.96617 1.28908 1.24156
internal_weight=27467 11596 15871 5903 9339 9093
internal_count=27467 11596 15871 5903 9339 9093
is_linear=0
shrinkage=0.02


Tree=13
num_leaves=7
num_cat=0
split_feature=38 37 37 21 37 6
split_gain=8.32911e+07 9.07413e+06 9.00615e+06 2.06887e+06 1.86584e+06 1.71846e+06
threshold=192.50000000000003 0.072434800161762514 0.23930789986230638 1.5359838208454504 -0.66310114370129436 -0.015040434669003786
decision_type=2 2 2 2 2 2
left_child=1 -1 4 5 -2 -3
right_child=2 3 -4 -5 -6 -7
leaf_value=0.24972996476673159 -0.59371795141542982 2.0959147620159087 -2.1599754624058356 0.38687030094040958 -1.2788618998713679 1.2084874336138218
leaf_weight=6311 3073 979 4015 1113 3325 8651
leaf_count=6311 3073 979 4015 1113 3325 8651
internal_value=-0.00860194 0.851918 -1.41766 1.20539 -0.950504 1.29975
internal_weight=27467 17054 10413 10743 6398 9630
internal_count=27467 17054 10413 10743 6398 9630
is_linear=0
shrinkage=0.02


Tree=14
num_leaves=7
num_cat=0
split_feature=39 37 37 21 15 6
split_gain=7.99992e+07 1.00768e+07 7.5502e+06 1.98694e+06 2.06351e+06 2.14952e+06
threshold=-0.096513920914515425 0.072434800161762514 0.31665771973531492 1.5359838208454504 0.095000000000000029 0.0070054837444993865
decision_type=2 2 2 2 10 2
left_child=2 -2 -1 4 5 -3
right_child=1 3 -4 -5 -6 -7
leaf_value=-1.01596257851437 0.20042644771356283 1.2937521616077592 -2.1576689036111079 0.37916750201019123 0.89493499376925967 2.2011836733670131
leaf_weight=6108 6869 4638 3747 1113 3627 1365
leaf_count=6108 6869 4638 3747 1113 3627 1365
internal_value=-0.00843024 0.798919 -1.45093 1.18132 1.27378 1.50175
internal_weight=27467 17612 9855 10743 9630 6003
internal_count=27467 17612 9855 10743 9630 6003
is_linear=0
shrinkage=0.02


Tree=15
num_leaves=7
num_cat=0
split_feature=38 37 37 37 45 15
split_gain=7.53643e+07 1.14291e+07 5.72783e+06 1.92058e+06 1.8143e+06 1.82282e+06
threshold=172.50000000000003 -0.19212048394002823 0.16040607642869176 0.62616488140825877 0.26245601507157795 0.049999999999999968
decision_type=2 2 2 2 2 10
left_child=2 -2 -1 -3 5 -4
right_child=1 3 4 -5 -6 -7
leaf_value=0.38517803489410035 -0.62751016277282057 -1.5013187449795886 1.4000154809805596 -2.2625365971486806 2.7729472193036759 0.85997197787438029
leaf_weight=5636 6068 2652 5086 2767 275 4993
leaf_count=5636 6068 2652 5086 2767 275 4993
internal_value=0.011033 -1.22447 0.898708 -1.89173 1.17792 1.13304
internal_weight=27477 11487 15990 5419 10354 10079
internal_count=27477 11487 15990 5419 10354 10079
is_linear=0
shrinkage=0.02


Tree=16
num_leaves=7
num_cat=0
split_feature=39 16 16 39 21 15
split_gain=7.22731e+07 6.79424e+06 5.18305e+06 3.73794e+06 3.72938e+06 2.26885e+06
threshold=-0.072432450066572743 1.0000000180025095e-35 1.0000000180025095e-35 -0.65705036282384954 1.6437333977300281 0.095000000000000029
decision_type=2 2 2 2 2 10
left_child=2 4 3 -1 5 -2
right_child=1 -3 -4 -5 -6 -7
leaf_value=-1.3063829458401068 1.2788223969405037 -0.080017196559599948 -0.5253568924330011 -2.2604232948377776 0.078213705253115925 0.73034399260843541
leaf_weight=5089 7999 3072 2265 2451 1715 4886
leaf_count=5089 7999 3072 2265 2451 1715 4886
internal_value=0.0108161 0.774799 -1.36584 -1.6178 0.954627 1.0712
internal_weight=27477 17672 9805 7540 14600 12885
internal_count=27477 17672 9805 7540 14600 12885
is_linear=0
shrinkage=0.02


Tree=17
num_leaves=7
num_cat=0
split_feature=38 37 37 37 45 12
split_gain=6.95742e+07 1.062e+07 5.40298e+06 2.30015e+06 1.69275e+06 1.51205e+06
threshold=172.50000000000003 -0.39195389278427312 0.34705030558948152 0.57465703571039606 0.26245601507157795 1.5900000000000003
decision_type=2 2 2 2 2 2
left_child=2 -2 -1 -3 5 -4
right_child=1 3 4 -5 -6 -7
leaf_value=0.43017438725718621 -0.52787488811563432 -1.3750548969260512 -0.73302789261575385 -2.1582456711332139 2.777350592300238 1.1648101286979089
leaf_weight=6701 5380 3218 168 2889 254 8867
leaf_count=6701 5380 3218 168 2889 254 8867
internal_value=0.0105922 -1.1765 0.863486 -1.74702 1.17567 1.12914
internal_weight=27477 11487 15990 6107 9289 9035
internal_count=27477 11487 15990 6107 9289 9035
is_linear=0
shrinkage=0.02


Tree=18
num_leaves=7
num_cat=0
split_feature=38 38 38 21 15 6
split_gain=6.6823e+07 1.02045e+07 5.19405e+06 2.10083e+06 1.92101e+06 2.31306e+06
threshold=172.50000000000003 282.50000000000006 96.500000000000014 1.6437333977300281 0.095000000000000029 0.0075883501626017322
decision_type=2 2 2 2 10 2
left_child=2 -2 3 4 5 -1
right_child=1 -3 -4 -5 -6 -7
leaf_value=1.200911797336782 -0.59908924289399923 -1.7950743602523229 0.30593121103045606 0.22634574753312231 0.8180415206631676 2.1806783630253861
leaf_weight=5038 6172 5315 4930 1032 3788 1202
leaf_count=5038 6172 5315 4930 1032 3788 1202
internal_value=0.0103788 -1.15301 0.846239 1.08683 1.17523 1.39124
internal_weight=27477 11487 15990 11060 10028 6240
internal_count=27477 11487 15990 11060 10028 6240
is_linear=0
shrinkage=0.02


Tree=19
num_leaves=7
num_cat=0
split_feature=39 37 37 12 13 6
split_gain=6.42723e+07 8.51824e+06 6.55089e+06 1.8666e+06 2.0965e+06 3.26867e+06
threshold=-0.096513920914515425 0.024163745236132298 0.33189708461605466 1.5900000000000003 0.14000000000000004 0.007785751709014078
decision_type=2 2 2 2 10 2
left_child=2 -2 -1 -3 5 -5
right_child=1 3 -4 4 -6 -7
leaf_value=-0.90177293557272009 0.16270074096486201 -0.71321587781537754 -1.9810339103645378 1.033019163897277 0.51495079395842058 1.9725539366119711
leaf_weight=6116 6731 228 3570 6949 1992 1891
leaf_count=6116 6731 228 3570 6949 1992 1891
internal_value=0.0101797 0.723854 -1.30038 1.06514 1.10288 1.235
internal_weight=27477 17791 9686 11060 10832 8840
internal_count=27477 17791 9686 11060 10832 8840
is_linear=0
shrinkage=0.02


Tree=20
num_leaves=7
num_cat=0
split_feature=38 37 37 37 45 6
split_gain=6.20472e+07 9.81752e+06 4.45411e+06 1.86971e+06 1.59327e+06 1.96993e+06
threshold=168.50000000000003 -0.33189708461605477 0.32429844509568256 0.60072277358566439 0.26245601507157795 0.0050057615692725719
decision_type=2 2 2 2 2 2
left_child=2 -2 -1 -3 5 -4
right_child=1 3 4 -5 -6 -7
leaf_value=0.40942287741666789 -0.51176131687246651 -1.3269109426252126 0.81988482747843794 -2.0446076784028739 2.6758570801504988 1.4204129477778527
leaf_weight=6106 5828 3116 5527 2806 248 3649
leaf_count=6106 5828 3116 5527 2806 248 3649
internal_value=0.00113549 -1.09518 0.83069 -1.66841 1.10328 1.05934
internal_weight=27280 11750 15530 5922 9424 9176
internal_count=27280 11750 15530 5922 9424 9176
is_linear=0
shrinkage=0.02


Tree=21
num_leaves=7
num_cat=0
split_feature=38 37 37 37 45 23
split_gain=5.96122e+07 8.74131e+06 4.82943e+06 1.80276e+06 1.53219e+06 1.53069e+06
threshold=174.50000000000003 -0.33189708461605477 0.32429844509568256 0.72117904844717229 0.26245601507157795 -0.010529087499852055
decision_type=2 2 2 2 2 2
left_child=2 -2 -1 -3 5 -4
right_child=1 3 4 -5 -6 -7
leaf_value=0.37120919183365941 -0.52557278192358381 -1.3323667432271131 -0.099599821533400593 -2.044575995335066 2.6233975798716189 1.0967382376748012
leaf_weight=6467 5467 3417 449 2505 248 8727
leaf_count=6467 5467 3417 449 2505 248 8727
internal_value=0.00111807 -1.10296 0.792507 -1.6351 1.08126 1.03818
internal_weight=27280 11389 15891 5922 9424 9176
internal_count=27280 11389 15891 5922 9424 9176
is_linear=0
shrinkage=0.02


Tree=22
num_leaves=7
num_cat=0
split_feature=38 37 37 37 45 23
split_gain=5.7272e+07 9.09094e+06 4.10186e+06 2.00144e+06 1.47348e+06 1.47016e+06
threshold=168.50000000000003 -0.45038352250181818 0.32429844509568256 0.52076352791745062 0.26245601507157795 -0.010529087499852055
decision_type=2 2 2 2 2 2
left_child=2 -2 -1 -3 5 -4
right_child=1 3 4 -5 -6 -7
leaf_value=0.3938230091520355 -0.44883140288521634 -1.2256565863420401 -0.097629758867923383 -1.9420065667364861 2.5719665358471775 1.0748160321744131
leaf_weight=6106 5405 3347 449 2998 248 8727
leaf_count=6106 5405 3347 449 2998 248 8727
internal_value=0.00109603 -1.05218 0.79809 -1.56539 1.05968 1.01742
internal_weight=27280 11750 15530 6345 9424 9176
internal_count=27280 11750 15530 6345 9424 9176
is_linear=0
shrinkage=0.02


Tree=23
num_leaves=7
num_cat=0
split_feature=39 16 16 21 39 15
split_gain=5.49611e+07 5.60601e+06 3.77481e+06 3.06975e+06 2.76019e+06 1.9085e+06
threshold=-0.096513920914515425 1.0000000180025095e-35 1.0000000180025095e-35 1.5359838208454504 -0.65705036282384954 0.095000000000000029
decision_type=2 2 2 2 2 10
left_child=2 3 4 5 -1 -2
right_child=1 -3 -4 -5 -6 -7
leaf_value=-1.1535387490126809 1.1428479059248067 -0.094700975379692895 -0.47324051842648962 0.091711580858483827 -1.9773273439620329 0.63169380842101486
leaf_weight=5109 7768 3159 2185 1925 2413 4721
leaf_count=5109 7768 3159 2185 1925 2413 4721
internal_value=0.00107531 0.668228 -1.20642 0.835408 -1.41894 0.949955
internal_weight=27280 17573 9707 14414 7522 12489
internal_count=27280 17573 9707 14414 7522 12489
is_linear=0
shrinkage=0.02


Tree=24
num_leaves=7
num_cat=0
split_feature=38 37 37 37 12 13
split_gain=5.28704e+07 7.79812e+06 4.36768e+06 1.46618e+06 1.46317e+06 1.58943e+06
threshold=174.50000000000003 -0.2549182424821283 0.32429844509568256 0.80422987888922448 1.5900000000000003 0.14000000000000004
decision_type=2 2 2 2 2 10
left_child=2 -2 -1 -3 -4 -6
right_child=1 3 4 -5 5 -7
leaf_value=0.34570054304261078 -0.5157702181461401 -1.2966665935823545 -0.8319856481862492 -1.9585682944146241 1.1783149159262551 0.49878561735941618
leaf_weight=6467 5706 3410 164 2273 7564 1696
leaf_count=6467 5706 3410 164 2273 7564 1696
internal_value=0.00104708 -1.03873 0.746343 -1.56289 1.02095 1.05419
internal_weight=27280 11389 15891 5683 9424 9260
internal_count=27280 11389 15891 5683 9424 9260
is_linear=0
shrinkage=0.02


Tree=25
num_leaves=7
num_cat=0
split_feature=39 37 37 6 6 13
split_gain=5.1033e+07 6.75536e+06 4.9929e+06 1.85721e+06 2.78513e+06 3.34274e+06
threshold=-0.096513920914515425 -0.088493115911358458 0.40672344679685379 -0.015040434669003786 0.0050057615692725719 0.16500000000000006
decision_type=2 2 2 2 2 8
left_child=2 -2 -1 -3 -5 -6
right_child=1 3 -4 4 5 -7
leaf_value=-0.83260131283547345 0.097705119542708552 1.6881514446806594 -1.7818867607476154 0.55656706808618972 1.4686593566290878 0.0074899340995664507
leaf_weight=6437 6118 1133 3391 6071 3646 756
leaf_count=6437 6118 1133 3391 6071 3646 756
internal_value=-0.00530042 0.635616 -1.16088 0.919007 0.835033 1.21801
internal_weight=27552 17724 9828 11606 10473 4402
internal_count=27552 17724 9828 11606 10473 4402
is_linear=0
shrinkage=0.02


Tree=26
num_leaves=7
num_cat=0
split_feature=38 37 37 12 21 12
split_gain=4.91307e+07 6.74416e+06 4.56787e+06 1.873e+06 1.80308e+06 1.91012e+06
threshold=204.50000000000003 -0.088493115911358458 0.40672344679685379 1.5900000000000003 1.6630612244898015 2.1250000000000004
decision_type=2 2 2 2 2 2
left_child=1 -1 -2 -3 5 -5
right_child=2 3 -4 4 -6 -7
leaf_value=0.087681960919223811 -0.83375148900276674 -0.84184476536978425 -1.7463014936503307 1.1454017945630053 0.15487133360577113 0.43188497430770023
leaf_weight=6296 6259 238 3391 8465 1069 1834
leaf_count=6296 6259 238 3391 8465 1069 1834
internal_value=-0.00519004 0.614845 -1.15516 0.900659 0.937494 1.01861
internal_weight=27552 17902 9650 11606 11368 10299
internal_count=27552 17902 9650 11606 11368 10299
is_linear=0
shrinkage=0.02


Tree=27
num_leaves=7
num_cat=0
split_feature=38 37 37 12 12 6
split_gain=4.71869e+07 6.47719e+06 4.39934e+06 1.79958e+06 1.74575e+06 2.9997e+06
threshold=204.50000000000003 -0.088493115911358458 0.27046242105751966 1.5900000000000003 2.1650000000000005 0.0070054837444993865
decision_type=2 2 2 2 2 2
left_child=1 -1 -2 -3 5 -5
right_child=2 3 -4 4 -6 -7
leaf_value=0.085929714830712101 -0.78274968308848414 -0.82535431841917251 -1.6557463349725152 0.80562502156218785 0.21042161541426768 1.6011529664731328
leaf_weight=6296 5796 238 3854 7589 1243 2536
leaf_count=6296 5796 238 3854 7589 1243 2536
internal_value=-0.00509205 0.602554 -1.13208 0.882654 0.91876 1.00557
internal_weight=27552 17902 9650 11606 11368 10125
internal_count=27552 17902 9650 11606 11368 10125
is_linear=0
shrinkage=0.02


Tree=28
num_leaves=7
num_cat=0
split_feature=38 37 37 12 12 11
split_gain=4.53522e+07 6.14188e+06 4.12366e+06 1.58801e+06 1.57484e+06 3.2041e+06
threshold=180.50000000000003 -0.23930789986230647 0.048311812032526227 1.5900000000000003 2.2050000000000005 0.15500000000000005
decision_type=2 2 2 2 2 10
left_child=2 -2 -1 -4 -5 -6
right_child=1 -3 3 4 5 -7
leaf_value=0.21704358741859026 -0.50971292472915586 -1.4492418192324663 -0.7908400462889994 0.98755491913473314 1.830257282640082 -0.98851840648669997
leaf_weight=5498 5467 5682 217 9991 244 453
leaf_count=5498 5467 5682 217 9991 244 453
internal_value=-0.00499225 -0.988971 0.663909 0.889003 0.923463 0.00426301
internal_weight=27552 11149 16403 10905 10688 697
internal_count=27552 11149 16403 10905 10688 697
is_linear=0
shrinkage=0.02


Tree=29
num_leaves=7
num_cat=0
split_feature=38 38 38 21 15 3
split_gain=4.36078e+07 6.1263e+06 4.00222e+06 1.72238e+06 1.56163e+06 1.40645e+06
threshold=206.50000000000003 104.50000000000001 319.50000000000006 1.6630612244898015 0.095000000000000029 1.0000000180025095e-35
decision_type=2 2 2 2 10 2
left_child=1 3 -2 4 -1 -6
right_child=2 -3 -4 -5 5 -7
leaf_value=1.1136960726938814 -0.79591276431745517 0.073654584196735165 -1.655552552271601 0.094055010109284048 0.41828100663057938 1.3477072702665087
leaf_weight=6582 6192 6344 3345 1105 3166 818
leaf_count=6582 6192 6344 3345 1105 3166 818
internal_value=-0.00489495 0.574 -1.09813 0.845825 0.924364 0.610562
internal_weight=27552 18015 9537 11671 10566 3984
internal_count=27552 18015 9537 11671 10566 3984
is_linear=0
shrinkage=0.02


Tree=30
num_leaves=7
num_cat=0
split_feature=39 37 37 6 6 13
split_gain=4.22271e+07 5.58721e+06 4.30708e+06 1.8062e+06 2.80841e+06 2.01926e+06
threshold=-0.072432450066572743 0.072434800161762514 0.23930789986230638 -0.015040434669003786 0.0041948602972688995 0.14000000000000004
decision_type=2 2 2 2 2 8
left_child=2 -2 -1 -3 -5 -6
right_child=1 3 -4 4 5 -7
leaf_value=-0.69713391058590601 0.14537144423374629 1.6627801929216519 -1.5528810306289069 0.48033136845576802 1.3913573981265805 0.36335309361773954
leaf_weight=5898 6697 1065 3927 5244 3462 986
leaf_count=5898 6697 1065 3927 5244 3462 986
internal_value=0.00870557 0.59904 -1.03979 0.881282 0.794594 1.16414
internal_weight=27279 17454 9825 10757 9692 4448
internal_count=27279 17454 9825 10757 9692 4448
is_linear=0
shrinkage=0.02


Tree=31
num_leaves=7
num_cat=0
split_feature=39 37 37 45 23 15
split_gain=4.05573e+07 5.36646e+06 4.14228e+06 1.52902e+06 1.4211e+06 1.67514e+06
threshold=-0.072432450066572743 0.072434800161762514 0.30133616632528909 0.26245601507157795 -0.010529087499852055 0.05000000000000001
decision_type=2 2 2 2 2 10
left_child=2 -2 -1 4 -3 -6
right_child=1 3 -4 -5 5 -7
leaf_value=-0.69723440678387549 0.14246618503498448 -0.20005201479964529 -1.5445425680195817 2.2681617908037142 1.1304301184949093 0.60994835140657744
leaf_weight=6101 6697 515 3724 298 5068 4876
leaf_count=6101 6697 515 3724 298 5068 4876
internal_value=0.00853803 0.587082 -1.01901 0.863692 0.822611 0.875649
internal_weight=27279 17454 9825 10757 10459 9944
internal_count=27279 17454 9825 10757 10459 9944
is_linear=0
shrinkage=0.02


Tree=32
num_leaves=7
num_cat=0
split_feature=38 37 37 21 13 12
split_gain=3.902e+07 5.96086e+06 3.36098e+06 1.4684e+06 1.41543e+06 1.34727e+06
threshold=210.50000000000003 0.072434800161762514 0.49299170662130271 1.5359838208454504 0.14000000000000004 1.5900000000000003
decision_type=2 2 2 2 10 2
left_child=1 -1 -2 4 5 -3
right_child=2 3 -4 -5 -6 -7
leaf_value=0.10757480931070616 -0.77958411983539688 -0.69608293643779007 -1.5901492846453633 0.1512047876345097 0.40694862954664368 1.0774165703856018
leaf_weight=7353 6069 172 3100 1094 1740 7751
leaf_count=7353 6069 172 3100 1094 1740 7751
internal_value=0.00837354 0.546568 -1.05435 0.846454 0.925048 1.0385
internal_weight=27279 18110 9169 10757 9663 7923
internal_count=27279 18110 9169 10757 9663 7923
is_linear=0
shrinkage=0.02


Tree=33
num_leaves=7
num_cat=0
split_feature=38 37 37 45 7 11
split_gain=3.75563e+07 5.18207e+06 3.66637e+06 1.46367e+06 1.51256e+06 2.25945e+06
threshold=182.50000000000003 -0.33189708461605477 0.072434800161762514 0.26245601507157795 5840.7548828125009 0.16500000000000006
decision_type=2 2 2 2 2 10
left_child=2 -2 -1 4 -4 -6
right_child=1 -3 3 -5 5 -7
leaf_value=0.19938840695361604 -0.42586015062712246 -1.3019591701379272 0.50295152912067631 2.2035159598876146 1.1670996327052441 0.14782225426402765
leaf_weight=5629 4981 5912 4342 298 5065 1052
leaf_count=5629 4981 5912 4342 298 5065 1052
internal_value=0.00820122 -0.901728 0.61319 0.829533 0.789351 0.992068
internal_weight=27279 10893 16386 10757 10459 6117
internal_count=27279 10893 16386 10757 10459 6117
is_linear=0
shrinkage=0.02


Tree=34
num_leaves=7
num_cat=0
split_feature=38 37 37 6 6 13
split_gain=3.60711e+07 4.97702e+06 3.52157e+06 1.6782e+06 2.70042e+06 1.89702e+06
threshold=182.50000000000003 -0.33189708461605477 0.072434800161762514 -0.015040434669003786 0.0041948602972688995 0.14000000000000004
decision_type=2 2 2 2 2 8
left_child=2 -2 -1 -4 -5 -6
right_child=1 -3 3 4 5 -7
leaf_value=0.19540417319559747 -0.41735148723862209 -1.2759419795357538 1.5661275712998113 0.42137320177817311 1.3120050962097169 0.31586899032566307
leaf_weight=5629 4981 5912 1065 5244 3462 986
leaf_count=5629 4981 5912 1065 5244 3462 986
internal_value=0.00804633 -0.883709 0.600952 0.81298 0.729456 1.09179
internal_weight=27279 10893 16386 10757 9692 4448
internal_count=27279 10893 16386 10757 9692 4448
is_linear=0
shrinkage=0.02


Tree=35
num_leaves=7
num_cat=0
split_feature=38 37 21 37 6 6
split_gain=3.44738e+07 5.75033e+06 2.82867e+06 1.63707e+06 1.35369e+06 1.76554e+06
threshold=168.50000000000003 -0.3770826071163807 1.6630612244898015 0.47184068946248214 -0.015609045031882372 0.0013994200196696396
decision_type=2 2 2 2 2 2
left_child=2 -2 3 -1 -5 -6
right_child=1 -3 -4 4 5 -7
leaf_value=0.4612014002169002 -0.35452490486677252 -1.2398583279157531 -0.12053539233453382 1.7217947781057623 0.454250565645407 1.0876374981401875
leaf_weight=5873 5646 6118 1834 731 3079 4142
leaf_count=5873 5646 6118 1834 731 3079 4142
internal_value=0.00265374 -0.815284 0.617202 0.715078 0.902172 0.818066
internal_weight=27423 11764 15659 13825 7952 7221
internal_count=27423 11764 15659 13825 7952 7221
is_linear=0
shrinkage=0.02


Tree=36
num_leaves=7
num_cat=0
split_feature=38 38 21 15 3 22
split_gain=3.31104e+07 5.52279e+06 2.72113e+06 1.5014e+06 1.98059e+06 2.30049e+06
threshold=168.50000000000003 268.50000000000006 1.5359838208454504 0.095000000000000029 1.0000000180025095e-35 0.002820131662976844
decision_type=2 2 2 10 2 2
left_child=2 -2 3 -1 5 -5
right_child=1 -3 -4 4 -6 -7
leaf_value=0.87878204705352003 -0.34744068227871167 -1.215081410249931 -0.040344201390322444 0.6630779198651533 1.1798395918156082 -0.30187172748778363
leaf_weight=8299 5646 6118 2240 2209 1130 1781
leaf_count=8299 5646 6118 2240 2209 1130 1781
internal_value=0.002608 -0.798991 0.604881 0.712562 0.442542 0.232519
internal_weight=27423 11764 15659 13419 5120 3990
internal_count=27423 11764 15659 13419 5120 3990
is_linear=0
shrinkage=0.02


Tree=37
num_leaves=7
num_cat=0
split_feature=39 37 37 10 12 21
split_gain=3.16163e+07 4.31699e+06 3.48226e+06 1.50734e+06 2.51907e+06 2.04652e+06
threshold=-0.096513920914515425 -0.16040607642869192 0.47891205135254394 2.8250000000000006 2.1950000000000007 1.5359838208454504
decision_type=2 2 2 2 2 2
left_child=2 -2 -1 -3 5 -5
right_child=1 3 -4 4 -6 -7
leaf_value=-0.65076342808070831 0.061911451194502115 1.1583312365234955 -1.4606298503160327 0.81244597008931396 -0.58304460345528275 -0.12975163791310979
leaf_weight=6591 5855 2535 3141 7596 657 1048
leaf_count=6591 5855 2535 3141 7596 657 1048
internal_value=0.00255882 0.506203 -0.912763 0.725864 0.607436 0.698205
internal_weight=27423 17691 9732 11836 9301 8644
internal_count=27423 17691 9732 11836 9301 8644
is_linear=0
shrinkage=0.02


Tree=38
num_leaves=7
num_cat=0
split_feature=38 37 21 45 23 14
split_gain=3.06095e+07 5.36715e+06 2.5162e+06 1.48672e+06 1.52459e+06 2.03803e+06
threshold=164.50000000000003 -0.3770826071163807 1.6630612244898015 0.26245601507157795 -0.010529087499852055 0.53500000000000014
decision_type=2 2 2 2 2 2
left_child=2 -2 3 4 5 -1
right_child=1 -3 -4 -5 -6 -7
leaf_value=-1.0300243714143691 -0.32306035359393881 -1.1694860181476718 -0.1152680733117069 1.8603417769801676 0.69386401597430836 1.5241773866918047
leaf_weight=446 5879 6118 1780 413 12619 168
leaf_count=446 5879 6118 1780 413 12619 168
internal_value=0.00250475 -0.755012 0.591689 0.683914 0.646509 -0.324488
internal_weight=27423 11997 15426 13646 13233 614
internal_count=27423 11997 15426 13646 13233 614
is_linear=0
shrinkage=0.02


Tree=39
num_leaves=7
num_cat=0
split_feature=38 37 37 6 6 13
split_gain=2.94116e+07 4.41302e+06 2.93396e+06 1.46055e+06 2.3957e+06 2.49267e+06
threshold=208.50000000000003 -0.16040607642869192 0.50694340586438436 -0.015040434669003786 0.0050057615692725719 0.16500000000000006
decision_type=2 2 2 2 2 8
left_child=1 -1 -2 -3 -5 -6
right_child=2 3 -4 4 5 -7
leaf_value=0.043266326879296324 -0.66159979742821917 1.3776978148315262 -1.418367652232998 0.36973002203841687 1.1938802285292081 -0.037779836722210067
leaf_weight=6276 6253 1145 3058 6179 3714 798
leaf_count=6276 6253 1145 3058 6179 3714 798
internal_value=0.00245991 0.472055 -0.910772 0.699305 0.626039 0.976246
internal_weight=27423 18112 9311 11836 10691 4512
internal_count=27423 18112 9311 11836 10691 4512
is_linear=0
shrinkage=0.02


Tree=40
num_leaves=7
num_cat=0
split_feature=38 37 37 6 6 12
split_gain=2.86131e+07 4.88611e+06 2.2856e+06 1.53344e+06 2.49472e+06 3.0108e+06
threshold=220.50000000000003 -0.14448436172553858 0.49299170662130271 -0.015040434669003786 0.0050057615692725719 2.1650000000000005
decision_type=2 2 2 2 2 2
left_child=1 -1 -2 -3 -5 -6
right_child=2 3 -4 4 5 -7
leaf_value=0.015201776580762286 -0.70798944811264497 1.3724412428351547 -1.3833219222610325 0.34346471161979686 1.1768835803683506 -0.27571076313850162
leaf_weight=7050 5593 1153 3142 6185 3849 668
leaf_count=7050 5593 1153 3142 6185 3849 668
internal_value=-0.00520532 0.432191 -0.951561 0.680058 0.604857 0.961998
internal_weight=27640 18905 8735 11855 10702 4517
internal_count=27640 18905 8735 11855 10702 4517
is_linear=0
shrinkage=0.02


Tree=41
num_leaves=7
num_cat=0
split_feature=38 37 37 6 6 13
split_gain=2.74815e+07 4.69294e+06 2.1953e+06 1.47314e+06 2.39604e+06 2.74665e+06
threshold=220.50000000000003 -0.14448436172553858 0.49299170662130271 -0.015040434669003786 0.0050057615692725719 0.15000000000000005
decision_type=2 2 2 2 2 8
left_child=1 -1 -2 -3 -5 -6
right_child=2 3 -4 4 5 -7
leaf_value=0.014897955767636093 -0.69384230618205733 1.3451109359630855 -1.3556994370714157 0.33660096424503289 1.2022186408526681 0.0062745986514654893
leaf_weight=7050 5593 1153 3142 6185 3536 981
leaf_count=7050 5593 1153 3142 6185 3536 981
internal_value=-0.00509925 0.423561 -0.932553 0.666479 0.592771 0.942778
internal_weight=27640 18905 8735 11855 10702 4517
internal_count=27640 18905 8735 11855 10702 4517
is_linear=0
shrinkage=0.02


Tree=42
num_leaves=7
num_cat=0
split_feature=38 37 21 6 6 12
split_gain=2.64283e+07 4.75153e+06 2.3147e+06 1.38348e+06 1.58668e+06 2.76099e+06
threshold=164.50000000000003 -0.50694340586438436 1.5359838208454504 -0.015040434669003786 0.0050057615692725719 2.2050000000000005
decision_type=2 2 2 2 2 2
left_child=2 -2 3 -1 -5 -6
right_child=1 -3 -4 4 5 -7
leaf_value=1.2102126507523649 -0.26643701600109387 -1.0609192930852103 -0.059764815060033318 0.37089237902303668 0.98727529678799086 -0.69083729342594224
leaf_weight=1519 5493 6671 2186 6836 4509 426
leaf_count=1519 5493 6671 2186 6836 4509 426
internal_value=-0.00499417 -0.702405 0.543215 0.64238 0.568621 0.841864
internal_weight=27640 12164 15476 13290 11771 4935
internal_count=27640 12164 15476 13290 11771 4935
is_linear=0
shrinkage=0.02


Tree=43
num_leaves=7
num_cat=0
split_feature=38 37 37 6 6 12
split_gain=2.54037e+07 3.8839e+06 2.42065e+06 1.34129e+06 2.20779e+06 2.72658e+06
threshold=210.50000000000003 -0.0724348001617625 0.46470809443343863 -0.015040434669003786 0.0050057615692725719 2.1650000000000005
decision_type=2 2 2 2 2 2
left_child=1 -1 -2 -3 -5 -6
right_child=2 3 -4 4 5 -7
leaf_value=0.045712381719442627 -0.61920359733422436 1.3038226648160345 -1.2972327969194783 0.32855378260381435 1.1246956390104101 -0.26698438275062053
leaf_weight=6753 6065 1128 3239 6030 3765 660
leaf_count=6753 6065 1128 3239 6030 3765 660
internal_value=-0.00489252 0.426996 -0.855816 0.649173 0.577952 0.917056
internal_weight=27640 18336 9304 11583 10455 4425
internal_count=27640 18336 9304 11583 10455 4425
is_linear=0
shrinkage=0.02


Tree=44
num_leaves=7
num_cat=0
split_feature=38 37 21 10 6 6
split_gain=2.44436e+07 4.40687e+06 2.21333e+06 1.81669e+06 1.28225e+06 1.46834e+06
threshold=164.50000000000003 -0.47891205135254417 1.5162040510127521 2.8250000000000006 -0.015040434669003786 0.0050057615692725719
decision_type=2 2 2 2 2 2
left_child=2 -2 4 -4 -1 -6
right_child=1 -3 3 -5 5 -7
leaf_value=1.1673800255756432 -0.26335560882735648 -1.0272387136910326 1.2210615279900061 -0.3125014560906616 0.35905699825537407 0.81314364717822785
leaf_weight=1518 5605 6559 365 1869 6817 4907
leaf_count=1518 5605 6559 365 1869 6817 4907
internal_value=-0.00479243 -0.675505 0.52243 -0.0597744 0.620636 0.549377
internal_weight=27640 12164 15476 2234 13242 11724
internal_count=27640 12164 15476 2234 13242 11724
is_linear=0
shrinkage=0.02


Tree=45
num_leaves=7
num_cat=0
split_feature=38 37 37 7 11 11
split_gain=2.3399e+07 3.65614e+06 2.20293e+06 1.28683e+06 2.23978e+06 1.77175e+06
threshold=212.50000000000003 0.20002569377604437 0.62616488140825877 5813.2500000000009 0.17999999999999997 0.2850000000000002
decision_type=2 2 2 2 10 10
left_child=1 -1 -2 -3 -5 -6
right_child=2 3 -4 4 5 -7
leaf_value=0.094458701805892067 -0.62539747921497824 0.38251391320773764 -1.303160183797377 1.0146608829040531 -0.64094941132294669 1.0747838450166498
leaf_weight=8200 6319 4003 2764 5122 649 376
leaf_count=8200 6319 4003 2764 5122 649 376
internal_value=-0.00229013 0.408642 -0.832247 0.662294 0.844031 -0.00940609
internal_weight=27433 18350 9083 10150 6147 1025
internal_count=27433 18350 9083 10150 6147 1025
is_linear=0
shrinkage=0.02


Tree=46
num_leaves=7
num_cat=0
split_feature=38 37 10 12 37 45
split_gain=2.25391e+07 3.71899e+06 2.17058e+06 3.41252e+06 1.39608e+06 1.19079e+06
threshold=172.50000000000003 -0.080463958036560534 2.8250000000000006 2.1950000000000007 0.42869256140305406 0.15279010665206463
decision_type=2 2 2 2 2 2
left_child=2 -2 -1 4 -4 -6
right_child=1 -3 3 -5 5 -7
leaf_value=0.95046775868356126 -0.35349810374525725 -1.0758901733334438 0.2255246495734492 -0.81798016787336081 0.58547705328330946 1.6534186238314197
leaf_weight=3218 6439 5121 5471 896 5841 447
leaf_count=3218 6439 5121 5471 896 5841 447
internal_value=-0.00224434 -0.67384 0.486924 0.368722 0.459454 0.662648
internal_weight=27433 11560 15873 12655 11759 6288
internal_count=27433 11560 15873 12655 11759 6288
is_linear=0
shrinkage=0.02


Tree=47
num_leaves=7
num_cat=0
split_feature=38 37 10 12 6 45
split_gain=2.16789e+07 4.01979e+06 1.81568e+06 2.54506e+06 2.33773e+06 1.93726e+06
threshold=228.50000000000003 -0.58776618202112674 2.8250000000000006 2.1950000000000007 0.015249987618250917 -0.095806800152300017
decision_type=2 2 2 2 2 2
left_child=1 -1 -3 4 5 -4
right_child=-2 2 3 -5 -6 -7
leaf_value=-0.092887105525090843 -0.8600288507715772 0.99787659275848695 -0.54936170470730383 -0.68482597064305084 1.5324207216321488 0.50871634500050955
leaf_weight=5459 8239 2849 749 757 824 8556
leaf_count=5459 8239 2849 749 757 824 8556
internal_value=-0.0021952 0.366157 0.548572 0.430579 0.514237 0.423298
internal_weight=27433 19194 13735 10886 10129 9305
internal_count=27433 19194 13735 10886 10129 9305
is_linear=0
shrinkage=0.02


Tree=48
num_leaves=7
num_cat=0
split_feature=38 38 21 38 10 10
split_gain=2.08211e+07 3.86078e+06 1.80985e+06 1.65808e+06 1.43408e+06 1.3154e+06
threshold=228.50000000000003 136.50000000000003 1.5359838208454504 350.50000000000006 2.8250000000000006 3.0450000000000004
decision_type=2 2 2 2 2 2
left_child=1 2 5 -2 -4 -1
right_child=3 -3 4 -5 -6 -7
leaf_value=0.84257661062802114 -0.66352130107584129 -0.091031062149438985 1.1602533630442016 -1.2943917411040606 -0.32631171944257809 0.42249762019978571
leaf_weight=5782 5906 5459 311 2333 1449 6193
leaf_count=5782 5906 5459 311 2333 1449 6193
internal_value=-0.00214819 0.358843 0.537614 -0.842839 -0.0610862 0.625595
internal_weight=27433 19194 13735 8239 1760 11975
internal_count=27433 19194 13735 8239 1760 11975
is_linear=0
shrinkage=0.02


Tree=49
num_leaves=7
num_cat=0
split_feature=38 37 21 10 13 6
split_gain=2.00205e+07 3.37749e+06 2.40971e+06 1.59764e+06 2.31654e+06 2.34309e+06
threshold=172.50000000000003 -0.080463958036560534 1.6630612244898015 3.0450000000000004 0.22500000000000012 0.015249987618250917
decision_type=2 2 2 2 10 2
left_child=2 -2 3 -1 5 -5
right_child=1 -3 -4 4 -6 -7
leaf_value=0.77462402579779077 -0.32979420519365699 -1.0182095099928041 -0.21048312973209476 0.28506920444323075 -1.6171491940543377 1.4645668508638121
leaf_weight=6631 6439 5121 1892 6373 228 749
leaf_count=6631 6439 5121 1892 6373 228 749
internal_value=-0.00210505 -0.635066 0.458923 0.549554 0.346113 0.410054
internal_weight=27433 11560 15873 13981 7350 7122
internal_count=27433 11560 15873 13981 7350 7122
is_linear=0
shrinkage=0.02


Tree=50
num_leaves=7
num_cat=0
split_feature=38 37 37 12 12 11
split_gain=1.95644e+07 3.65565e+06 1.58208e+06 1.22314e+06 1.08354e+06 1.46111e+06
threshold=228.50000000000003 0.39195389278427345 0.80422987888922448 1.5900000000000003 2.1950000000000007 0.14500000000000005
decision_type=2 2 2 2 2 8
left_child=1 4 -2 -3 -1 -6
right_child=2 3 -4 -5 5 -7
leaf_value=0.16662250406407655 -0.6283935774624424 -1.0880617682776361 -1.2443291109585639 0.68568351199590072 0.39129793325028361 -1.2123356337290612
leaf_weight=9255 5960 154 2327 8830 385 543
leaf_count=9255 5960 154 2327 8830 385 543
internal_value=0.00968861 0.360744 -0.801995 0.65469 0.101214 -0.548503
internal_weight=27454 19167 8287 8984 10183 928
internal_count=27454 19167 8287 8984 10183 928
is_linear=0
shrinkage=0.02


Tree=51
num_leaves=7
num_cat=0
split_feature=38 38 38 10 11 46
split_gain=1.87902e+07 3.55823e+06 1.52297e+06 1.51605e+06 2.6497e+06 1.99471e+06
threshold=228.50000000000003 128.50000000000003 342.50000000000006 3.0250000000000004 0.15500000000000005 21.654999732971195
decision_type=2 2 2 2 10 2
left_child=1 3 -2 4 -1 -6
right_child=2 -3 -4 -5 5 -7
leaf_value=0.94650366027711852 -0.6049112450467603 -0.053392711153890896 -1.1941283104431897 0.33715661441431105 -0.7739423754418242 1.2252452923733994
leaf_weight=5154 5749 5934 2538 7118 685 276
leaf_count=5154 5749 5934 2538 7118 685 276
internal_value=0.00948417 0.353524 -0.785978 0.535946 0.766877 -0.196404
internal_weight=27454 19167 8287 13233 6115 961
internal_count=27454 19167 8287 13233 6115 961
is_linear=0
shrinkage=0.02


Tree=52
num_leaves=7
num_cat=0
split_feature=39 21 15 3 22 15
split_gain=1.79859e+07 2.32995e+06 1.69924e+06 1.84419e+06 2.53779e+06 2.13297e+06
threshold=-0.096513920914515425 1.7281925481510312 0.095000000000000029 1.0000000180025095e-35 0.002820131662976844 0.14999999999999999
decision_type=2 2 10 2 2 10
left_child=-1 2 -2 4 -4 -5
right_child=1 -3 3 5 -6 -7
leaf_value=-0.67752078869531163 0.63502846302550187 -0.24535058194340445 0.46639831840055435 -0.55290902667238329 -0.48514231372220651 1.2866999198943663
leaf_weight=9801 9768 2035 2318 329 2162 1041
leaf_count=9801 9768 2035 2318 329 2162 1041
internal_value=0.00929406 0.3907 0.473628 0.203818 0.00716609 0.844521
internal_weight=27454 17653 15618 5850 4480 1370
internal_count=27454 17653 15618 5850 4480 1370
is_linear=0
shrinkage=0.02


Tree=53
num_leaves=7
num_cat=0
split_feature=38 38 38 12 15 17
split_gain=1.74172e+07 3.36533e+06 1.46481e+06 1.15909e+06 1.11427e+06 1.08512e+06
threshold=228.50000000000003 72.500000000000014 352.50000000000006 1.5900000000000003 0.090000000000000011 -0.0012158395533145559
decision_type=2 2 2 2 10 2
left_child=1 3 -2 -1 -3 -6
right_child=2 4 -4 -5 5 -7
leaf_value=-1.0739558109322433 -0.59264721677959542 0.25810977327976026 -1.1899524000967541 0.65254921670833255 0.28849622547274845 -0.40890442231714574
leaf_weight=154 6019 6224 2268 8830 1351 2608
leaf_count=154 6019 6224 2268 8830 1351 2608
internal_value=0.00910973 0.340341 -0.756738 0.622373 0.0913329 -0.170854
internal_weight=27454 19167 8287 8984 10183 3959
internal_count=27454 19167 8287 8984 10183 3959
is_linear=0
shrinkage=0.02


Tree=54
num_leaves=7
num_cat=0
split_feature=38 37 21 10 13 6
split_gain=1.67932e+07 3.20936e+06 1.9692e+06 1.3878e+06 2.26142e+06 2.21449e+06
threshold=162.50000000000003 -0.46470809443343875 1.6630612244898015 3.0450000000000004 0.22500000000000012 0.015249987618250917
decision_type=2 2 2 2 10 2
left_child=2 -2 3 -1 5 -5
right_child=1 -3 -4 4 -6 -7
leaf_value=0.7464751670695432 -0.19819437439482077 -0.84972079550895507 -0.17814111688185882 0.2818584243568924 -1.5816094181608049 1.4385269787514989
leaf_weight=6369 5672 6483 1765 6196 232 737
leaf_count=6369 5672 6483 1765 6196 232 737
internal_value=0.00892001 -0.5459 0.449756 0.531678 0.340356 0.405764
internal_weight=27454 12155 15299 13534 7165 6933
internal_count=27454 12155 15299 13534 7165 6933
is_linear=0
shrinkage=0.02


Tree=55
num_leaves=7
num_cat=0
split_feature=38 38 21 23 45 23
split_gain=1.614e+07 2.8664e+06 1.70547e+06 1.4e+06 1.24159e+06 1.30778e+06
threshold=162.50000000000003 285.50000000000006 1.5760015934440776 -0.0020962166657405028 0.26245601507157795 -0.010529087499852055
decision_type=2 2 2 2 2 2
left_child=2 -2 4 -4 5 -1
right_child=1 -3 3 -5 -6 -7
leaf_value=-0.45895179963962629 -0.27987012457184596 -0.90086099173583933 -0.79467115829572754 0.29318539968397939 1.6150110533976136 0.52126806446850038
leaf_weight=566 6901 5228 749 1266 392 12272
leaf_count=566 6901 5228 749 1266 392 12272
internal_value=-0.00346346 -0.547799 0.42965 -0.11215 0.51218 0.47789
internal_weight=27374 12129 15245 2015 13230 12838
internal_count=27374 12129 15245 2015 13230 12838
is_linear=0
shrinkage=0.02


Tree=56
num_leaves=7
num_cat=0
split_feature=38 37 6 6 11 13
split_gain=1.55015e+07 2.76187e+06 1.36594e+06 2.002e+06 2.37805e+06 1.93089e+06
threshold=162.50000000000003 0.1444843617255383 -0.015040434669003786 0.0050057615692725719 0.17999999999999997 -0.21000000000000005
decision_type=2 2 2 2 10 10
left_child=2 -2 -1 4 -4 -6
right_child=1 -3 3 -5 5 -7
leaf_value=0.97136957339614916 -0.3141402930477798 -0.94620626800879926 0.34546765364169424 0.63663673744221383 1.3064006958323526 -0.68958160657713419
leaf_weight=1610 7861 4268 5901 5815 214 1705
leaf_count=1610 7861 4268 5901 5815 214 1705
internal_value=-0.00339421 -0.536852 0.421065 0.355753 0.146613 -0.46418
internal_weight=27374 12129 15245 13635 7820 1919
internal_count=27374 12129 15245 13635 7820 1919
is_linear=0
shrinkage=0.02


Tree=57
num_leaves=7
num_cat=0
split_feature=38 38 21 23 12 5
split_gain=1.48885e+07 2.66056e+06 1.6276e+06 1.31932e+06 1.28795e+06 1.50016e+06
threshold=162.50000000000003 285.50000000000006 1.5760015934440776 -0.0020962166657405028 1.5900000000000003 1.0000000180025095e-35
decision_type=2 2 2 2 2 2
left_child=2 -2 4 -4 -1 -6
right_child=1 -3 3 -5 5 -7
leaf_value=-0.84562990538194671 -0.26799851611707559 -0.86627400977785129 -0.77916148173417754 0.2768952618120788 0.64102189800064391 0.13212178779632919
leaf_weight=277 6901 5228 749 1266 9927 3026
leaf_count=277 6901 5228 749 1266 9927 3026
internal_value=-0.00332154 -0.526126 0.41266 -0.116611 0.493285 0.522233
internal_weight=27374 12129 15245 2015 13230 12953
internal_count=27374 12129 15245 2015 13230 12953
is_linear=0
shrinkage=0.02


Tree=58
num_leaves=7
num_cat=0
split_feature=38 38 21 23 12 5
split_gain=1.43007e+07 2.52152e+06 1.57101e+06 1.28772e+06 1.22496e+06 1.44536e+06
threshold=164.50000000000003 301.50000000000006 1.5760015934440776 -0.0020962166657405028 1.5900000000000003 1.0000000180025095e-35
decision_type=2 2 2 2 2 2
left_child=2 -2 4 -4 -1 -6
right_child=1 -3 3 -5 5 -7
leaf_value=-0.81613367905850043 -0.30454504157579826 -0.90999908421376041 -0.76271076133474713 0.27250684161745159 0.62492545284057111 0.12706726339080773
leaf_weight=281 7751 4268 763 1280 9984 3047
leaf_count=281 7751 4268 763 1280 9984 3047
internal_value=-0.00326135 -0.519833 0.401119 -0.115034 0.480347 0.508606
internal_weight=27374 12019 15355 2043 13312 13031
internal_count=27374 12019 15355 2043 13312 13031
is_linear=0
shrinkage=0.02


Tree=59
num_leaves=7
num_cat=0
split_feature=38 37 21 3 15 10
split_gain=1.37361e+07 2.46845e+06 1.50188e+06 1.24897e+06 1.91185e+06 1.54219e+06
threshold=162.50000000000003 -0.10452846326765344 1.5760015934440776 1.0000000180025095e-35 0.095000000000000029 2.8150000000000004
decision_type=2 2 2 2 10 2
left_child=2 -2 3 4 -1 -6
right_child=1 -3 -4 -5 5 -7
leaf_value=0.5794610010591239 -0.25673451071796044 -0.83300391757417636 -0.11206311847313796 0.8730561355939872 0.94003278309455174 -0.1514563267788703
leaf_weight=6844 6901 5228 2015 2532 611 3243
leaf_count=6844 6901 5228 2015 2532 611 3243
internal_value=-0.00320259 -0.505367 0.396356 0.473804 0.378946 0.0225784
internal_weight=27374 12129 15245 13230 10698 3854
internal_count=27374 12129 15245 13230 10698 3854
is_linear=0
shrinkage=0.02


Tree=60
num_leaves=7
num_cat=0
split_feature=38 37 21 45 5 11
split_gain=1.31561e+07 2.88054e+06 1.4481e+06 1.19218e+06 1.37332e+06 1.94711e+06
threshold=144.50000000000003 -0.50694340586438436 1.6630612244898015 0.26245601507157795 1.0000000180025095e-35 0.38499999999999984
decision_type=2 2 2 2 2 10
left_child=2 -2 3 4 5 -1
right_child=1 -3 -4 -5 -6 -7
leaf_value=0.69512690501442276 -0.1575984042788208 -0.74958992884148945 -0.14906936592100892 1.6316916241115993 0.063191376892469273 -0.09775023050199394
leaf_weight=8134 6601 6552 1562 355 2692 1460
leaf_count=8134 6601 6552 1562 355 2692 1460
internal_value=0.00301604 -0.452664 0.42502 0.495988 0.462522 0.57448
internal_weight=27356 13153 14203 12641 12286 9594
internal_count=27356 13153 14203 12641 12286 9594
is_linear=0
shrinkage=0.02


Tree=61
num_leaves=7
num_cat=0
split_feature=38 37 21 45 3 13
split_gain=1.26358e+07 2.76656e+06 1.39087e+06 1.14587e+06 1.18796e+06 1.63059e+06
threshold=144.50000000000003 -0.50694340586438436 1.6630612244898015 0.26245601507157795 1.0000000180025095e-35 -0.17000000000000001
decision_type=2 2 2 2 2 8
left_child=2 -2 3 4 5 -1
right_child=1 -3 -4 -5 -6 -7
leaf_value=0.99626704138709798 -0.15444882250284789 -0.73460956078338313 -0.14609748673038683 1.5995110433366564 0.84461717071768738 0.25049269306177674
leaf_weight=1358 6601 6552 1562 355 2475 8453
leaf_count=1358 6601 6552 1562 355 2475 8453
internal_value=0.00296024 -0.443618 0.416534 0.486087 0.453277 0.354175
internal_weight=27356 13153 14203 12641 12286 9811
internal_count=27356 13153 14203 12641 12286 9811
is_linear=0
shrinkage=0.02


Tree=62
num_leaves=7
num_cat=0
split_feature=38 37 21 3 15 22
split_gain=1.21363e+07 2.65708e+06 1.34595e+06 1.08019e+06 1.5714e+06 1.48768e+06
threshold=144.50000000000003 -0.50694340586438436 1.4362434921906477 1.0000000180025095e-35 0.095000000000000029 0.002820131662976844
decision_type=2 2 2 2 10 2
left_child=2 -2 3 4 -1 -6
right_child=1 -3 -4 -5 5 -7
leaf_value=0.59063965313888833 -0.15136218352315486 -0.71992857420294898 -0.050270951227940411 0.87741199759558253 0.43453347901721706 -0.38722217966252692
leaf_weight=6158 6601 6552 2169 2330 1939 1607
leaf_count=6158 6601 6552 2169 2330 1939 1607
internal_value=0.00291074 -0.434752 0.408229 0.490855 0.397636 0.0621039
internal_weight=27356 13153 14203 12034 9704 3546
internal_count=27356 13153 14203 12034 9704 3546
is_linear=0
shrinkage=0.02


Tree=63
num_leaves=7
num_cat=0
split_feature=38 38 38 6 12 11
split_gain=1.16725e+07 2.33962e+06 1.31788e+06 987384 1.92672e+06 2.03871e+06
threshold=218.50000000000003 68.500000000000014 354.50000000000006 0.0052050436146395826 2.1650000000000005 0.16500000000000006
decision_type=2 2 2 2 2 8
left_child=1 3 -2 -1 -5 -6
right_child=2 -3 -4 4 5 -7
leaf_value=0.35948447420989604 -0.45885091249946885 0.077797346513668403 -1.0269957480119103 1.0067551269613706 0.88247845669740865 -1.6770825456852714
leaf_weight=5349 6514 10060 2184 2760 254 235
leaf_count=5349 6514 10060 2184 2760 254 235
internal_value=0.0028547 0.284919 -0.602016 0.527074 0.80201 -0.352101
internal_weight=27356 18658 8698 8598 3249 489
internal_count=27356 18658 8698 8598 3249 489
is_linear=0
shrinkage=0.02


Tree=64
num_leaves=7
num_cat=0
split_feature=49 6 6 17 15 11
split_gain=1.69381e+06 1.32459e+06 2.11022e+06 2.22491e+06 2.09767e+06 1.95827e+06
threshold=0.0022964710969248779 0.0050581826496245439 -0.005097260243119405 0.00056565193321511415 0.19500000000000003 0.17999999999999997
decision_type=2 2 2 2 8 10
left_child=1 2 3 -1 -3 -4
right_child=-2 4 5 -5 -6 -7
leaf_value=0.06734415095992359 -0.36757679915874769 0.46823039337890365 -0.09119136793420822 1.0465826785743606 -0.29468932198051262 -0.84083231275260106
leaf_weight=5178 4179 5894 7360 1126 1904 1715
leaf_count=5178 4179 5894 7360 1126 1904 1715
internal_value=0.00279455 0.0696404 -0.0380347 0.242943 0.281883 -0.233244
internal_weight=27356 23177 15379 6304 7798 9075
internal_count=27356 23177 15379 6304 7798 9075
is_linear=0
shrinkage=0.02


Tree=65
num_leaves=7
num_cat=0
split_feature=38 37 37 6 6 11
split_gain=1.1097e+07 2.38015e+06 1.01132e+06 1.00873e+06 2.04989e+06 2.20491e+06
threshold=234.50000000000003 0.26270737819858686 0.88165521741580732 0.0052050436146395826 -0.005097260243119405 0.39500000000000007
decision_type=2 2 2 2 2 10
left_child=1 -1 -2 4 -3 -6
right_child=2 3 -4 -5 5 -7
leaf_value=0.035001303703076171 -0.50074860682767286 0.76827513884010956 -1.0227305873981365 0.74297820163140504 0.17051508424020875 -1.5916259942892339
leaf_weight=9726 5853 2455 1997 3600 3386 305
leaf_count=9726 5853 2455 1997 3600 3386 305
internal_value=0.000472484 0.256395 -0.634105 0.477203 0.321049 0.0229471
internal_weight=27322 19472 7850 9746 6146 3691
internal_count=27322 19472 7850 9746 6146 3691
is_linear=0
shrinkage=0.02


Tree=66
num_leaves=7
num_cat=0
split_feature=38 37 37 12 11 10
split_gain=1.06593e+07 2.03741e+06 1.15759e+06 911207 1.33173e+06 872859
threshold=220.50000000000003 0.42869256140305406 0.84944037474303358 2.1950000000000007 0.14500000000000005 3.0250000000000004
decision_type=2 2 2 2 8 2
left_child=1 3 -2 5 -5 -1
right_child=2 -3 -4 4 -6 -7
leaf_value=0.39285847800979257 -0.4477421690687019 0.49168896473187867 -0.98529055328654624 0.39099693066596986 -1.1613002275199908 -0.014718885584953051
leaf_weight=3302 6486 8728 2133 370 537 5766
leaf_count=3302 6486 8728 2133 370 537 5766
internal_value=0.000457918 0.268621 -0.581267 0.0732905 -0.529387 0.13383
internal_weight=27322 18703 8619 9975 907 9068
internal_count=27322 18703 8619 9975 907 9068
is_linear=0
shrinkage=0.02


Tree=67
num_leaves=7
num_cat=0
split_feature=38 37 7 6 6 11
split_gain=1.02546e+07 2.20366e+06 1.13638e+06 1.23039e+06 2.2954e+06 2.16363e+06
threshold=234.50000000000003 -0.19212048394002823 6985.1250000000009 0.0070054837444993865 -0.005097260243119405 0.17999999999999997
decision_type=2 2 2 2 2 10
left_child=1 -1 3 4 -3 -6
right_child=-2 2 -4 -5 5 -7
leaf_value=-0.020244496093731593 -0.60957340985793862 0.71242510828843209 1.8447042857130913 0.72425164202285419 0.25290795236249258 -0.65505132953332978
leaf_weight=7573 7850 2960 214 3185 4139 1401
leaf_count=7573 7850 2960 214 3185 4139 1401
internal_value=0.000443879 0.246461 0.416141 0.3892 0.263303 0.0229122
internal_weight=27322 19472 11899 11685 8500 5540
internal_count=27322 19472 11899 11685 8500 5540
is_linear=0
shrinkage=0.02


Tree=68
num_leaves=7
num_cat=0
split_feature=38 37 15 17 6 45
split_gain=9.84907e+06 2.12616e+06 962324 1.05374e+06 960121 1.97643e+06
threshold=234.50000000000003 0.42869256140305406 0.090000000000000011 -0.0012158395533145559 0.0052050436146395826 -0.041361708055104078
decision_type=2 2 10 2 2 2
left_child=1 2 -1 -4 5 -3
right_child=-2 4 3 -5 -6 -7
leaf_value=0.20443954426937827 -0.59738970224682142 -0.75982401980272518 0.2529464947772716 -0.41333702073761686 0.74514544203096067 0.4455531107356267
leaf_weight=6553 7850 608 1446 2745 3256 4864
leaf_count=6553 7850 608 1446 2745 3256 4864
internal_value=0.000443233 0.241547 0.0531271 -0.183425 0.473325 0.311051
internal_weight=27322 19472 10744 4191 8728 5472
internal_count=27322 19472 10744 4191 8728 5472
is_linear=0
shrinkage=0.02


Tree=69
num_leaves=7
num_cat=0
split_feature=38 38 7 12 13 11
split_gain=9.47759e+06 1.83633e+06 1.2067e+06 1.07363e+06 1.12014e+06 1.53713e+06
threshold=168.50000000000003 315.50000000000006 6985.1250000000009 1.5900000000000003 0.15000000000000005 0.16500000000000006
decision_type=2 2 2 2 10 10
left_child=2 -2 3 -1 -5 -6
right_child=1 -3 -4 4 5 -7
leaf_value=-0.84517352698933668 -0.2666392458407717 -0.81495671366850309 1.6773887170327677 0.40375937359558917 0.33694479689127377 -0.65186412771362134
leaf_weight=316 8235 3474 254 12414 1600 1029
leaf_count=316 8235 3474 254 12414 1600 1029
internal_value=0.00043392 -0.429601 0.322973 0.300036 0.324366 -0.0505813
internal_weight=27322 11709 15613 15359 15043 2629
internal_count=27322 11709 15613 15359 15043 2629
is_linear=0
shrinkage=0.02


Tree=70
num_leaves=7
num_cat=0
split_feature=39 37 37 5 46 46
split_gain=9.2138e+06 1.53078e+06 1.38182e+06 855254 3.25233e+06 1.6344e+06
threshold=-0.072432450066572743 0.49999999999999978 0.57465703571039606 1.0000000180025095e-35 16.394999504089359 18.595000267028812
decision_type=2 2 2 2 2 2
left_child=2 -2 -1 5 -5 -3
right_child=1 3 -4 4 -6 -7
leaf_value=-0.33335382928746621 0.10035367413097852 0.81426634813815513 -0.85299879858703098 -0.9216501232678066 0.81242073987843921 0.15077431121701781
leaf_weight=6975 9231 4217 2900 741 1025 2295
leaf_count=6975 9231 4217 2900 741 1025 2295
internal_value=0.00204283 0.277534 -0.486313 0.474931 0.0842701 0.580729
internal_weight=27384 17509 9875 8278 1766 6512
internal_count=27384 17509 9875 8278 1766 6512
is_linear=0
shrinkage=0.02


Tree=71
num_leaves=7
num_cat=0
split_feature=38 38 6 6 23 46
split_gain=8.99684e+06 2.03253e+06 1.14762e+06 2.29575e+06 2.66111e+06 2.35037e+06
threshold=238.50000000000003 104.50000000000001 0.0050057615692725719 -0.005097260243119405 3.5382245406841076e-05 17.605000495910648
decision_type=2 2 2 2 2 2
left_child=1 2 3 4 -1 -5
right_child=-2 -3 -4 5 -6 -7
leaf_value=0.18188811313541564 -0.5781772546216819 -0.014280665680443165 0.65132057823113254 0.31231410116858699 1.4190135236839698 -0.65570191174215031
leaf_weight=1748 7685 8116 4429 2644 1152 1610
leaf_count=1748 7685 8116 4429 2644 1152 1610
internal_value=0.00200113 0.22843 0.398426 0.241516 0.674922 -0.054388
internal_weight=27384 19699 11583 7154 2900 4254
internal_count=27384 19699 11583 7154 2900 4254
is_linear=0
shrinkage=0.02


Tree=72
num_leaves=7
num_cat=0
split_feature=38 38 12 6 13 6
split_gain=8.64311e+06 1.98716e+06 1.26203e+06 1.12461e+06 2.04394e+06 1.38349e+06
threshold=240.50000000000003 98.500000000000014 1.5900000000000003 0.0070054837444993865 0.15000000000000005 -0.005097260243119405
decision_type=2 2 2 2 10 2
left_child=1 2 -1 5 -5 -4
right_child=-2 -3 3 4 -6 -7
leaf_value=-1.0497624145961619 -0.57182474046898468 -0.0053425484078420907 0.66169818799028535 1.0596136352345875 -0.14649767873412434 0.10852239304226716
leaf_weight=231 7586 8660 2795 2251 747 5114
leaf_count=231 7586 8660 2795 2251 747 5114
internal_value=0.00196592 0.221914 0.398534 0.429674 0.759348 0.304306
internal_weight=27384 19798 11138 10907 2998 7909
internal_count=27384 19798 11138 10907 2998 7909
is_linear=0
shrinkage=0.02


Tree=73
num_leaves=7
num_cat=0
split_feature=38 37 12 6 12 45
split_gain=8.30311e+06 1.93682e+06 1.27295e+06 1.08567e+06 2.06252e+06 1.87379e+06
threshold=242.50000000000003 -0.12053668025532288 1.5900000000000003 0.0070054837444993865 2.2200000000000002 -0.022883150266873872
decision_type=2 2 2 2 2 2
left_child=1 -1 -3 5 -5 -4
right_child=-2 2 3 4 -6 -7
leaf_value=-0.017360651703812124 -0.56506102390698565 -1.0387677852996449 -0.22646109026567196 0.89471118946558403 -0.9019940381692656 0.46802176497088405
leaf_weight=8304 7497 242 2073 2819 277 6172
leaf_count=8304 7497 242 2073 2819 277 6172
internal_value=0.00192681 0.215758 0.382819 0.413598 0.732764 0.29338
internal_weight=27384 19887 11583 11341 3096 8245
internal_count=27384 19887 11583 11341 3096 8245
is_linear=0
shrinkage=0.02


Tree=74
num_leaves=7
num_cat=0
split_feature=38 38 15 17 6 6
split_gain=7.97438e+06 1.87299e+06 1.01286e+06 1.03239e+06 984920 2.10854e+06
threshold=242.50000000000003 65.500000000000014 0.090000000000000011 -0.0012158395533145559 0.0037599890860017253 -0.005097260243119405
decision_type=2 2 10 2 2 2
left_child=1 4 -3 -4 5 -1
right_child=-2 2 3 -5 -6 -7
leaf_value=0.71907908129764408 -0.55376733941430989 0.19496538862011967 0.22933896010401836 -0.40985381582286051 0.68347581240599864 -0.14338577275564407
leaf_weight=2055 7497 7150 1541 2918 3704 2519
leaf_count=2055 7497 7150 1541 2918 3704 2519
internal_value=0.00188321 0.211439 0.0474886 -0.188944 0.441194 0.244463
internal_weight=27384 19887 11609 4459 8278 4574
internal_count=27384 19887 11609 4459 8278 4574
is_linear=0
shrinkage=0.02


Tree=75
num_leaves=7
num_cat=0
split_feature=38 37 7 11 13 6
split_gain=7.97859e+06 1.84903e+06 1.27565e+06 1.99032e+06 1.61389e+06 2.04793e+06
threshold=138.50000000000003 0.39195389278427345 5840.7548828125009 0.17999999999999997 0.22500000000000012 0.015581348195226609
decision_type=2 2 2 10 10 2
left_child=2 -2 4 -4 5 -1
right_child=1 -3 3 -5 -6 -7
leaf_value=0.075048675721006403 -0.20728686579695044 -0.74384791345458101 0.64788731312167358 -0.21769116533671767 -1.1108823747004397 1.3074535936735177
leaf_weight=5046 10087 3445 6540 1266 393 599
leaf_count=5046 10087 3445 6540 1266 393 599
internal_value=0.00117469 -0.34411 0.33868 0.507456 0.120245 0.206862
internal_weight=27376 13532 13844 7806 6038 5645
internal_count=27376 13532 13844 7806 6038 5645
is_linear=0
shrinkage=0.02


Tree=76
num_leaves=7
num_cat=0
split_feature=38 38 12 23 45 6
split_gain=7.66292e+06 1.77594e+06 1.23745e+06 1.24308e+06 1.30279e+06 2.32464e+06
threshold=138.50000000000003 317.50000000000006 1.5900000000000003 -0.033153323271800629 -0.095806800152300017 0.011124035704598636
decision_type=2 2 2 2 2 2
left_child=2 -2 -1 -4 5 -5
right_child=1 -3 3 4 -6 -7
leaf_value=-0.96621800178972383 -0.20314318190307276 -0.72899252015818716 -1.7596243996308609 -0.92891641315021622 0.45529431788292868 0.49644950691052481
leaf_weight=283 10087 3445 105 796 11597 1063
leaf_count=283 10087 3445 105 796 11597 1063
internal_value=0.00115029 -0.337235 0.331911 0.359348 0.37653 -0.114729
internal_weight=27376 13532 13844 13561 13456 1859
internal_count=27376 13532 13844 13561 13456 1859
is_linear=0
shrinkage=0.02


Tree=77
num_leaves=7
num_cat=0
split_feature=39 10 21 3 15 35
split_gain=7.15325e+06 1.44099e+06 1.79346e+06 1.49464e+06 2.38886e+06 1.28409e+06
threshold=0.04026463370984 2.8250000000000006 1.4743399284219063 1.0000000180025095e-35 0.095000000000000029 0.97500000000000009
decision_type=2 2 2 2 10 2
left_child=-1 -2 3 4 -3 -5
right_child=1 2 -4 5 -6 -7
leaf_value=-0.41172176287882822 0.62725465526319935 0.40772883348378314 -0.35209293073172793 0.85358813424573377 -0.25517810788922984 -1.0912827138112833
leaf_weight=10403 3325 5626 2252 2091 3538 141
leaf_count=10403 3325 5626 2252 2091 3538 141
internal_value=0.00111401 0.254194 0.16311 0.265031 0.151797 0.728562
internal_weight=27376 16973 13648 11396 9164 2232
internal_count=27376 16973 13648 11396 9164 2232
is_linear=0
shrinkage=0.02


Tree=78
num_leaves=7
num_cat=0
split_feature=39 10 12 6 21 37
split_gain=6.87009e+06 1.38406e+06 2.39776e+06 1.76508e+06 1.26946e+06 1.13015e+06
threshold=0.04026463370984 2.8250000000000006 2.1950000000000007 0.015249987618250917 1.4362434921906477 0.66310114370129458
decision_type=2 2 2 2 2 2
left_child=5 -2 3 4 -3 -1
right_child=1 2 -4 -5 -6 -7
leaf_value=-0.27654555727859675 0.61472839629194909 0.25553210846616364 -0.80081809196706022 1.0055609412745414 -0.30042329080474311 -0.74641682150186528
leaf_weight=7599 3325 9634 961 1077 1976 2804
leaf_count=7599 3325 9634 961 1077 1976 2804
internal_value=0.00109092 0.249111 0.159845 0.232899 0.160821 -0.403491
internal_weight=27376 16973 13648 12687 11610 10403
internal_count=27376 16973 13648 12687 11610 10403
is_linear=0
shrinkage=0.02


Tree=79
num_leaves=7
num_cat=0
split_feature=49 15 6 3 22 11
split_gain=1.07733e+06 1.08138e+06 1.47696e+06 1.00552e+06 1.42204e+06 1.39382e+06
threshold=0.0023428554254171872 0.095000000000000029 0.0076829970697887004 1.0000000180025095e-35 0.002820131662976844 -0.044999999999999922
decision_type=2 10 2 2 2 10
left_child=1 2 -1 4 -3 -6
right_child=-2 3 -4 -5 5 -7
leaf_value=0.063900829700425696 -0.30126956217068751 0.016902773025858672 0.58982110851266156 0.27220018662145284 -1.4485665348051773 -0.3566993294797729
leaf_weight=12608 4017 3481 2567 1888 589 2226
leaf_count=12608 4017 3481 2567 1888 589 2226
internal_value=0.00106819 0.053114 0.15303 -0.132134 -0.253503 -0.587321
internal_weight=27376 23359 15175 8184 6296 2815
internal_count=27376 23359 15175 8184 6296 2815
is_linear=0
shrinkage=0.02


Tree=80
num_leaves=7
num_cat=0
split_feature=38 38 10 11 5 46
split_gain=6.71888e+06 1.72803e+06 1.24544e+06 2.02777e+06 1.97741e+06 2.48981e+06
threshold=140.50000000000003 303.50000000000006 3.0250000000000004 0.15500000000000005 1.0000000180025095e-35 16.125000000000004
decision_type=2 2 2 10 2 2
left_child=2 -2 3 4 -1 -6
right_child=1 -3 -4 -5 5 -7
leaf_value=0.85771292767529528 -0.16400383611037428 -0.65171675578885302 0.13566722963537436 -0.29831817542822447 -1.1471729208165553 0.83220225199150488
leaf_weight=4335 9398 4205 7484 1023 487 521
leaf_count=4335 9398 4205 7484 1023 487 521
internal_value=0.000702476 -0.314951 0.310729 0.516266 0.672364 -0.125045
internal_weight=27453 13603 13850 6366 5343 1008
internal_count=27453 13603 13850 6366 5343 1008
is_linear=0
shrinkage=0.02


Tree=81
num_leaves=7
num_cat=0
split_feature=39 10 12 6 45 6
split_gain=6.25699e+06 1.37016e+06 2.35318e+06 1.57255e+06 1.48347e+06 1.85136e+06
threshold=0.056355855470963404 2.8250000000000006 2.1950000000000007 0.015249987618250917 -0.095806800152300017 0.007785751709014078
decision_type=2 2 2 2 2 2
left_child=-1 -2 3 4 -3 -6
right_child=1 2 -4 -5 5 -7
leaf_value=-0.37981187727486487 0.60889531813476416 -0.59913383700342171 -0.80122390764896001 0.94743519605065374 0.12892155278141043 0.96232675654706812
leaf_weight=10604 3249 951 958 1094 9399 1198
leaf_count=10604 3249 951 958 1094 9399 1198
internal_value=0.000686839 0.240197 0.151925 0.224442 0.155569 0.223548
internal_weight=27453 16849 13600 12642 11548 10597
internal_count=27453 16849 13600 12642 11548 10597
is_linear=0
shrinkage=0.02


Tree=82
num_leaves=7
num_cat=0
split_feature=39 37 37 10 11 15
split_gain=6.0105e+06 1.30909e+06 1.10592e+06 924293 898428 1.04977e+06
threshold=0.032215887894172894 0.68101585878679705 0.53444848576703186 3.0250000000000004 0.17999999999999997 0.060000000000000032
decision_type=2 2 2 2 10 10
left_child=2 3 -1 4 -2 -6
right_child=1 -3 -4 -5 5 -7
leaf_value=-0.24216482432916245 0.43363624859587385 0.45643030048272065 -0.69156969567792292 -0.061743622065968326 0.42476024845603166 -1.2227973876435771
leaf_weight=7292 3753 6458 3132 6208 309 301
leaf_count=7292 3753 6458 3132 6208 309 301
internal_value=0.000676262 0.232189 -0.37746 0.0950445 0.31795 -0.391547
internal_weight=27453 17029 10424 10571 4363 610
internal_count=27453 17029 10424 10571 4363 610
is_linear=0
shrinkage=0.02


Tree=83
num_leaves=7
num_cat=0
split_feature=39 10 13 6 6 23
split_gain=5.77433e+06 1.28556e+06 1.39734e+06 1.35595e+06 1.91967e+06 3.25188e+06
threshold=0.056355855470963404 2.8250000000000006 0.17999999999999985 0.007785751709014078 -0.0039535146800243051 0.0012173766553861508
decision_type=2 2 10 2 2 2
left_child=-1 -2 3 4 -3 -6
right_child=1 2 -4 -5 5 -7
leaf_value=-0.36486891644814845 0.58787873817702785 0.48070502844470869 -0.42788467522000839 0.60488748022498739 0.19269682035856955 -0.82562638971107649
leaf_weight=10604 3249 3388 1508 2771 4139 1794
leaf_count=10604 3249 3388 1508 2771 4139 1794
internal_value=0.000659448 0.230746 0.145244 0.216866 0.101251 -0.115656
internal_weight=27453 16849 13600 12092 9321 5933
internal_count=27453 16849 13600 12092 9321 5933
is_linear=0
shrinkage=0.02


Tree=84
num_leaves=7
num_cat=0
split_feature=38 37 15 3 15 10
split_gain=5.87084e+06 1.58045e+06 931013 1.2181e+06 1.65448e+06 1.34493e+06
threshold=246.50000000000003 0.68101585878679705 0.095000000000000029 1.0000000180025095e-35 0.14999999999999999 2.8150000000000004
decision_type=2 2 10 2 10 2
left_child=1 2 -1 5 -5 -4
right_child=-2 -3 3 4 -6 -7
leaf_value=0.182754358991284 -0.48213868272182253 0.43227046878308889 0.73131496922251149 -0.96446957073409667 0.75333389119528393 -0.47180411373335246
leaf_weight=8445 7366 6564 413 284 1001 3380
leaf_count=8445 7366 6564 413 284 1001 3380
internal_value=0.000647161 0.177763 0.0541122 -0.159796 0.371413 -0.340012
internal_weight=27453 20087 13523 5078 1285 3793
internal_count=27453 20087 13523 5078 1285 3793
is_linear=0
shrinkage=0.02


Tree=85
num_leaves=7
num_cat=0
split_feature=38 38 12 23 5 46
split_gain=5.4554e+06 1.35784e+06 921619 1.54093e+06 896529 3.18129e+06
threshold=238.50000000000003 70.500000000000014 1.675 -0.0019043033152645482 1.0000000180025095e-35 16.394999504089359
decision_type=2 2 2 2 2 2
left_child=1 2 3 -1 -4 -6
right_child=-2 -3 4 -5 5 -7
leaf_value=-2.3821038794517517 -0.45939813331211282 0.018261831161544836 0.50004508148692584 0.44339774416604394 -0.97838798329272625 0.69741531317489536
leaf_weight=125 7764 11042 6606 187 769 1088
leaf_count=125 7764 11042 6606 187 769 1088
internal_value=-0.0101887 0.165876 0.35151 -0.708332 0.390978 0.0026867
internal_weight=27581 19817 8775 312 8463 1857
internal_count=27581 19817 8775 312 8463 1857
is_linear=0
shrinkage=0.02


Tree=86
num_leaves=7
num_cat=0
split_feature=38 37 12 23 13 6
split_gain=5.24378e+06 1.35775e+06 886799 1.48562e+06 813620 1.55863e+06
threshold=244.50000000000003 0.41408231002801199 1.675 -0.0019043033152645482 0.15500000000000005 0.010621865947444966
decision_type=2 2 2 2 10 2
left_child=1 -1 3 -3 5 -4
right_child=-2 2 4 -5 -6 -7
leaf_value=0.011944367289572969 -0.46254755489456856 -2.3303940091424313 0.35188035180279359 0.42039262292963087 -0.056289621379847762 1.2202648327340642
leaf_weight=11240 7464 126 6191 193 1416 951
leaf_count=11240 7464 126 6191 193 1416 951
internal_value=-0.00999278 0.157992 0.342805 -0.685321 0.381506 0.468284
internal_weight=27581 20117 8877 319 8558 7142
internal_count=27581 20117 8877 319 8558 7142
is_linear=0
shrinkage=0.02


Tree=87
num_leaves=7
num_cat=0
split_feature=39 45 23 14 6 6
split_gain=4.90813e+06 1.23458e+06 2.04792e+06 2.66642e+06 1.39438e+06 1.48089e+06
threshold=-0.072432450066572743 0.26245601507157795 -0.010328392517706191 0.53500000000000014 -0.015040434669003786 0.0042693739631268776
decision_type=2 2 2 2 2 2
left_child=-1 2 3 -2 -4 -6
right_child=1 -3 4 -5 5 -7
leaf_value=-0.36453299658125543 -1.2850147291212886 1.1306549049743426 0.87502927458823121 1.1399733838163504 -0.027582764974104796 0.37149197670703876
leaf_weight=9961 765 537 1183 233 7791 7111
leaf_count=9961 765 537 1183 233 7791 7111
internal_value=-0.00979599 0.190792 0.160925 -0.716 0.21554 0.16291
internal_weight=27581 17620 17083 998 16085 14902
internal_count=27581 17620 17083 998 16085 14902
is_linear=0
shrinkage=0.02


Tree=88
num_leaves=7
num_cat=0
split_feature=21 10 6 6 45 6
split_gain=1.69516e+06 1.31969e+06 1.54408e+06 1.64191e+06 1.56465e+06 1.07471e+06
threshold=1.7666666666666895 3.0250000000000004 0.0013994200196696396 0.032940892699525055 0.065543698301199563 0.0110919475271285
decision_type=2 2 2 2 2 2
left_child=1 2 4 -4 -1 -3
right_child=-2 5 3 -5 -6 -7
leaf_value=-0.29718822030012937 -0.36334428790031631 -0.13808750341206619 0.59816879630281838 -1.6223746464217919 0.38040924998998771 0.39401410228104461
leaf_weight=2941 4524 11643 4067 133 2532 1741
leaf_count=2941 4524 11643 4067 133 2532 1741
internal_value=-0.0095934 0.0598796 0.237801 0.526006 0.016353 -0.0687501
internal_weight=27581 23057 9673 4200 5473 13384
internal_count=27581 23057 9673 4200 5473 13384
is_linear=0
shrinkage=0.02


Tree=89
num_leaves=7
num_cat=0
split_feature=39 45 23 14 15 6
split_gain=4.67136e+06 1.18458e+06 1.95398e+06 2.56122e+06 1.38743e+06 1.41933e+06
threshold=-0.072432450066572743 0.26245601507157795 -0.010328392517706191 0.53500000000000014 0.095000000000000029 -0.0073290054950466135
decision_type=2 2 2 2 10 2
left_child=-1 2 3 -2 -4 -6
right_child=1 -3 4 -5 5 -7
leaf_value=-0.35548005387645937 -1.257229962447634 1.10691535647065 0.35345855216054434 1.119418788404525 0.59840742814932046 -0.1809846797510328
leaf_weight=9961 765 537 10092 233 1153 4840
leaf_count=9961 765 537 10092 233 1153 4840
internal_value=-0.00940533 0.186284 0.157029 -0.699547 0.210376 -0.0306627
internal_weight=27581 17620 17083 998 16085 5993
internal_count=27581 17620 17083 998 16085 5993
is_linear=0
shrinkage=0.02


Tree=90
num_leaves=7
num_cat=0
split_feature=38 38 45 6 46 6
split_gain=4.96426e+06 1.32402e+06 1.21204e+06 2.02173e+06 1.7552e+06 1.55151e+06
threshold=138.50000000000003 354.50000000000006 -0.095806800152300017 0.011124035704598636 15.164999961853029 0.0070054837444993865
decision_type=2 2 2 2 2 2
left_child=2 -2 3 -1 -5 -4
right_child=1 -3 5 4 -6 -7
leaf_value=-0.96614842451832239 -0.18786098309098975 -0.71912690909880572 0.22820060394623515 -1.5710038781312345 0.67601312274107428 0.81617268737280457
leaf_weight=803 11474 2240 9720 158 947 2199
leaf_count=803 11474 2240 9720 158 947 2199
internal_value=-0.00529869 -0.274867 0.262069 -0.205519 0.349091 0.336975
internal_weight=27541 13714 13827 1908 1105 11919
internal_count=27541 13714 13827 1908 1105 11919
is_linear=0
shrinkage=0.02


Tree=91
num_leaves=7
num_cat=0
split_feature=38 37 45 6 46 6
split_gain=4.76769e+06 1.27448e+06 1.16451e+06 1.94178e+06 1.68728e+06 1.49025e+06
threshold=138.50000000000003 0.61988438722114048 -0.095806800152300017 0.011124035704598636 15.164999961853029 0.0070054837444993865
decision_type=2 2 2 2 2 2
left_child=2 -2 3 -1 -5 -4
right_child=1 -3 5 4 -6 -7
leaf_value=-0.94694503566711263 -0.17039823763167544 -0.64521401793077493 0.22363893828563261 -1.5405476134832652 0.66256386022854341 0.79988626400133889
leaf_weight=803 10861 2853 9720 158 947 2199
leaf_count=803 10861 2853 9720 158 947 2199
internal_value=-0.00519898 -0.269376 0.256822 -0.201506 0.342028 0.330245
internal_weight=27541 13714 13827 1908 1105 11919
internal_count=27541 13714 13827 1908 1105 11919
is_linear=0
shrinkage=0.02


Tree=92
num_leaves=7
num_cat=0
split_feature=38 37 45 6 46 6
split_gain=4.57889e+06 1.22903e+06 1.11884e+06 1.865e+06 1.62199e+06 1.43726e+06
threshold=138.50000000000003 0.83200161130733841 -0.095806800152300017 0.011124035704598636 15.164999961853029 0.007785751709014078
decision_type=2 2 2 2 2 2
left_child=2 -2 3 -1 -5 -4
right_child=1 -3 5 4 -6 -7
leaf_value=-0.92812332922758745 -0.17950043396373225 -0.68863236217289181 0.23327089134098405 -1.5106817841091038 0.64938218746529974 0.85805042783327046
leaf_weight=803 11444 2270 10201 158 947 1718
leaf_count=803 11444 2270 10201 158 947 1718
internal_value=-0.00510086 -0.263994 0.251679 -0.197571 0.335109 0.323648
internal_weight=27541 13714 13827 1908 1105 11919
internal_count=27541 13714 13827 1908 1105 11919
is_linear=0
shrinkage=0.02


Tree=93
num_leaves=7
num_cat=0
split_feature=38 38 12 3 10 15
split_gain=4.39842e+06 1.19997e+06 1.12417e+06 1.07093e+06 1.28229e+06 1.2744e+06
threshold=136.50000000000003 305.50000000000006 1.5900000000000003 1.0000000180025095e-35 4.1500000000000012 0.14999999999999999
decision_type=2 2 2 2 2 8
left_child=2 -2 -1 4 -4 -5
right_child=1 -3 3 5 -6 -7
leaf_value=-1.0035428671066873 -0.13535775315067461 -0.54298698864331707 0.23053574475480507 0.34586526634834713 -0.87694571875018679 1.2981562372457893
leaf_weight=276 9733 4106 10317 1877 431 801
leaf_count=276 9733 4106 10317 1877 431 801
internal_value=-0.00500453 -0.256453 0.248959 0.275071 0.185738 0.632588
internal_weight=27541 13839 13702 13426 10748 2678
internal_count=27541 13839 13702 13426 10748 2678
is_linear=0
shrinkage=0.02


Tree=94
num_leaves=7
num_cat=0
split_feature=38 37 7 6 13 6
split_gain=4.22433e+06 1.16012e+06 1.00538e+06 1.54029e+06 1.49266e+06 1.60835e+06
threshold=136.50000000000003 0.86599730621074433 5840.7548828125009 0.032940892699525055 0.22500000000000012 0.015581348195226609
decision_type=2 2 2 2 10 2
left_child=2 -2 4 -4 5 -1
right_child=1 -3 3 -5 -6 -7
leaf_value=0.018352432770387842 -0.17295494327436184 -0.67956309973636519 0.4344456423723016 -1.6202446257188015 -1.115198228591826 1.120774476117379
leaf_weight=5004 11704 2135 7562 144 405 587
leaf_count=5004 11704 2135 7562 144 405 587
internal_value=-0.00490693 -0.251329 0.24398 0.395024 0.0496908 0.134994
internal_weight=27541 13839 13702 7706 5996 5591
internal_count=27541 13839 13702 7706 5996 5591
is_linear=0
shrinkage=0.02


Tree=95
num_leaves=7
num_cat=0
split_feature=38 37 6 6 45 15
split_gain=4.00573e+06 1.0629e+06 1.03418e+06 1.27921e+06 1.46662e+06 1.4507e+06
threshold=144.50000000000003 0.68687010614819843 -0.015040434669003786 0.0042693739631268776 -0.0377800591992472 0.19500000000000003
decision_type=2 2 2 2 2 10
left_child=2 -2 -1 4 -4 -5
right_child=1 -3 3 5 -6 -7
leaf_value=0.73087054821022368 -0.16238313225929132 -0.61367708244967811 -0.79045407550453572 0.55138830561591534 0.098937644422257609 -0.24104392146698125
leaf_weight=1486 10527 2601 839 4632 6110 1151
leaf_count=1486 10527 2601 839 4632 6110 1151
internal_value=-0.000136462 -0.251996 0.232421 0.173981 -0.0089358 0.393597
internal_weight=27346 13128 14218 12732 6949 5783
internal_count=27346 13128 14218 12732 6949 5783
is_linear=0
shrinkage=0.02


Tree=96
num_leaves=7
num_cat=0
split_feature=39 45 23 14 6 6
split_gain=3.61484e+06 1.22133e+06 1.7459e+06 2.4286e+06 1.22538e+06 1.2172e+06
threshold=-0.096513920914515425 0.26245601507157795 -0.010328392517706191 0.53500000000000014 -0.015040434669003786 0.0042693739631268776
decision_type=2 2 2 2 2 2
left_child=-1 2 3 -2 -4 -6
right_child=1 -3 4 -5 5 -7
leaf_value=-0.31137972407634157 -1.2318844389257597 1.0931632438865868 0.82053639826879321 1.0926409653495635 -0.030516875878272256 0.32979646910551508
leaf_weight=9652 747 550 1139 232 7859 7167
leaf_count=9652 747 550 1139 232 7859 7167
internal_value=-0.000135292 0.169687 0.139751 -0.678274 0.189487 0.141395
internal_weight=27346 17694 17144 979 16165 15026
internal_count=27346 17694 17144 979 16165 15026
is_linear=0
shrinkage=0.02


Tree=97
num_leaves=7
num_cat=0
split_feature=38 45 23 14 15 6
split_gain=3.74835e+06 1.26064e+06 1.87558e+06 2.44946e+06 1.29521e+06 1.28862e+06
threshold=248.50000000000003 0.26245601507157795 -0.010328392517706191 0.53500000000000014 0.095000000000000029 -0.0073290054950466135
decision_type=2 2 2 2 10 2
left_child=1 2 3 -1 -4 -6
right_child=-2 -3 4 -5 5 -7
leaf_value=-1.2000793897438715 -0.39405923118104069 0.9934156803884906 0.28783564970055442 1.0217976486544813 0.5087023768384733 -0.18919246451793711
leaf_weight=853 7135 663 11512 254 1298 5631
leaf_count=853 7135 663 11512 254 1298 5631
internal_value=-0.000126142 0.139005 0.10978 -0.68797 0.157842 -0.0581842
internal_weight=27346 20211 19548 1107 18441 6929
internal_count=27346 20211 19548 1107 18441 6929
is_linear=0
shrinkage=0.02


Tree=98
num_leaves=7
num_cat=0
split_feature=38 7 38 45 23 14
split_gain=3.64833e+06 1.03049e+06 979958 952988 1.22581e+06 1.95885e+06
threshold=144.50000000000003 6985.1250000000009 359.50000000000006 0.26245601507157795 -0.010529087499852055 0.53500000000000014
decision_type=2 2 2 2 2 2
left_child=1 3 -2 4 5 -1
right_child=2 -3 -4 -5 -6 -7
leaf_value=-1.191544534439188 -0.16727577571249708 1.5299024380712067 -0.64876435003065525 1.1509608718760149 0.21566979053378466 1.3028389198136474
leaf_weight=555 11138 232 1990 404 12869 158
leaf_count=555 11138 232 1990 404 12869 158
internal_value=-0.00011986 0.221821 -0.240481 0.199584 0.170871 -0.633569
internal_weight=27346 14218 13128 13986 13582 713
internal_count=27346 14218 13128 13986 13582 713
is_linear=0
shrinkage=0.02


Tree=99
num_leaves=7
num_cat=0
split_feature=38 7 37 45 23 15
split_gain=3.50428e+06 990652 945018 915782 1.17723e+06 1.2302e+06
threshold=144.50000000000003 6985.1250000000009 0.6984887025481944 0.26245601507157795 -0.010529087499852055 0.16
decision_type=2 2 2 2 2 10
left_child=1 3 -2 4 5 -1
right_child=2 -3 -4 -5 -6 -7
leaf_value=-1.0108518291541797 -0.15180813569090557 1.4999499370075984 -0.57926460327963225 1.1282230662600043 0.21135807058580205 1.11640826680767
leaf_weight=584 10558 232 2570 404 12869 129
leaf_count=584 10558 232 2570 404 12869 129
internal_value=-0.000109449 0.217406 -0.235678 0.195602 0.167456 -0.620882
internal_weight=27346 14218 13128 13986 13582 713
internal_count=27346 14218 13128 13986 13582 713
is_linear=0
shrinkage=0.02


Tree=100
num_leaves=7
num_cat=0
split_feature=39 10 12 10 3 12
split_gain=3.26499e+06 1.10608e+06 2.05207e+06 1.07146e+06 978896 1.95425e+06
threshold=0.04026463370984 2.8250000000000006 2.1950000000000007 2.7950000000000004 1.0000000180025095e-35 1.8550000000000002
decision_type=2 2 2 2 2 2
left_child=-1 3 4 -2 -3 -6
right_child=1 2 -4 -5 5 -7
leaf_value=-0.28009494434472354 0.29366585430290859 0.065479974443026848 -0.78311612124732122 1.1333969435674296 -0.26571546832163789 0.85533723194844102
leaf_weight=10379 2525 9972 993 798 923 1890
leaf_count=10379 2525 9972 993 798 923 1890
internal_value=-0.000341627 0.169479 0.090403 0.496722 0.158528 0.487679
internal_weight=27480 17101 13778 3323 12785 2813
internal_count=27480 17101 13778 3323 12785 2813
is_linear=0
shrinkage=0.02


Tree=101
num_leaves=7
num_cat=0
split_feature=38 45 6 6 6 23
split_gain=3.37198e+06 1.0098e+06 1.67151e+06 1.40434e+06 1.20997e+06 2.45277e+06
threshold=136.50000000000003 -0.095806800152300017 0.011124035704598636 0.0070054837444993865 -0.005097260243119405 3.5382245406841076e-05
decision_type=2 2 2 2 2 2
left_child=1 2 -1 4 5 -3
right_child=-2 3 -4 -5 -6 -7
leaf_value=-0.91749070654096809 -0.2226279250999349 0.032351154851782186 0.28923655503227813 0.74240266671774424 0.019143099554721873 1.1166393180760559
leaf_weight=777 13691 1993 1108 2214 6266 1431
leaf_count=777 13691 1993 1108 2214 6266 1431
internal_value=-0.000331088 0.220387 -0.20929 0.288485 0.184443 0.486478
internal_weight=27480 13789 1885 11904 9690 3424
internal_count=27480 13789 1885 11904 9690 3424
is_linear=0
shrinkage=0.02


Tree=102
num_leaves=7
num_cat=0
split_feature=38 15 10 3 15 45
split_gain=3.24834e+06 1.20496e+06 1.40046e+06 1.8855e+06 2.12266e+06 1.57559e+06
threshold=244.50000000000003 0.095000000000000029 2.8150000000000004 1.0000000180025095e-35 0.14999999999999999 0.024840877768565254
decision_type=2 10 2 2 10 2
left_child=1 -1 -3 -4 5 -5
right_child=-2 2 3 4 -6 -7
leaf_value=0.24911503042079156 -0.35824101948027337 0.65482799975259887 -0.36374367348476716 -1.4903657302840965 0.9315217406316173 1.2859602420670646
leaf_weight=12753 7404 920 4948 303 1045 107
leaf_count=12753 7404 920 4948 303 1045 107
internal_value=-0.000320609 0.131736 -0.0727093 -0.177673 0.454173 -0.759048
internal_weight=27480 20076 7323 6403 1455 410
internal_count=27480 20076 7323 6403 1455 410
is_linear=0
shrinkage=0.02


Tree=103
num_leaves=7
num_cat=0
split_feature=38 10 11 13 6 6
split_gain=3.16141e+06 922552 1.98143e+06 1.76321e+06 1.54794e+06 1.4367e+06
threshold=136.50000000000003 3.0250000000000004 0.15500000000000005 0.26500000000000018 0.015249987618250917 -0.0038471583557548312
decision_type=2 2 10 10 2 2
left_child=1 2 -1 4 5 -3
right_child=-2 3 -4 -5 -6 -7
leaf_value=0.5451893791927076 -0.21555486967336174 0.46532695974437266 -0.40478737285268623 -1.8884857763638154 0.94560726397239336 -0.18714515540357235
leaf_weight=5343 13691 1919 1047 176 785 4519
leaf_count=5343 13691 1919 1047 176 785 4519
internal_value=-0.00031089 0.213404 0.389341 0.0612991 0.110082 0.00754996
internal_weight=27480 13789 6390 7399 7223 6438
internal_count=27480 13789 6390 7399 7223 6438
is_linear=0
shrinkage=0.02


Tree=104
num_leaves=7
num_cat=0
split_feature=7 6 6 10 6 15
split_gain=1.114e+06 866744 1.01677e+06 1.71445e+06 1.60988e+06 1.2594e+06
threshold=6985.1250000000009 -0.015040434669003786 0.0013994200196696396 3.0450000000000004 0.032940892699525055 0.22500000000000001
decision_type=2 2 2 2 2 10
left_child=1 -1 -3 4 -4 -5
right_child=-2 2 3 5 -6 -7
leaf_value=0.28664355825576482 1.2348668456820056 -0.21021802329805961 0.39980309627565952 -0.002459586553133337 -1.5735680863731787 -0.61874981847687105
leaf_weight=3368 284 9944 5148 6935 166 1635
leaf_count=3368 284 9944 5148 6935 166 1635
internal_value=-0.000307364 -0.0134306 -0.0558962 0.0546682 0.336737 -0.120329
internal_weight=27480 27196 23828 13884 5314 8570
internal_count=27480 27196 23828 13884 5314 8570
is_linear=0
shrinkage=0.02


Tree=105
num_leaves=7
num_cat=0
split_feature=39 21 45 7 11 7
split_gain=2.71866e+06 1.1714e+06 900027 1.01086e+06 1.22461e+06 1.20189e+06
threshold=0.032215887894172894 1.6630612244898015 0.26245601507157795 5791.6250000000009 -0.099999999999999853 5747.8750000000009
decision_type=2 2 2 2 8 2
left_child=-1 2 3 4 5 -2
right_child=1 -3 -4 -5 -6 -7
leaf_value=-0.2533431315964817 -0.3623077870989958 -0.27795276650750478 1.0880147143067986 0.33400822192903162 0.11670177348152731 -2.3530969789293077
leaf_weight=10322 788 2152 459 8436 5086 139
leaf_count=10322 788 2152 459 8436 5086 139
internal_value=0.00278805 0.157787 0.220759 0.192842 -0.00532192 -0.671841
internal_weight=27382 17060 14908 14449 6013 927
internal_count=27382 17060 14908 14449 6013 927
is_linear=0
shrinkage=0.02


Tree=106
num_leaves=7
num_cat=0
split_feature=38 21 45 23 14 15
split_gain=2.9193e+06 1.17338e+06 967384 1.30095e+06 1.84595e+06 1.07548e+06
threshold=244.50000000000003 1.6630612244898015 0.26245601507157795 -0.010328392517706191 0.53500000000000014 0.095000000000000029
decision_type=2 2 2 2 2 10
left_child=1 2 3 4 -1 -5
right_child=-2 -3 -4 5 -6 -7
leaf_value=-1.1854199422240259 -0.33844131110066189 -0.25573912377766389 0.99470887230502225 0.32916360282487978 0.99612762823558998 -0.0094063274400445866
leaf_weight=595 7338 2750 571 9870 205 6053
leaf_count=595 7338 2750 571 9870 205 6053
internal_value=0.00272605 0.127679 0.188704 0.160894 -0.623683 0.200496
internal_weight=27382 20044 17294 16723 800 15923
internal_count=27382 20044 17294 16723 800 15923
is_linear=0
shrinkage=0.02


Tree=107
num_leaves=7
num_cat=0
split_feature=7 6 6 11 6 12
split_gain=1.10629e+06 815993 849271 1.43344e+06 1.45388e+06 2.00007e+06
threshold=6985.1250000000009 -0.015040434669003786 0.0013994200196696396 0.15999999999999995 0.0050581826496245439 2.1450000000000005
decision_type=2 2 2 10 2 2
left_child=1 -1 -3 -4 -5 -6
right_child=-2 2 3 4 5 -7
leaf_value=0.28216982958468156 1.2292592051266804 -0.19220611612177876 0.20030122954989274 -0.91875728066669182 0.16402046958111566 -0.99722445815801619
leaf_weight=3336 286 9971 8935 966 3163 725
leaf_count=3336 286 9971 8935 966 3163 725
internal_value=0.00267347 -0.0104976 -0.05164 0.0500379 -0.226481 -0.0535209
internal_weight=27382 27096 23760 13789 4854 3888
internal_count=27382 27096 23760 13789 4854 3888
is_linear=0
shrinkage=0.02


Tree=108
num_leaves=7
num_cat=0
split_feature=38 21 5 13 6 11
split_gain=2.79437e+06 1.12548e+06 943420 1.546e+06 1.38007e+06 1.02319e+06
threshold=244.50000000000003 1.6630612244898015 1.0000000180025095e-35 -0.25499999999999984 -0.020118588325480909 0.15000000000000016
decision_type=2 2 2 10 2 10
left_child=1 2 5 -4 -5 -1
right_child=-2 -3 3 4 -6 -7
leaf_value=0.38984154951351541 -0.33116824629844738 -0.25064032975089368 -2.3224290294647214 1.2299040638850285 -0.13233340130265778 0.019622224842852573
leaf_weight=8843 7338 2750 115 320 3508 4508
leaf_count=8843 7338 2750 115 320 3508 4508
internal_value=0.00261915 0.124869 0.184636 -0.0870972 -0.0170019 0.26489
internal_weight=27382 20044 17294 3943 3828 13351
internal_count=27382 20044 17294 3943 3828 13351
is_linear=0
shrinkage=0.02


Tree=109
num_leaves=7
num_cat=0
split_feature=38 37 7 6 23 6
split_gain=2.71683e+06 888637 887770 883236 2.16906e+06 1.8722e+06
threshold=132.50000000000003 0.87393967735992184 6985.1250000000009 -0.0073290054950466135 3.5382245406841076e-05 0.0013994200196696396
decision_type=2 2 2 2 2 2
left_child=2 -2 3 4 -1 -5
right_child=1 -3 -4 5 -6 -7
leaf_value=0.023735113091699307 -0.12681619925587362 -0.57747932862167584 1.4134310499694058 -0.28051615544854314 1.1402539176221604 0.28811987945176942
leaf_weight=1650 11869 2049 234 3480 1199 6901
leaf_count=1650 11869 2049 234 3480 1199 6901
internal_value=0.00256167 -0.193346 0.205072 0.183174 0.494796 0.097454
internal_weight=27382 13918 13464 13230 2849 10381
internal_count=27382 13918 13464 13230 2849 10381
is_linear=0
shrinkage=0.02


Tree=110
num_leaves=7
num_cat=0
split_feature=38 21 10 23 15 3
split_gain=2.63696e+06 949539 949036 996731 879406 801131
threshold=244.50000000000003 1.2435565298260094 2.8250000000000006 -0.0026021802971388825 0.13999999999999999 1.0000000180025095e-35
decision_type=2 2 2 2 8 2
left_child=1 5 -3 4 -4 -1
right_child=-2 2 3 -5 -6 -7
leaf_value=0.1193219315015135 -0.32807049445121428 0.52905808285795808 -1.0097139140909581 -0.031343255938866506 0.15996247226356441 0.49014596703749541
leaf_weight=12559 7433 714 982 2567 346 2858
leaf_count=12559 7433 714 982 2567 346 2858
internal_value=-0.00649587 0.112914 -0.138852 -0.261809 -0.705507 0.188202
internal_weight=27459 20026 4609 3895 1328 15417
internal_count=27459 20026 4609 3895 1328 15417
is_linear=0
shrinkage=0.02


Tree=111
num_leaves=7
num_cat=0
split_feature=38 12 37 5 46 11
split_gain=2.54126e+06 999231 835041 827743 2.43803e+06 1.59084e+06
threshold=128.50000000000003 1.5900000000000003 0.88914192380953694 1.0000000180025095e-35 16.394999504089359 0.15999999999999995
decision_type=2 2 2 2 2 10
left_child=1 -1 -2 5 -5 -3
right_child=2 3 -4 4 -6 -7
leaf_value=-0.97682494944730014 -0.12956998073445755 0.48495617339360197 -0.56824982320526507 -0.82212761319631389 0.37099271421988894 -0.045790687679226977
leaf_weight=281 12191 6637 2020 1094 1814 3422
leaf_count=281 12191 6637 2020 1094 1814 3422
internal_value=-0.00636621 0.19287 -0.192103 0.218584 -0.0785041 0.304467
internal_weight=27459 13248 14211 12967 2908 10059
internal_count=27459 13248 14211 12967 2908 10059
is_linear=0
shrinkage=0.02


Tree=112
num_leaves=7
num_cat=0
split_feature=39 10 12 10 21 23
split_gain=2.2296e+06 881124 1.62095e+06 895949 832874 1.239e+06
threshold=0.056355855470963404 2.8250000000000006 2.1950000000000007 2.7950000000000004 1.1464790023839828 -0.0026021802971388825
decision_type=2 2 2 2 2 2
left_child=-1 3 4 -2 -3 -6
right_child=1 2 -4 -5 5 -7
leaf_value=-0.23412854879555053 0.23820248922982759 0.21955611343205847 -0.72867854056936321 0.99888598651521732 -0.68617194295943995 0.13619150571507213
leaf_weight=10562 2478 9440 952 823 1126 2078
leaf_count=10562 2478 9440 952 823 1126 2078
internal_value=-0.00624503 0.136228 0.0649944 0.429079 0.125017 -0.153435
internal_weight=27459 16897 13596 3301 12644 3204
internal_count=27459 16897 13596 3301 12644 3204
is_linear=0
shrinkage=0.02


Tree=113
num_leaves=7
num_cat=0
split_feature=38 15 15 7 15 13
split_gain=2.38368e+06 896675 1.21592e+06 1.07647e+06 1.00496e+06 1.90946e+06
threshold=244.50000000000003 0.095000000000000029 0.14999999999999999 6985.1250000000009 0.22500000000000001 0.14000000000000004
decision_type=2 10 10 2 10 10
left_child=1 -1 3 -3 5 -4
right_child=-2 2 4 -5 -6 -7
leaf_value=0.20968207270553951 -0.31186169608432585 -0.61105597024054803 0.59187355539170494 1.2875594058632851 -0.17188963016548964 -0.98087049018041672
leaf_weight=12640 7433 1861 2217 123 2831 354
leaf_count=12640 7433 1861 2217 123 2831 354
internal_value=-0.00612033 0.10741 -0.0676351 -0.490409 0.0879474 0.373839
internal_weight=27459 20026 7386 1984 5402 2571
internal_count=27459 20026 7386 1984 5402 2571
is_linear=0
shrinkage=0.02


Tree=114
num_leaves=7
num_cat=0
split_feature=38 12 3 15 11 10
split_gain=2.31233e+06 950047 795868 1.09931e+06 1.49206e+06 946210
threshold=128.50000000000003 1.5900000000000003 1.0000000180025095e-35 0.14999999999999999 0.14500000000000005 4.1500000000000012
decision_type=2 2 2 8 10 2
left_child=1 -1 5 4 -4 -3
right_child=-2 2 3 -5 -6 -7
leaf_value=-0.95647919443937457 -0.18317140210494756 0.17021301533081615 0.64329813944830849 1.169118900894722 -0.60132165832285378 -0.81012998305442863
leaf_weight=281 14211 10029 1232 746 555 405
leaf_count=281 14211 10029 1232 746 555 405
internal_value=-0.00599787 0.184052 0.209127 0.526804 0.256149 0.131791
internal_weight=27459 13248 12967 2533 1787 10434
internal_count=27459 13248 12967 2533 1787 10434
is_linear=0
shrinkage=0.02


Tree=115
num_leaves=7
num_cat=0
split_feature=38 37 45 5 10 1
split_gain=2.47115e+06 854610 669612 769677 1.44798e+06 1.82357e+06
threshold=110.50000000000001 0.54799472748153522 0.26245601507157795 1.0000000180025095e-35 3.0250000000000004 1.0000000180025095e-35
decision_type=2 2 2 2 2 2
left_child=2 -2 3 4 5 -1
right_child=1 -3 -4 -5 -6 -7
leaf_value=0.71666290080605222 -0.084819573100287385 -0.46297885068161032 1.1161286330804592 -0.113926862396742 0.043212265570229967 -0.39678458228813901
leaf_weight=3760 12424 2956 323 2472 4836 694
leaf_count=3760 12424 2956 323 2472 4836 694
internal_value=0.0105156 -0.157628 0.22448 0.199531 0.282956 0.542921
internal_weight=27465 15380 12085 11762 9290 4454
internal_count=27465 15380 12085 11762 9290 4454
is_linear=0
shrinkage=0.02


Tree=116
num_leaves=7
num_cat=0
split_feature=10 11 5 46 46 10
split_gain=797091 1.20684e+06 1.38899e+06 1.42846e+06 1.19619e+06 923056
threshold=3.0250000000000004 0.15500000000000005 1.0000000180025095e-35 16.125000000000004 21.654999732971195 4.5100000000000007
decision_type=2 10 2 2 2 2
left_child=1 2 -1 -4 -3 -2
right_child=5 4 3 -5 -6 -7
leaf_value=0.35744946320162735 -0.10360541812633743 -0.69526903332437617 -1.0250063898369997 0.17465468318657093 0.29498181756137337 0.81694568342928375
leaf_weight=7397 15919 1216 633 1048 809 443
leaf_count=7397 15919 1216 633 1048 809 443
internal_value=0.0103083 0.141069 0.239546 -0.278792 -0.299906 -0.0784396
internal_weight=27465 11103 9078 1681 2025 16362
internal_count=27465 11103 9078 1681 2025 16362
is_linear=0
shrinkage=0.02


Tree=117
num_leaves=7
num_cat=0
split_feature=38 37 12 13 6 45
split_gain=2.37402e+06 825043 733773 787184 1.47153e+06 1.30571e+06
threshold=110.50000000000001 0.89639785336603828 1.5900000000000003 0.14000000000000004 0.0082898241790745359 -0.091046913476182975
decision_type=2 2 2 10 2 2
left_child=2 -2 -1 4 5 -4
right_child=1 -3 3 -5 -6 -7
leaf_value=-0.85080187825211495 -0.098816312266004416 -0.53882781052674877 -1.1747406054793226 -0.1012564670329635 0.8299652973274293 0.24856616604878842
leaf_weight=246 13432 1948 262 2174 1828 7575
leaf_count=246 13432 1948 262 2174 1828 7575
internal_value=0.0101015 -0.154704 0.219819 0.242415 0.319731 0.200265
internal_weight=27465 15380 12085 11839 9665 7837
internal_count=27465 15380 12085 11839 9665 7837
is_linear=0
shrinkage=0.02


Tree=118
num_leaves=7
num_cat=0
split_feature=38 37 6 6 23 6
split_gain=2.27995e+06 793821 714799 1.12936e+06 1.56936e+06 1.59161e+06
threshold=110.50000000000001 0.19212048394002793 -0.015040434669003786 0.0037599890860017253 0.0011273829613672765 0.0075883501626017322
decision_type=2 2 2 2 2 2
left_child=2 -2 -1 -4 -5 -6
right_child=1 -3 3 4 5 -7
leaf_value=0.67392782394832895 -0.06484555628413731 -0.38956907064972535 -0.033471119013353125 0.7698874350166135 -0.76012477500478115 0.32795186487894334
leaf_weight=1218 11275 4105 5615 2271 698 2283
leaf_count=1218 11275 4105 5615 2271 698 2283
internal_value=0.00989331 -0.151614 0.215414 0.163736 0.374406 0.0723329
internal_weight=27465 15380 12085 10867 5252 2981
internal_count=27465 15380 12085 10867 5252 2981
is_linear=0
shrinkage=0.02


Tree=119
num_leaves=7
num_cat=0
split_feature=38 37 6 6 15 13
split_gain=2.1898e+06 772830 686637 1.08468e+06 1.14018e+06 1.37435e+06
threshold=110.50000000000001 0.90342112280837894 -0.015040434669003786 0.0037599890860017253 0.22500000000000001 -0.069999999999999937
decision_type=2 2 2 2 10 8
left_child=2 -2 -1 -4 5 -5
right_child=1 -3 3 4 -6 -7
leaf_value=0.66050437063721978 -0.094923599659217206 -0.52332768162958099 -0.032802290997424849 0.94478098700518442 -0.34072614239588783 0.21962399224936435
leaf_weight=1218 13459 1921 5615 1661 773 2818
leaf_count=1218 13459 1921 5615 1661 773 2818
internal_value=0.00969735 -0.148585 0.211114 0.160464 0.366924 0.489296
internal_weight=27465 15380 12085 10867 5252 4479
internal_count=27465 15380 12085 10867 5252 4479
is_linear=0
shrinkage=0.02


Tree=120
num_leaves=7
num_cat=0
split_feature=38 7 6 23 6 12
split_gain=1.94144e+06 799642 812418 2.42023e+06 1.57692e+06 2.10933e+06
threshold=138.50000000000003 6985.1250000000009 -0.0073290054950466135 3.5382245406841076e-05 0.0002235327072007687 1.9550000000000003
decision_type=2 2 2 2 2 2
left_child=1 2 3 -1 5 -4
right_child=-2 -3 4 -5 -6 -7
leaf_value=-0.055097424816429326 -0.17183987433784537 1.3212764564676487 -0.82109194523930129 1.1140046921645985 0.2093693603082723 0.27797189028149927
