tree
version=v4
num_class=1
num_tree_per_iteration=1
label_index=0
max_feature_idx=60
objective=regression
feature_names=Column_0 Column_1 Column_2 Column_3 Column_4 Column_5 Column_6 Column_7 Column_8 Column_9 Column_10 Column_11 Column_12 Column_13 Column_14 Column_15 Column_16 Column_17 Column_18 Column_19 Column_20 Column_21 Column_22 Column_23 Column_24 Column_25 Column_26 Column_27 Column_28 Column_29 Column_30 Column_31 Column_32 Column_33 Column_34 Column_35 Column_36 Column_37 Column_38 Column_39 Column_40 Column_41 Column_42 Column_43 Column_44 Column_45 Column_46 Column_47 Column_48 Column_49 Column_50 Column_51 Column_52 Column_53 Column_54 Column_55 Column_56 Column_57 Column_58 Column_59 Column_60
feature_infos=[-0.55870342706051845:1.5539959215651329] [0:1] [0:1] [0:1] [0:1] [0:1] [-0.059362201463347253:0.093770230566206925] [5020.25:7016.5] [0:1] none [2.5899999999999999:4.6100000000000003] [-1.27:1.6200000000000001] [1.53:2.3399999999999999] [-0.37999999999999989:0.45999999999999996] [-0.46999999999999997:0.72999999999999998] [-0.19999999999999998:0.38999999999999996] [0:1] [-0.029008875680261385:0.048269472404831093] [-6.5683078083908981:6.9750959613041346] [-2.1819140324729838:2.5010613264434207] [-6.0376139908259283:6.3679711675470534] [-13.042553191489647:9.3541666666663303] [0.00017192765284372246:0.016775701892906229] [-0.040524228315226722:0.03462934370676353] [-0.015391297775175847:0.019819586858526556] [-0.043613613467594278:0.054173698472155661] [-0.018678121806596098:0.026231806140733394] [-0.024178293784117406:0.03149565573178667] [-0.059571514961795483:0.069841838627982628] [-0.038651858755462433:0.043258734933288003] [-0.5557756882429753:0.54600343625989745] [6.3630199273127062:95.938362189674976] [0.00021618114413349382:0.03526236865512658] [4.5958315961775355e-05:0.033955315051506146] [0.00057817028526808598:0.050757890727628381] [0.050000000000000003:1] [0:11] [-1:0.99987022497137468] [1:384] [-0.99996755571652796:0.99996755571652796] [-200493:77520] [-6.7175633317684929:7.2174898725917682] [-0.032896935896243956:0.025770932284036326] [0:3.4057417475715481] [-0.020929715710136815:0.0069832686021884405] [-0.35753873962348437:0.74039073966007019] [11.859999656677246:52.330001831054688] [-4.204985742629197:128.50201027105643] [-0.037302093557938655:0.047763982486964222] [-0.031014283356675054:0.041055087976994413] [-0.029798810617456803:0.039478810973787422] [-0.0284454557613604:0.039491691386354701] [-0.043494862852668105:0.043037023539715967] [-0.037398125909185287:0.054828704121789112] [-0.030079996804611674:0.040456502578095223] [-0.047590576683626186:0.050119421310524104] [-0.01553454645278138:0.025468945292821916] [-0.032045844364048857:0.038923832518320912] [-0.025865786159067657:0.02982799529579153] [-0.023869290063417332:0.032239960274770378] [-0.046675815276868926:0.049000678554009608]
tree_sizes=755 780 781 764 775 776 765 773 767 766 762 778 764 775 775 768 766 782 777 772 777 776 774 780 778 773 779 777 772 770 777 773 776 780 774 767 772 772 780 773 773 774 780 773 787 769 775 768 772 783 775 786 773 773 776 765 767 773 775 771 773 781 765 770 785 755 771

Tree=0
num_leaves=7
num_cat=0
split_feature=32 11 15 49 34 34
split_gain=1.21604e+06 459554 184719 158029 149579 144550
threshold=0.0017645473936783531 1.0149999999999999 -0.13499999999999995 0.0012066820592122082 0.0070895249879921246 0.0024437135211157553
decision_type=2 10 8 2 2 2
left_child=5 2 3 -2 -4 -1
right_child=1 -3 4 -5 -6 -7
leaf_value=18.294965463504536 18.740985594903773 19.032894846319966 18.528310734417246 19.66721953455508 18.737190136869586 18.410972826502622
leaf_weight=8246 237 1017 7215 105 1690 8976
leaf_count=8246 237 1017 7215 105 1690 8976
internal_value=18.4581 18.6304 18.5858 19.0387 18.5681 18.3554
internal_weight=27486 10264 9247 342 8905 17222
internal_count=27486 10264 9247 342 8905 17222
is_linear=0
shrinkage=1


Tree=1
num_leaves=7
num_cat=0
split_feature=32 11 22 32 6 11
split_gain=1.16841e+06 446681 145425 108345 83249.7 168398
threshold=0.0017439516075109906 1.0149999999999999 0.0042945042331699749 0.0011393388080755444 -0.029732151691075955 0.47000000000000003
decision_type=2 10 2 2 2 10
left_child=3 2 -2 -1 5 -4
right_child=1 -3 4 -5 -6 -7
leaf_value=-0.15102540604715362 0.066907193068318591 0.56444471822107489 -0.043712986428803266 -0.050018744159198873 0.20176711252746962 0.9945803919280729
leaf_weight=8625 6179 1017 104 8380 3031 150
leaf_count=8625 6179 1017 104 8380 3031 150
internal_value=0.00108473 0.167135 0.124165 -0.101279 0.231599 0.576816
internal_weight=27486 10481 9464 17005 3285 254
internal_count=27486 10481 9464 17005 3285 254
is_linear=0
shrinkage=0.02


Tree=2
num_leaves=7
num_cat=0
split_feature=32 34 22 15 17 34
split_gain=1.12238e+06 432165 210388 143130 146278 136063
threshold=0.0017645473936783531 0.013297456959833089 0.0043121149912357833 -0.12499999999999999 -0.0091800574643251896 0.0024437135211157553
decision_type=2 2 2 10 2 2
left_child=5 2 -2 -4 -5 -1
right_child=1 -3 3 4 -6 -7
leaf_value=-0.15621795887654416 0.056838291278516355 0.63919076466767322 0.68203257788130101 0.66133289200444212 0.17430447582901601 -0.043668872899001086
leaf_weight=8246 5893 715 279 264 3113 8976
leaf_count=8246 5893 715 279 264 3113 8976
internal_value=0.00106879 0.166572 0.130868 0.249953 0.2133 -0.0975878
internal_weight=27486 10264 9549 3656 3377 17222
internal_count=27486 10264 9549 3656 3377 17222
is_linear=0
shrinkage=0.02


Tree=3
num_leaves=7
num_cat=0
split_feature=32 34 22 46 17 6
split_gain=1.07851e+06 419579 204862 147294 126764 135377
threshold=0.0017439516075109906 0.013297456959833089 0.0043121149912357833 24.855000495910648 -0.0069408522409043659 -0.025977200528306762
decision_type=2 2 2 2 2 2
left_child=-1 2 -2 -3 5 -4
right_child=1 3 4 -5 -6 -7
leaf_value=-0.097292154974473327 0.054259044990550162 0.2478966485665125 1.0473756423166121 0.84608834891920581 0.19983639263208311 0.30080792355517
leaf_weight=17005 6049 267 147 449 3282 287
leaf_count=17005 6049 267 147 449 3282 287
internal_value=0.00105474 0.160589 0.12614 0.626286 0.242918 0.562727
internal_weight=27486 10481 9765 716 3716 434
internal_count=27486 10481 9765 716 3716 434
is_linear=0
shrinkage=0.02


Tree=4
num_leaves=7
num_cat=0
split_feature=34 34 46 32 46 46
split_gain=1.0417e+06 382496 199640 154513 153753 94991.7
threshold=0.0041395960854516559 0.013297456959833089 18.989999771118168 0.0014097905456835417 24.855000495910648 19.814999580383304
decision_type=2 2 2 2 2 2
left_child=3 2 -2 -1 -3 -4
right_child=1 4 5 -5 -6 -7
leaf_value=-0.12971561660412614 -0.00037573728596281887 0.25368273959969573 0.45501754665801869 -0.0073906044641392742 0.83464561509355673 0.17671093926700057
leaf_weight=11836 2900 313 541 6344 452 5100
leaf_count=11836 2900 313 541 6344 452 5100
internal_value=0.00104311 0.173081 0.134502 -0.0870435 0.600135 0.203781
internal_weight=27486 9306 8541 18180 765 5641
internal_count=27486 9306 8541 18180 765 5641
is_linear=0
shrinkage=0.02


Tree=5
num_leaves=7
num_cat=0
split_feature=34 11 6 32 17 15
split_gain=1.01442e+06 390849 163990 162175 158321 131279
threshold=0.0042695943802592709 1.1600000000000001 -0.034436434260847852 0.0014097905456835417 -0.0066705729388697428 -0.13499999999999995
decision_type=2 10 2 2 2 8
left_child=3 2 4 -1 -2 -4
right_child=1 -3 5 -5 -6 -7
leaf_value=-0.12675992907690761 0.91220975267248494 0.62222436744444554 0.53340324190525501 -0.0048101437794623647 0.10193297738860292 0.10136236056744022
leaf_weight=11832 205 726 288 6908 181 7297
leaf_count=11832 205 726 288 6908 181 7297
internal_value=0.00102379 0.179477 0.138786 -0.0818197 0.538423 0.118107
internal_weight=27437 8697 7971 18740 386 7585
internal_count=27437 8697 7971 18740 386 7585
is_linear=0
shrinkage=0.02


Tree=6
num_leaves=7
num_cat=0
split_feature=46 11 33 38 13 14
split_gain=885833 291460 226843 127608 124444 123470
threshold=23.265000343322757 1.1600000000000001 0.00083268367734945395 78.500000000000014 -0.35000000000000003 0.52500000000000013
decision_type=2 10 2 2 10 2
left_child=2 3 -1 5 -5 -2
right_child=1 -3 -4 4 -6 -7
leaf_value=-0.10196934992468366 0.56122482070341995 0.60986499828485219 0.02967729559793305 0.76322631515693251 0.090040353161752976 0.13421516472350531
leaf_weight=14052 584 726 8340 109 3117 509
leaf_count=14052 584 726 8340 109 3117 509
internal_value=0.00101111 0.240292 -0.0529413 0.177535 0.113932 0.363887
internal_weight=27437 5045 22392 4319 3226 1093
internal_count=27437 5045 22392 4319 3226 1093
is_linear=0
shrinkage=0.02


Tree=7
num_leaves=7
num_cat=0
split_feature=32 34 34 11 15 49
split_gain=953477 370675 195829 138194 99604.2 137677
threshold=0.0021021582497088606 0.013297456959833089 0.0032332210633214185 1.0750000000000002 -0.13499999999999995 0.00070751867825825595
decision_type=2 2 2 10 8 2
left_child=2 3 -1 -2 5 -4
right_child=1 -3 4 -5 -6 -7
leaf_value=-0.11366210372573977 0.1250140208771218 0.64970824831090246 0.023310992379038612 0.46548155850957373 0.0034089394873941222 0.95317370033361648
leaf_weight=13533 6161 652 158 513 6318 102
leaf_count=13533 6161 652 158 513 6318 102
internal_value=0.000998494 0.196264 -0.0701637 0.151513 0.0193444 0.399205
internal_weight=27437 7326 20111 6674 6578 260
internal_count=27437 7326 20111 6674 6578 260
is_linear=0
shrinkage=0.02


Tree=8
num_leaves=7
num_cat=0
split_feature=34 34 11 34 15 49
split_gain=916217 351714 146567 140488 125740 154693
threshold=0.0042695943802592709 0.013297456959833089 1.0750000000000002 0.0024922941720160892 -0.13499999999999995 0.0010318463849631157
decision_type=2 2 10 2 8 2
left_child=3 2 4 -1 5 -2
right_child=1 -3 -4 -5 -6 -7
leaf_value=-0.13682091918494454 0.16602697082481543 0.57851049562411239 0.4562617819741886 -0.026982178011284857 0.091288763541136311 1.1298913385641007
leaf_weight=8657 188 766 513 10083 7130 100
leaf_count=8657 188 766 513 10083 7130 100
internal_value=0.0009862 0.170582 0.130843 -0.0777455 0.108046 0.514272
internal_weight=27437 8697 7931 18740 7418 288
internal_count=27437 8697 7931 18740 7418 288
is_linear=0
shrinkage=0.02


Tree=9
num_leaves=7
num_cat=0
split_feature=34 34 22 6 15 49
split_gain=880304 356520 156129 129620 136522 120594
threshold=0.0040246743996205517 0.013297456959833089 0.0043412063617218654 -0.029732151691075955 -0.12499999999999999 0.0012674050998816211
decision_type=2 2 2 2 10 2
left_child=-1 2 -2 -4 5 -5
right_child=1 -3 3 4 -6 -7
leaf_value=-0.082696692813809619 0.052421202160621232 0.56701532384080522 0.66950983087410076 0.23964617223824775 0.15229234555899049 1.1502564599580856
leaf_weight=17752 5495 766 239 135 2948 102
leaf_count=17752 5495 766 239 135 2948 102
internal_value=0.000974705 0.154303 0.118559 0.22447 0.190077 0.647223
internal_weight=27437 9685 8919 3424 3185 237
internal_count=27437 9685 8919 3424 3185 237
is_linear=0
shrinkage=0.02


Tree=10
num_leaves=7
num_cat=0
split_feature=32 34 15 21 46 11
split_gain=847284 362873 155366 175172 145652 135089
threshold=0.0017041141521470559 0.013297456959833089 -0.13499999999999995 0.81626274923017517 24.855000495910648 1.0750000000000002
decision_type=2 2 8 2 2 10
left_child=-1 2 3 -2 -3 -4
right_child=1 4 5 -5 -6 -7
leaf_value=-0.091235687020504164 0.22544006589500384 0.19011600422638433 0.072160881325870022 1.2017019922619774 0.78304557099550509 0.40295624855941453
leaf_weight=16606 256 265 9267 100 456 517
leaf_count=16606 256 265 9267 100 456 517
internal_value=-0.00141101 0.135906 0.104922 0.512517 0.567927 0.0898375
internal_weight=27467 10861 10140 356 721 9784
internal_count=27467 10861 10140 356 721 9784
is_linear=0
shrinkage=0.02


Tree=11
num_leaves=7
num_cat=0
split_feature=32 34 22 17 6 34
split_gain=813929 348680 136733 116788 144089 95317.4
threshold=0.0017041141521470559 0.013297456959833089 0.0043121149912357833 -0.0069408522409043659 -0.025977200528306762 0.0022048938916912316
decision_type=2 2 2 2 2 2
left_child=5 2 -2 4 -4 -1
right_child=1 -3 3 -5 -6 -7
leaf_value=-0.14721905947239286 0.046110247997711275 0.55670295399780445 1.0059914217168922 0.15705255771279536 0.24077073280696457 -0.049667833870977812
leaf_weight=6760 6356 721 146 3342 296 9846
leaf_count=6760 6356 721 146 3342 296 9846
internal_value=-0.00137265 0.133214 0.102843 0.19795 0.501961 -0.0894115
internal_weight=27467 10861 10140 3784 442 16606
internal_count=27467 10861 10140 3784 442 16606
is_linear=0
shrinkage=0.02


Tree=12
num_leaves=7
num_cat=0
split_feature=32 34 15 46 34 48
split_gain=781839 334967 148828 140040 126538 106740
threshold=0.0017041141521470559 0.013297456959833089 -0.13499999999999995 24.855000495910648 0.0068096919026332664 0.0016677970465903461
decision_type=2 2 8 2 2 2
left_child=-1 2 5 -3 -4 -2
right_child=1 3 4 -5 -6 -7
leaf_value=-0.087624476845410124 0.27168834858559648 0.17545622397434932 0.047240426148786589 0.7565412068404177 0.21944801586026416 1.0354705125880692
leaf_weight=16606 255 265 7585 456 2199 101
leaf_count=16606 255 265 7585 456 2199 101
internal_value=-0.00133861 0.130568 0.1008 0.545646 0.0860372 0.49972
internal_weight=27467 10861 10140 721 9784 356
internal_count=27467 10861 10140 721 9784 356
is_linear=0
shrinkage=0.02


Tree=13
num_leaves=7
num_cat=0
split_feature=32 34 11 30 11 34
split_gain=751114 323254 113554 96459.1 98267.8 89825.8
threshold=0.0016947439004836929 0.013297456959833089 1.0750000000000002 -0.031188382129324985 0.14500000000000005 0.0022738608403402561
decision_type=2 2 10 2 10 2
left_child=5 2 -2 -3 -5 -1
right_child=1 3 -4 4 -6 -7
leaf_value=-0.1392475381427834 0.082542796129209783 0.18151058277725121 0.38549274538206546 0.20942649015544976 0.85414553365363033 -0.045208280386957206
leaf_weight=7249 9727 221 517 132 368 9253
leaf_count=7249 9727 221 517 132 368 9253
internal_value=-0.00130304 0.126968 0.0980129 0.534861 0.687698 -0.0865475
internal_weight=27467 10965 10244 721 500 16502
internal_count=27467 10965 10244 721 500 16502
is_linear=0
shrinkage=0.02


Tree=14
num_leaves=7
num_cat=0
split_feature=46 22 33 2 23 15
split_gain=676112 207056 185960 75521.5 129980 73176
threshold=23.265000343322757 0.012891341765110609 0.00081323451957623211 1.0000000180025095e-35 -0.0052996430184720786 -0.13499999999999995
decision_type=2 2 2 2 2 8
left_child=2 3 -1 -2 -5 -4
right_child=1 -3 5 4 -6 -7
leaf_value=-0.093822928214059062 0.12026300628416862 0.58556028490240231 0.32621242962218822 0.67755175822703262 0.17247463463876073 0.013256935395072975
leaf_weight=13797 3511 517 305 282 722 8333
leaf_count=13797 3511 517 305 282 722 8333
internal_value=-0.00127141 0.208131 -0.0482746 0.164312 0.316993 0.0244894
internal_weight=27467 5032 22435 4515 1004 8638
internal_count=27467 5032 22435 4515 1004 8638
is_linear=0
shrinkage=0.02


Tree=15
num_leaves=7
num_cat=0
split_feature=34 34 15 21 34 23
split_gain=728567 270355 107756 138637 103613 103451
threshold=0.0040246743996205517 0.013297456959833089 -0.13499999999999995 0.58915603618735257 0.0022295930333401702 -0.019948077053827885
decision_type=2 2 8 2 2 2
left_child=4 2 3 -2 -1 -4
right_child=1 -3 5 -5 -6 -7
leaf_value=-0.13616438538211931 0.1819547531389043 0.50162674388343365 0.38417585615896516 1.0590345587820378 -0.037089766750809772 0.07828976097584163
leaf_weight=6938 234 755 463 101 10789 8197
leaf_count=6938 234 755 463 101 10789 8197
internal_value=0.000479289 0.139304 0.10863 0.458073 -0.0758931 0.094856
internal_weight=27477 9750 8995 335 17727 8660
internal_count=27477 9750 8995 335 17727 8660
is_linear=0
shrinkage=0.02


Tree=16
num_leaves=7
num_cat=0
split_feature=34 10 6 17 15 49
split_gain=699872 277795 130984 121185 119420 148484
threshold=0.0040246743996205517 4.2100000000000009 -0.032489765224291138 -0.0052604678011336963 -0.13499999999999995 0.0012372307404765824
decision_type=2 2 2 2 8 2
left_child=-1 2 3 -2 5 -4
right_child=1 -3 4 -5 -6 -7
leaf_value=-0.074376203978230471 0.73558942037932118 0.44228358390800793 0.16603531470394228 0.023488676711553479 0.066404843208911477 1.0752911773863294
leaf_weight=17727 236 1055 235 159 7965 100
leaf_count=17727 236 1055 235 159 7965 100
internal_value=0.000477097 0.13654 0.0992103 0.452823 0.0821193 0.449277
internal_weight=27477 9750 8695 395 8300 335
internal_count=27477 9750 8695 395 8300 335
is_linear=0
shrinkage=0.02


Tree=17
num_leaves=7
num_cat=0
split_feature=32 22 32 22 15 17
split_gain=672533 243510 130700 125721 110108 84744.4
threshold=0.0020750802018871363 0.013022558910844324 0.0014024644999382988 0.003847229995580429 -0.13499999999999995 -0.013483597687766765
decision_type=2 2 2 2 8 2
left_child=2 3 -1 -2 -4 -5
right_child=1 -3 4 5 -6 -7
leaf_value=-0.099590515065458046 0.053165554191190019 0.62485928586745099 0.45243054316071579 0.58317795081695256 -0.0069124188214927567 0.19341596908386485
leaf_weight=12563 3731 423 210 237 7165 3148
leaf_count=12563 3731 423 210 237 7165 3148
internal_value=0.000476415 0.161325 -0.0603692 0.133352 0.00646484 0.221525
internal_weight=27477 7539 19938 7116 7375 3385
internal_count=27477 7539 19938 7116 7375 3385
is_linear=0
shrinkage=0.02


Tree=18
num_leaves=7
num_cat=0
split_feature=32 11 32 22 15 21
split_gain=646005 261789 126168 92753.8 75886.8 123694
threshold=0.0020750802018871363 1.1600000000000001 0.0011393388080755444 0.003847229995580429 -0.13499999999999995 0.19591111730285249
decision_type=2 10 2 2 8 2
left_child=2 3 -1 -2 5 -4
right_child=1 -3 4 -5 -6 -7
leaf_value=-0.11696322678838689 0.052103666193801738 0.51629394228940417 0.0038523108717324079 0.200477996879529 -0.023997394644617663 0.84757626277095865
leaf_weight=8590 3731 732 202 3076 11045 101
leaf_count=8590 3731 732 202 3076 11045 101
internal_value=0.000473437 0.158118 -0.0591601 0.11925 -0.0153731 0.294287
internal_weight=27477 7539 19938 6807 11348 303
internal_count=27477 7539 19938 6807 11348 303
is_linear=0
shrinkage=0.02


Tree=19
num_leaves=7
num_cat=0
split_feature=34 22 46 34 46 17
split_gain=631688 240656 151859 109142 98736.5 97621
threshold=0.0042695943802592709 0.013022558910844324 18.989999771118168 0.0022295930333401702 19.814999580383304 -0.013483597687766765
decision_type=2 2 2 2 2 2
left_child=3 2 -2 -1 -4 -6
right_child=1 -3 4 -5 5 -7
leaf_value=-0.128086791398342 -0.0024018058525072865 0.60315879695187113 0.43550215547010079 -0.028080341997910818 0.5244298582874013 0.12868486948346772
leaf_weight=6938 2832 423 533 11767 259 4725
leaf_count=6938 2832 423 533 11767 259 4725
internal_value=0.000469352 0.140454 0.116664 -0.0651987 0.177731 0.149755
internal_weight=27477 8772 8349 18705 5517 4984
internal_count=27477 8772 8349 18705 5517 4984
is_linear=0
shrinkage=0.02


Tree=20
num_leaves=7
num_cat=0
split_feature=32 11 34 34 15 49
split_gain=599724 202936 134655 105993 74066.6 99335.3
threshold=0.0021021582497088606 1.1600000000000001 0.0030074817265567711 0.016663858852707578 -0.13499999999999995 0.0010582068463498848
decision_type=2 10 2 2 8 2
left_child=2 3 -1 -2 5 -4
right_child=1 -3 4 -5 -6 -7
leaf_value=-0.097422351941441318 0.10673843307754002 0.47347137316125937 0.043745218539455281 0.57818846844174543 -0.0032504611953642387 0.81371145591281702
leaf_weight=12160 6353 722 187 192 7566 100
leaf_count=12160 6353 722 187 192 7566 100
internal_value=0.000764024 0.15632 -0.0557455 0.120999 0.00881007 0.321366
internal_weight=27280 7267 20013 6545 7853 287
internal_count=27280 7267 20013 6545 7853 287
is_linear=0
shrinkage=0.02


Tree=21
num_leaves=7
num_cat=0
split_feature=46 11 33 38 13 23
split_gain=558687 158275 145340 93825.1 90718.6 72882.2
threshold=23.265000343322757 1.1600000000000001 0.00080308726427008495 80.500000000000014 -0.35000000000000003 -0.022774711988966426
decision_type=2 10 2 2 10 2
left_child=2 3 -1 5 -5 -2
right_child=1 -3 -4 4 -6 -7
leaf_value=-0.083687395269049974 0.72961891045740668 0.46406706659448688 0.020840142113408268 0.66119549625396512 0.068490865574582518 0.2389329494200684
leaf_weight=13440 135 722 8803 102 3074 1004
leaf_count=13440 135 722 8803 102 3074 1004
internal_value=0.000755763 0.190845 -0.0423237 0.144644 0.0885355 0.300026
internal_weight=27280 5037 22243 4315 3176 1139
internal_count=27280 5037 22243 4315 3176 1139
is_linear=0
shrinkage=0.02


Tree=22
num_leaves=7
num_cat=0
split_feature=32 34 34 22 30 18
split_gain=560086 182141 126505 104570 79542.3 62545.9
threshold=0.0021021582497088606 0.013297456959833089 0.0030074817265567711 0.003847229995580429 -0.031188382129324985 -0.70380044393721153
decision_type=2 2 2 2 2 2
left_child=2 3 -1 -2 -3 -5
right_child=1 4 -4 5 -6 -7
leaf_value=-0.0942577076726486 0.044632527714504468 0.1413795932832331 0.008709525326147478 0.41565542065838451 0.63156856360843083 0.16574565129325947
leaf_weight=12160 3485 197 7853 470 422 2693
leaf_count=12160 3485 197 7853 470 422 2693
internal_value=0.000748342 0.151076 -0.0538618 0.120304 0.477946 0.203478
internal_weight=27280 7267 20013 6648 619 3163
internal_count=27280 7267 20013 6648 619 3163
is_linear=0
shrinkage=0.02


Tree=23
num_leaves=7
num_cat=0
split_feature=32 34 34 22 30 15
split_gain=538012 175042 121498 100451 76416.7 70910.9
threshold=0.0021021582497088606 0.013297456959833089 0.0030074817265567711 0.003847229995580429 -0.031188382129324985 -0.13499999999999995
decision_type=2 2 2 2 2 8
left_child=2 3 -1 -2 -3 -4
right_child=1 4 5 -5 -6 -7
leaf_value=-0.092373327156997753 0.043741156019363826 0.13862198968925099 0.31436023167857569 0.19942672538250919 0.61908509843103776 -0.0032653084875426063
leaf_weight=12160 3485 197 287 3163 422 7566
leaf_count=12160 3485 197 287 3163 422 7566
internal_value=0.000738189 0.148074 -0.052785 0.117908 0.468511 0.00853545
internal_weight=27280 7267 20013 6648 619 7853
internal_count=27280 7267 20013 6648 619 7853
is_linear=0
shrinkage=0.02


Tree=24
num_leaves=7
num_cat=0
split_feature=32 11 34 34 22 10
split_gain=516773 178061 117141 91031.5 52964.1 88094.4
threshold=0.0021021582497088606 1.1600000000000001 0.003191859963366224 0.016663858852707578 0.0037593296055432042 3.1750000000000003
decision_type=2 10 2 2 2 2
left_child=2 3 -1 4 -2 -6
right_child=1 -3 -4 -5 5 -7
leaf_value=-0.086194536616743686 0.04439292624233912 0.44220081995163202 0.016174691028557144 0.53573664248481312 0.28912261331398342 0.068452633991880008
leaf_weight=13274 3370 722 6739 192 1235 1748
leaf_count=13274 3370 722 6739 192 1235 1748
internal_value=0.000727895 0.145126 -0.0517282 0.112042 0.098826 0.160144
internal_weight=27280 7267 20013 6545 6353 2983
internal_count=27280 7267 20013 6545 6353 2983
is_linear=0
shrinkage=0.02


Tree=25
num_leaves=7
num_cat=0
split_feature=34 22 34 13 18 10
split_gain=501526 232578 148750 110129 68975.9 76827.3
threshold=0.0035733958286912775 0.0042945042331699749 0.012992957761416424 0.13000000000000003 -0.72985599816450974 3.2150000000000003
decision_type=2 2 2 10 2 2
left_child=-1 -2 4 -4 -3 -6
right_child=1 2 3 -5 5 -7
leaf_value=-0.073937664642119413 0.027014559631373728 0.44193932066154767 0.36819275163250781 1.0769005568403947 0.24476941863427187 0.062120951642189441
leaf_weight=15793 7144 332 431 109 1642 2101
leaf_count=15793 7144 332 431 109 1642 2101
internal_value=-0.000317376 0.0985482 0.209133 0.519814 0.167376 0.142466
internal_weight=27552 11759 4615 540 4075 3743
internal_count=27552 11759 4615 540 4075 3743
is_linear=0
shrinkage=0.02


Tree=26
num_leaves=7
num_cat=0
split_feature=34 34 15 21 11 8
split_gain=481776 218671 120805 159780 85825.3 64613.6
threshold=0.0035733958286912775 0.013297456959833089 -0.13499999999999995 0.94381377551023582 0.87499999999999989 1.0000000180025095e-35
decision_type=2 2 8 2 10 2
left_child=5 2 3 -2 -4 -1
right_child=1 -3 4 -5 -6 -7
leaf_value=-0.078587780488881626 0.1698606192944192 0.42452460438622541 0.039849797607613049 1.0534523694323641 0.21734775704100753 0.19370749144389685
leaf_weight=15441 314 756 9353 107 1229 352
leaf_count=15441 314 756 9353 107 1229 352
internal_value=-0.000303238 0.0965961 0.0738821 0.40416 0.0605574 -0.0724594
internal_weight=27552 11759 11003 421 10582 15793
internal_count=27552 11759 11003 421 10582 15793
is_linear=0
shrinkage=0.02


Tree=27
num_leaves=7
num_cat=0
split_feature=32 34 34 22 45 38
split_gain=468097 179080 104683 84288.8 78383.2 51249.7
threshold=0.0021021582497088606 0.013297456959833089 0.002638160243493616 0.003847229995580429 -0.16892828338838753 250.50000000000003
decision_type=2 2 2 2 2 2
left_child=2 3 -1 -2 -3 -5
right_child=1 4 -4 5 -6 -7
leaf_value=-0.097260718427808923 0.038169197577416707 0.86473011405500644 -0.0061569413800502161 0.22268428062711984 0.33081214462736819 0.027836362910450278
leaf_weight=9721 3530 141 10484 2478 506 692
leaf_count=9721 3530 141 10484 2478 506 692
internal_value=-0.000289842 0.136364 -0.0500019 0.105482 0.452907 0.18026
internal_weight=27552 7347 20205 6700 647 3170
internal_count=27552 7347 20205 6700 647 3170
is_linear=0
shrinkage=0.02


Tree=28
num_leaves=7
num_cat=0
split_feature=34 46 34 46 32 15
split_gain=449857 182249 140956 112061 109832 90744.8
threshold=0.0047013378112920915 18.989999771118168 0.014254516117232307 19.814999580383304 0.0013948794292740852 0.18500000000000008
decision_type=2 2 2 2 2 10
left_child=4 -2 3 -3 -1 -4
right_child=1 2 5 -5 -6 -7
leaf_value=-0.087231821804353848 -0.016947134994731848 0.48049393106287952 0.36145145627201863 0.13480839645902015 0.0071922692129032604 1.000361481611846
leaf_weight=11973 2187 409 373 4123 8370 117
leaf_count=11973 2187 409 373 4123 8370 117
internal_value=-0.000279034 0.135423 0.201728 0.166501 -0.0483894 0.522571
internal_weight=27552 7209 5022 4532 20343 490
internal_count=27552 7209 5022 4532 20343 490
is_linear=0
shrinkage=0.02


Tree=29
num_leaves=7
num_cat=0
split_feature=46 34 32 13 15 5
split_gain=435220 165249 160460 105297 79299.2 122351
threshold=23.265000343322757 0.012294686497527371 0.0014675122178576868 0.13000000000000003 -0.13499999999999995 1.0000000180025095e-35
decision_type=2 2 2 10 8 2
left_child=2 -2 -1 -3 5 -4
right_child=1 3 4 -5 -6 -7
leaf_value=-0.082956222885497463 0.12259403992473114 0.32700065151740004 0.060893277933454927 0.94834304708115602 0.014038557119847772 0.87393705562028023
leaf_weight=13132 4355 535 229 136 9060 105
leaf_count=13132 4355 535 229 136 9060 105
internal_value=-0.000266631 0.16792 -0.0378214 0.459019 0.0252837 0.325611
internal_weight=27552 5026 22526 671 9394 334
internal_count=27552 5026 22526 671 9394 334
is_linear=0
shrinkage=0.02


Tree=30
num_leaves=7
num_cat=0
split_feature=32 34 34 30 17 15
split_gain=433872 152011 99195.5 76947 72473.5 64216.3
threshold=0.0021021582497088606 0.013297456959833089 0.0022738608403402561 -0.029740218993010954 -0.011927481369114345 -0.13499999999999995
decision_type=2 2 2 2 2 8
left_child=2 4 -1 -3 -2 -6
right_child=1 3 -4 -5 5 -7
leaf_value=-0.10751419447439388 0.43391607819818978 0.10693868239992829 -0.014720758941197858 0.57121824264927301 0.40954944650988934 0.077163103836221145
leaf_weight=7207 250 214 12768 441 237 6162
leaf_count=7207 250 214 12768 441 237 6162
internal_value=1.41735e-05 0.131866 -0.0482193 0.421489 0.103039 0.0897839
internal_weight=27279 7304 19975 655 6649 6399
internal_count=27279 7304 19975 655 6649 6399
is_linear=0
shrinkage=0.02


Tree=31
num_leaves=7
num_cat=0
split_feature=34 22 46 46 21 34
split_gain=411691 163129 93892.5 97348.6 96851.4 70046.3
threshold=0.0040246743996205517 0.012891341765110609 18.969999313354496 19.814999580383304 1.3475040389934092 0.0022738608403402561
decision_type=2 2 2 2 2 2
left_child=5 2 -2 4 -4 -1
right_child=1 -3 3 -5 -6 -7
leaf_value=-0.10539064817362187 -0.00039960550319838691 0.44516350646291841 0.25452825332584328 0.1051330877248131 0.9272097241083781 -0.02429362340354552
leaf_weight=7208 3290 528 507 5229 100 10417
leaf_count=7208 3290 528 507 5229 100 10417
internal_value=1.93017e-05 0.104969 0.0850537 0.133186 0.372019 -0.0574799
internal_weight=27279 9654 9126 5836 607 17625
internal_count=27279 9654 9126 5836 607 17625
is_linear=0
shrinkage=0.02


Tree=32
num_leaves=7
num_cat=0
split_feature=32 34 34 30 22 18
split_gain=403952 143671 91263.9 73766 72261.4 60512.1
threshold=0.0021021582497088606 0.013297456959833089 0.0030074817265567711 -0.029740218993010954 0.003847229995580429 -0.72985599816450974
decision_type=2 2 2 2 2 2
left_child=2 4 -1 -3 -2 -6
right_child=1 3 -4 -5 5 -7
leaf_value=-0.08084825833632675 0.035994507575899636 0.1009416168655979 0.0066983207473436338 0.55540479088243888 0.39239972162076003 0.1337743182334791
leaf_weight=12140 3468 214 7835 441 414 2767
leaf_count=12140 3468 214 7835 441 414 2767
internal_value=2.47877e-05 0.127249 -0.0465159 0.408813 0.0992256 0.167997
internal_weight=27279 7304 19975 655 6649 3181
internal_count=27279 7304 19975 655 6649 3181
is_linear=0
shrinkage=0.02


Tree=33
num_leaves=7
num_cat=0
split_feature=32 22 34 38 34 35
split_gain=389495 160912 74295.4 61596.6 52496.9 43745
threshold=0.0016842526405962807 0.012891341765110609 0.0070895249879921246 90.500000000000014 0.0022738608403402561 0.8973684210526317
decision_type=2 2 2 2 2 2
left_child=4 2 5 -3 -1 -2
right_child=1 3 -4 -5 -6 -7
leaf_value=-0.10308880232004868 0.020307180097309488 0.76613555823162105 0.17691930356013519 0.28669464125486183 -0.030557340762194331 0.12627667582019289
leaf_weight=7111 6240 152 2222 376 9105 2073
leaf_count=7111 6240 152 2222 376 9105 2073
internal_value=2.84859e-05 0.0915011 0.0743094 0.430608 -0.0623856 0.0467927
internal_weight=27279 11063 10535 528 16216 8313
internal_count=27279 11063 10535 528 16216 8313
is_linear=0
shrinkage=0.02


Tree=34
num_leaves=7
num_cat=0
split_feature=32 22 32 17 38 15
split_gain=374615 128928 79784.4 71289.9 59263.2 56918.9
threshold=0.0021021582497088606 0.012891341765110609 0.0011603268657674605 -0.013483597687766765 90.500000000000014 -0.13499999999999995
decision_type=2 2 2 2 2 8
left_child=2 3 -1 -2 -3 -5
right_child=1 4 -4 5 -6 -7
leaf_value=-0.089724543874805537 0.46551491925456717 0.75130083220779509 -0.0092376745694117742 0.3860234617414634 0.28103599581896793 0.075694933466254874
leaf_weight=8819 201 152 11156 241 376 6334
leaf_count=8819 201 152 11156 241 376 6334
internal_value=3.247e-05 0.12255 -0.0447863 0.098907 0.422193 0.0873544
internal_weight=27279 7304 19975 6776 528 6575
internal_count=27279 7304 19975 6776 528 6575
is_linear=0
shrinkage=0.02


Tree=35
num_leaves=7
num_cat=0
split_feature=34 46 34 46 48 6
split_gain=374785 153822 117698 102940 97555.3 81266.9
threshold=0.0047013378112920915 18.989999771118168 0.014254516117232307 19.814999580383304 0.0015903930275533158 -0.032489765224291138
decision_type=2 2 2 2 2 2
left_child=-1 -2 3 4 -3 -5
right_child=1 2 -4 5 -6 -7
leaf_value=-0.045842892574120934 -0.017042749291277456 0.26554638494717264 0.48282317312794321 0.42059317709044652 0.96623000941145309 0.094362791965052872
leaf_weight=20206 2208 318 471 328 104 3788
leaf_count=20206 2208 318 471 328 104 3788
internal_value=-0.00165365 0.122013 0.183265 0.151676 0.447519 0.120839
internal_weight=27423 7217 5009 4538 422 4116
internal_count=27423 7217 5009 4538 422 4116
is_linear=0
shrinkage=0.02


Tree=36
num_leaves=7
num_cat=0
split_feature=46 34 32 30 17 6
split_gain=360675 145839 122928 76858.9 72718.1 151883
threshold=23.265000343322757 0.012726717024493702 0.0015691310378683104 -0.032735774182122888 -0.0069408522409043659 -0.032489765224291138
decision_type=2 2 2 2 2 2
left_child=2 4 -1 -3 5 -2
right_child=1 3 -4 -5 -6 -7
leaf_value=-0.071253176177552488 0.86420270750804851 0.098079857099225232 0.026252347673651481 0.58411437366748675 0.078130337550639389 0.1308256774378003
leaf_weight=14295 146 189 8099 430 3806 458
leaf_count=14295 146 189 8099 430 3806 458
internal_value=-0.00161268 0.151359 -0.0359914 0.437688 0.110718 0.313739
internal_weight=27423 5029 22394 619 4410 604
internal_count=27423 5029 22394 619 4410 604
is_linear=0
shrinkage=0.02


Tree=37
num_leaves=7
num_cat=0
split_feature=34 46 34 46 48 34
split_gain=349414 143854 108462 100128 93989 72686.6
threshold=0.0047013378112920915 18.989999771118168 0.014254516117232307 19.814999580383304 0.0015903930275533158 0.0020684327011582814
decision_type=2 2 2 2 2 2
left_child=5 -2 3 4 -3 -1
right_child=1 2 -4 -5 -6 -7
leaf_value=-0.10528962454920147 -0.016641403606722879 0.25990339012170682 0.46463791231898705 0.11633290969497065 0.94763083309208584 -0.020668421132881924
leaf_weight=5624 2208 318 471 4116 104 14582
leaf_count=5624 2208 318 471 4116 104 14582
internal_value=-0.00157419 0.117833 0.177067 0.146742 0.438502 -0.0442415
internal_weight=27423 7217 5009 4538 422 20206
internal_count=27423 7217 5009 4538 422 20206
is_linear=0
shrinkage=0.02


Tree=38
num_leaves=7
num_cat=0
split_feature=34 34 32 22 10 17
split_gain=335684 123592 71502.9 69880.8 53574.1 85693.9
threshold=0.0047013378112920915 0.013297456959833089 0.0010829719920930408 0.003847229995580429 3.1650000000000005 -0.0064357939702925871
decision_type=2 2 2 2 2 2
left_child=2 3 -1 -2 5 -5
right_child=1 -3 -4 4 -6 -7
leaf_value=-0.092539591608074651 0.023883015247766492 0.35702455254882692 -0.014577413072853238 0.6698404032156613 0.096828380332498729 0.18796231106024455
leaf_weight=7455 3364 754 12751 176 2078 845
leaf_count=7455 3364 754 12751 176 2078 845
internal_value=-0.0015367 0.115501 -0.0433573 0.0870693 0.15551 0.273888
internal_weight=27423 7217 20206 6463 3099 1021
internal_count=27423 7217 20206 6463 3099 1021
is_linear=0
shrinkage=0.02


Tree=39
num_leaves=7
num_cat=0
split_feature=46 34 32 30 17 6
split_gain=328894 130230 110743 74029.6 67758.8 144421
threshold=23.265000343322757 0.012726717024493702 0.0015691310378683104 -0.032735774182122888 -0.0069408522409043659 -0.032489765224291138
decision_type=2 2 2 2 2 2
left_child=2 4 -1 -3 5 -2
right_child=1 3 -4 -5 -6 -7
leaf_value=-0.067799152880246169 0.83889106552332438 0.082294123845616574 0.024747719766896065 0.55882693958250362 0.074712717236449538 0.12382713323213627
leaf_weight=14295 146 189 8099 430 3806 458
leaf_count=14295 146 189 8099 430 3806 458
internal_value=-0.00150149 0.144575 -0.0343307 0.415152 0.106169 0.302142
internal_weight=27423 5029 22394 619 4410 604
internal_count=27423 5029 22394 619 4410 604
is_linear=0
shrinkage=0.02


Tree=40
num_leaves=7
num_cat=0
split_feature=34 46 34 46 48 34
split_gain=296768 129979 105296 125060 91533 76825.3
threshold=0.0047013378112920915 18.989999771118168 0.014254516117232307 19.814999580383304 0.0015481101263768661 0.0021671623000882267
decision_type=2 2 2 2 2 2
left_child=5 -2 3 4 -3 -1
right_child=1 2 -4 -5 -6 -7
leaf_value=-0.096901071588734219 -0.019200465794359928 0.27683171686494634 0.4493883995838085 0.10072178916251805 0.93321496672549487 -0.013529302723521689
leaf_weight=6481 2209 331 467 4146 113 13893
leaf_count=6481 2209 331 467 4146 113 13893
internal_value=-0.000929576 0.108765 0.164627 0.135197 0.452416 -0.0400673
internal_weight=27640 7266 5057 4590 444 20374
internal_count=27640 7266 5057 4590 444 20374
is_linear=0
shrinkage=0.02


Tree=41
num_leaves=7
num_cat=0
split_feature=46 32 22 17 6 15
split_gain=286071 114061 113152 78529.4 79320.9 76143.5
threshold=23.265000343322757 0.0015691310378683104 0.014288997541854946 -0.0069408522409043659 -0.032489765224291138 -0.13499999999999995
decision_type=2 2 2 2 2 8
left_child=1 -1 3 4 -2 -3
right_child=2 5 -4 -5 -6 -7
leaf_value=-0.065275533810649836 0.58295969976255524 0.32999557024314768 0.50720425141709191 0.076322822220060746 0.1446553604205133 0.015781311664098956
leaf_weight=14363 255 316 303 4000 466 7937
leaf_count=14363 255 316 303 4000 466 7937
internal_value=-0.000905086 -0.0312371 0.135533 0.111167 0.30262 0.0280048
internal_weight=27640 22616 5024 4721 721 8253
internal_count=27640 22616 5024 4721 721 8253
is_linear=0
shrinkage=0.02


Tree=42
num_leaves=7
num_cat=0
split_feature=34 34 34 15 6 17
split_gain=276458 107542 72445.7 52035 51903.6 100241
threshold=0.0047013378112920915 0.014254516117232307 0.0020815428694876555 -0.13499999999999995 -0.032489765224291138 -0.0066705729388697428
decision_type=2 2 2 8 2 2
left_child=2 3 -1 -2 5 -5
right_child=1 -3 -4 4 -6 -7
leaf_value=-0.098184019223560445 0.3816893609877125 0.35416921623112962 -0.014762603381759585 0.69960083231829961 0.057313547775366597 0.0025106333666726163
leaf_weight=5831 218 628 14543 144 6091 185
leaf_count=5831 218 628 14543 144 6091 185
internal_value=-0.000881227 0.104993 -0.0386559 0.0811708 0.0706772 0.313526
internal_weight=27640 7266 20374 6638 6420 329
internal_count=27640 7266 20374 6638 6420 329
is_linear=0
shrinkage=0.02


Tree=43
num_leaves=7
num_cat=0
split_feature=46 34 34 45 20 46
split_gain=268417 119833 92630.3 88520.8 74286.5 66958
threshold=23.265000343322757 0.012726717024493702 0.0030074817265567711 -0.10015809730356549 -0.56633599591514605 23.594999313354496
decision_type=2 2 2 2 2 2
left_child=2 4 -1 -3 -2 -6
right_child=1 3 -4 -5 5 -7
leaf_value=-0.067465587517216055 0.30676683630310841 0.89929945878815232 0.013755149847184135 0.27526518320865129 0.31404415372107425 0.035301948254669965
leaf_weight=12249 571 109 10367 497 378 3469
leaf_count=12249 571 109 10367 497 378 3469
internal_value=-0.000858602 0.131302 -0.0302398 0.39395 0.0948713 0.0630628
internal_weight=27640 5024 22616 606 4418 3847
internal_count=27640 5024 22616 606 4418 3847
is_linear=0
shrinkage=0.02


Tree=44
num_leaves=7
num_cat=0
split_feature=34 34 30 8 11 34
split_gain=257713 113836 57006.1 52646.1 47253.3 44906.7
threshold=0.0040246743996205517 0.013297456959833089 0.025814214875409618 1.0000000180025095e-35 0.12500000000000003 0.0020815428694876555
decision_type=2 2 2 2 10 2
left_child=3 4 -3 5 -2 -1
right_child=1 2 -4 -5 -6 -7
leaf_value=-0.097445619036816616 0.0030712470836212155 0.19672997014808891 0.57519578827663898 0.17566018531116881 0.097598669785337405 -0.028978204433239067
leaf_weight=5677 3385 505 234 414 5636 11789
leaf_count=5677 3385 505 234 414 5636 11789
internal_value=-0.000835002 0.0817993 0.319629 -0.0459521 0.06215 -0.0512538
internal_weight=27640 9760 739 17880 9021 17466
internal_count=27640 9760 739 17880 9021 17466
is_linear=0
shrinkage=0.02


Tree=45
num_leaves=7
num_cat=0
split_feature=46 22 38 38 20 46
split_gain=252984 96199.2 64565 60527.7 59979.5 54200.3
threshold=23.265000343322757 0.014288997541854946 59.500000000000007 321.50000000000006 -0.12314942641296411 16.724999427795414
decision_type=2 2 2 2 2 2
left_child=2 3 5 -2 -3 -1
right_child=1 4 -4 -5 -6 -7
leaf_value=-0.034221272273680173 0.13339145614495956 0.1671874919340208 -0.050513944387533163 -0.085422577104581093 0.72489054197566749 0.079459619416841515
leaf_weight=3297 4062 149 15781 574 164 3406
leaf_count=3297 4062 149 15781 574 164 3406
internal_value=7.00397e-05 0.12945 -0.0284306 0.106236 0.466206 0.0235596
internal_weight=27433 4949 22484 4636 313 6703
internal_count=27433 4949 22484 4636 313 6703
is_linear=0
shrinkage=0.02


Tree=46
num_leaves=7
num_cat=0
split_feature=34 15 45 46 34 46
split_gain=256408 96303 156649 95595.9 66327 62425.5
threshold=0.0070895249879921246 -0.13499999999999995 -0.070736845297353176 24.730000495910648 0.002638160243493616 33.719999313354499
decision_type=2 8 2 2 2 2
left_child=1 2 -1 -2 -3 -5
right_child=3 4 -4 5 -6 -7
leaf_value=0.86301881425749005 0.075676821989844781 -0.06870251190371042 0.065201491778994175 0.47373418488438324 -0.00059730743541637032 0.18943191387837069
leaf_weight=118 1861 9702 498 500 13926 828
leaf_count=118 1861 9702 498 500 13926 828
internal_value=7.20457e-05 -0.0221151 0.223748 0.168518 -0.0285709 0.297849
internal_weight=27433 24244 616 3189 23628 1328
internal_count=27433 24244 616 3189 23628 1328
is_linear=0
shrinkage=0.02


Tree=47
num_leaves=7
num_cat=0
split_feature=34 22 15 21 46 7
split_gain=246306 103671 129328 199856 91848.9 102654
threshold=0.0070895249879921246 0.0042120431472201306 -0.12499999999999999 0.37135785007069405 24.730000495910648 5439.6250000000009
decision_type=2 2 10 2 2 2
left_child=1 -1 3 -3 -2 -6
right_child=4 2 -4 -5 5 -7
leaf_value=-0.042556087655874722 0.074167342005778666 0.076013190009715889 0.029803094462721173 1.0177522615391574 0.18564104356733105 0.58555722973134838
leaf_weight=19317 1861 259 4534 134 981 347
leaf_count=19317 1861 259 4534 134 981 347
internal_value=7.64283e-05 -0.0216692 0.0601807 0.405867 0.16517 0.291942
internal_weight=27433 24244 4927 393 3189 1328
internal_count=27433 24244 4927 393 3189 1328
is_linear=0
shrinkage=0.02


Tree=48
num_leaves=7
num_cat=0
split_feature=34 22 15 21 46 7
split_gain=236609 99611.6 124391 192235 88256.3 98663.1
threshold=0.0070895249879921246 0.0042120431472201306 -0.12499999999999999 0.37135785007069405 24.730000495910648 5439.6250000000009
decision_type=2 2 10 2 2 2
left_child=1 -1 3 -3 -2 -6
right_child=4 2 -4 -5 5 -7
leaf_value=-0.041705186366693292 0.072687970048022757 0.074521720009559603 0.029207688814130047 0.99812941722732662 0.18194704806269665 0.57401243796085266
leaf_weight=19317 1861 259 4534 134 981 347
leaf_count=19317 1861 259 4534 134 981 347
internal_value=8.19204e-05 -0.0212314 0.0589999 0.398024 0.161894 0.286161
internal_weight=27433 24244 4927 393 3189 1328
internal_count=27433 24244 4927 393 3189 1328
is_linear=0
shrinkage=0.02


Tree=49
num_leaves=7
num_cat=0
split_feature=32 22 20 32 38 22
split_gain=223002 96103.7 56799.8 53099.2 40324.4 47602.5
threshold=0.0021021582497088606 0.014288997541854946 -0.12314942641296411 0.00093767357977405687 313.50000000000006 0.0037593296055432042
decision_type=2 2 2 2 2 2
left_child=3 4 -3 -1 5 -2
right_child=1 2 -4 -5 -6 -7
leaf_value=-0.087423830007805903 0.039063914372902277 0.14492675563731752 0.6867175031096272 -0.014380591904928309 -0.061444722830687894 0.14967480615830028
leaf_weight=5455 3040 149 164 14706 725 3194
leaf_count=5455 3040 149 164 14706 725 3194
internal_value=8.71658e-05 0.094995 0.435138 -0.0341608 0.0793947 0.0958101
internal_weight=27433 7272 313 20161 6959 6234
internal_count=27433 7272 313 20161 6959 6234
is_linear=0
shrinkage=0.02


Tree=50
num_leaves=7
num_cat=0
split_feature=32 22 20 32 38 48
split_gain=245701 95133.3 60120.6 51932.2 47939.6 46642.2
threshold=0.0021144556164844276 0.014288997541854946 0.10928321150252147 0.0013706962122030494 312.50000000000006 -0.01047656043906902
decision_type=2 2 2 2 2 2
left_child=3 4 -3 -1 5 -2
right_child=1 2 -4 -5 -6 -7
leaf_value=-0.059912685291281485 0.38654373413561721 0.17728767047190797 0.72303234312247922 0.0055193539409594539 -0.066207566965527223 0.09339847907339692
leaf_weight=12139 221 179 149 8079 736 5951
leaf_count=12139 221 179 149 8079 736 5951
internal_value=0.00202437 0.101995 0.432336 -0.0337715 0.086009 0.104199
internal_weight=27454 7236 328 20218 6908 6172
internal_count=27454 7236 328 20218 6908 6172
is_linear=0
shrinkage=0.02


Tree=51
num_leaves=7
num_cat=0
split_feature=32 45 17 34 38 15
split_gain=236037 85081.5 70856.9 53116.3 49422.5 49352.4
threshold=0.0021144556164844276 -0.23963138236378964 -0.017589334050987306 0.002638160243493616 312.50000000000006 -0.13499999999999995
decision_type=2 2 2 2 2 8
left_child=3 -2 -3 -1 -4 -5
right_child=1 2 4 5 -6 -7
leaf_value=-0.067000705718176234 0.44009487293022209 0.58086225389388568 0.096582420189633589 0.23750886949332983 -0.075379276118808458 -0.009896714095062896
leaf_weight=9652 278 109 6102 328 747 10238
leaf_count=9652 278 109 6102 328 747 10238
internal_value=0.00198847 0.0999736 0.0860781 -0.0330963 0.0777858 -0.0021078
internal_weight=27454 7236 6958 20218 6849 10566
internal_count=27454 7236 6958 20218 6849 10566
is_linear=0
shrinkage=0.02


Tree=52
num_leaves=7
num_cat=0
split_feature=32 22 17 15 21 20
split_gain=227853 101147 66395.6 65985.6 111920 57199.5
threshold=0.0017439516075109906 0.014288997541854946 -0.017589334050987306 -0.13499999999999995 0.77777777777775303 0.10928321150252147
decision_type=2 2 2 8 2 2
left_child=-1 2 -2 4 -4 -3
right_child=1 5 3 -5 -6 -7
leaf_value=-0.043361984947386731 0.56201112897890915 0.16961411361906517 0.094066944201548514 0.048726194113658333 0.86698264059619368 0.70177607016129928
leaf_weight=16961 101 179 255 9707 102 149
leaf_count=16961 101 179 255 9707 102 149
internal_value=0.00195308 0.0751866 0.0639161 0.0586407 0.323825 0.418266
internal_weight=27454 10493 10165 10064 357 328
internal_count=27454 10493 10165 10064 357 328
is_linear=0
shrinkage=0.02


Tree=53
num_leaves=7
num_cat=0
split_feature=34 22 15 21 22 6
split_gain=212872 116444 100972 147408 77873.7 60993.2
threshold=0.0034858283714991347 0.0043121149912357833 -0.12499999999999999 0.53925070028008648 0.014288997541854946 -0.034436434260847852
decision_type=2 2 10 2 2 2
left_child=-1 -2 3 -3 5 -4
right_child=1 2 4 -5 -6 -7
leaf_value=-0.048026474832786124 0.015394310970473387 0.13135292779707231 0.35934704082169733 0.98170874769670247 0.41016216857476279 0.068812642851257808
leaf_weight=15213 7556 206 309 132 328 3710
leaf_count=15213 7556 206 309 132 328 3710
internal_value=0.00192276 0.0639935 0.142275 0.472914 0.116052 0.0915691
internal_weight=27454 12241 4685 338 4347 4019
internal_count=27454 12241 4685 338 4347 4019
is_linear=0
shrinkage=0.02


Tree=54
num_leaves=7
num_cat=0
split_feature=32 22 17 46 28 38
split_gain=212965 82227.4 58435.5 50824.3 48250 39930.7
threshold=0.0021144556164844276 0.014288997541854946 -0.017589334050987306 23.265000343322757 0.00035024152792492914 312.50000000000006
decision_type=2 2 2 2 2 2
left_child=3 2 -2 -1 -3 -4
right_child=1 4 5 -5 -6 -7
leaf_value=-0.040972229467649564 0.54633837906819471 0.16768320090737607 0.089652521841501923 0.073889227442948652 0.65639470192568394 -0.065987646172398787
leaf_weight=18542 101 175 6071 1676 153 736
leaf_count=18542 101 175 6071 1676 153 736
internal_value=0.00189129 0.0949644 0.0801018 -0.0314347 0.402082 0.072788
internal_weight=27454 7236 6908 20218 328 6807
internal_count=27454 7236 6908 20218 328 6807
is_linear=0
shrinkage=0.02


Tree=55
num_leaves=7
num_cat=0
split_feature=46 34 45 17 23 46
split_gain=197274 88922.4 84341.4 64922.2 117056 71438.7
threshold=23.265000343322757 0.012726717024493702 -0.10015809730356549 -0.0069408522409043659 -0.019948077053827885 23.594999313354496
decision_type=2 2 2 2 2 2
left_child=-1 3 -3 4 -2 -5
right_child=1 2 -4 5 -6 -7
leaf_value=-0.025332006897207993 0.74127533917157151 0.83801658053521633 0.22559037701070656 0.29524829834205202 0.10295486454644723 0.021628591123599186
leaf_weight=22284 154 106 514 424 422 3470
leaf_count=22284 154 106 514 424 422 3470
internal_value=0.000333158 0.11261 0.336162 0.0812615 0.278528 0.0517622
internal_weight=27374 5090 620 4470 576 3894
internal_count=27374 5090 620 4470 576 3894
is_linear=0
shrinkage=0.02


Tree=56
num_leaves=7
num_cat=0
split_feature=46 38 32 51 23 13
split_gain=189584 73213.2 70894.5 58881.8 45995.3 38556.3
threshold=23.265000343322757 234.50000000000003 0.00148999003420251 inf -0.0031438277483658724 -0.11999999999999998
decision_type=2 2 2 8 2 10
left_child=2 3 -1 4 -2 -3
right_child=1 5 -4 -5 -6 -7
leaf_value=-0.054150204874680696 0.35511150501900679 0.24778059563232124 0.018552656556475925 0.066839166310130746 0.15607648144235139 -0.037807708083081148
leaf_weight=13295 765 213 8989 1481 1210 1421
leaf_count=13295 765 213 8989 1481 1210 1421
internal_value=0.000334528 0.110401 -0.0248255 0.162494 0.233873 6.24638e-05
internal_weight=27374 5090 22284 3456 1975 1634
internal_count=27374 5090 22284 3456 1975 1634
is_linear=0
shrinkage=0.02


Tree=57
num_leaves=7
num_cat=0
split_feature=46 34 45 20 34 46
split_gain=182120 83801.8 81444.3 70298.5 61941.7 60895.2
threshold=23.265000343322757 0.012726717024493702 -0.10015809730356549 -0.56633599591514605 0.0024437135211157553 23.594999313354496
decision_type=2 2 2 2 2 2
left_child=4 3 -3 -2 -1 -5
right_child=1 2 -4 5 -6 -7
leaf_value=-0.068061482712489088 0.28004613228236019 0.8183022363551028 0.2166372139631324 0.27560871008289867 0.0010889815924450482 0.019220410439737514
leaf_weight=8188 591 106 514 410 14096 3469
leaf_count=8188 591 106 514 410 14096 3469
internal_value=0.000330585 0.108209 0.325226 0.0777781 -0.0243291 0.0466399
internal_weight=27374 5090 620 4470 22284 3879
internal_count=27374 5090 620 4470 22284 3879
is_linear=0
shrinkage=0.02


Tree=58
num_leaves=7
num_cat=0
split_feature=46 34 45 20 34 46
split_gain=174994 80584.8 78405.4 67537.9 59747.5 58514.4
threshold=23.265000343322757 0.012726717024493702 -0.10015809730356549 -0.56633599591514605 0.0026507374725636382 23.594999313354496
decision_type=2 2 2 2 2 2
left_child=4 3 -3 -2 -1 -5
right_child=1 2 -4 5 -6 -7
leaf_value=-0.061310709136489915 0.27449219887698034 0.80267339822408323 0.21234621076878729 0.27016294934231427 0.0047727978145232558 0.018836556062375494
leaf_weight=9647 591 106 514 410 12637 3469
leaf_count=9647 591 106 514 410 12637 3469
internal_value=0.000329608 0.106076 0.318887 0.0762353 -0.0238428 0.0457147
internal_weight=27374 5090 620 4470 22284 3879
internal_count=27374 5090 620 4470 22284 3879
is_linear=0
shrinkage=0.02


Tree=59
num_leaves=7
num_cat=0
split_feature=22 15 21 22 20 20
split_gain=165250 79356.9 167413 79397.5 69992.7 68929.7
threshold=0.0042945042331699749 -0.12499999999999999 0.51310068649886886 0.014288997541854946 -0.56633599591514605 -0.13157041810211975
decision_type=2 10 2 2 2 2
left_child=-1 2 -2 4 -3 -5
right_child=1 3 -4 5 -6 -7
leaf_value=-0.026333907100446773 0.072200270869389724 0.23962323286802456 0.94333089312216389 0.071252117060785047 0.026992510212160072 0.66319138777978492
leaf_weight=21149 265 706 128 153 4813 160
leaf_count=21149 265 706 128 153 4813 160
internal_value=0.000328575 0.0908609 0.364214 0.0721443 0.0543849 0.379511
internal_weight=27374 6225 393 5832 5519 313
internal_count=27374 6225 393 5832 5519 313
is_linear=0
shrinkage=0.02


Tree=60
num_leaves=7
num_cat=0
split_feature=22 15 21 17 0 38
split_gain=179416 93483.9 163574 70353.8 73062.1 62871.4
threshold=0.0043121149912357833 -0.12499999999999999 0.51310068649886886 -0.0091800574643251896 0.43066346809610884 57.500000000000007
decision_type=2 10 2 2 2 2
left_child=5 2 -2 4 -3 -1
right_child=1 3 -4 -5 -6 -7
leaf_value=0.025910263893989552 0.086456276639778173 0.5771660245308593 0.93406829060374441 0.054976605466325851 0.054254616272670253 -0.049446469393568532
leaf_weight=6276 254 214 138 5244 211 15019
leaf_count=6276 254 214 138 5244 211 15019
internal_value=9.18501e-05 0.0960525 0.392856 0.075201 0.321205 -0.0272367
internal_weight=27356 6061 392 5669 425 21295
internal_count=27356 6061 392 5669 425 21295
is_linear=0
shrinkage=0.02


Tree=61
num_leaves=7
num_cat=0
split_feature=33 45 17 35 14 14
split_gain=148253 83877 58349.6 48134.7 43057.4 41723.7
threshold=0.00086964347270898385 -0.16892828338838753 -0.017589334050987306 0.82843137254901966 0.15500000000000003 0.22500000000000003
decision_type=2 2 2 2 2 2
left_child=-1 -2 -3 -4 -5 -6
right_child=1 2 3 4 5 -7
leaf_value=-0.039818458231985397 0.27389768051593094 0.49746645109073534 0.0072490841427629562 -0.033432912373823009 0.36871380900469697 0.10829665004578759
leaf_weight=15766 652 106 7317 782 270 2463
leaf_count=15766 652 106 7317 782 270 2463
internal_value=9.6165e-05 0.0543862 0.0411822 0.0364897 0.0972616 0.13465
internal_weight=27356 11590 10938 10832 3515 2733
internal_count=27356 11590 10938 10832 3515 2733
is_linear=0
shrinkage=0.02


Tree=62
num_leaves=7
num_cat=0
split_feature=22 15 21 46 17 7
split_gain=167804 88655.2 156447 93165.5 88190.5 103215
threshold=0.0043121149912357833 -0.12499999999999999 0.51310068649886886 26.694999694824222 -0.0049267018709649871 5430.5000000000009
decision_type=2 10 2 2 2 2
left_child=-1 2 -2 -3 5 -5
right_child=1 3 -4 4 -6 -7
leaf_value=-0.026330827272057142 0.082335072529131845 0.01604758287426172 0.91121812820434567 0.25550731468169641 0.10547528710416292 0.94798331425901039
leaf_weight=21295 254 3817 138 379 1364 109
leaf_count=21295 254 3817 138 379 1364 109
internal_value=9.85633e-05 0.092902 0.381937 0.0725968 0.188789 0.418225
internal_weight=27356 6061 392 5669 1852 488
internal_count=27356 6061 392 5669 1852 488
is_linear=0
shrinkage=0.02


Tree=63
num_leaves=7
num_cat=0
split_feature=22 15 49 46 17 7
split_gain=161265 85272.1 126633 89550.3 84829.2 99353.6
threshold=0.0043121149912357833 -0.12499999999999999 0.0010861917779208079 26.694999694824222 -0.0049267018709649871 5430.5000000000009
decision_type=2 10 2 2 2 2
left_child=-1 2 -2 -3 5 -5
right_child=1 3 -4 4 -6 -7
leaf_value=-0.025804334823053349 0.099993868378514886 0.015727051243515932 0.84313233829218237 0.25046370571789639 0.10337348611482507 0.92985520717867631
leaf_weight=21295 251 3817 141 379 1364 109
leaf_count=21295 251 3817 141 379 1364 109
internal_value=0.000104969 0.0910822 0.374548 0.0711682 0.185083 0.410105
internal_weight=27356 6061 392 5669 1852 488
internal_count=27356 6061 392 5669 1852 488
is_linear=0
shrinkage=0.02


Tree=64
num_leaves=7
num_cat=0
split_feature=32 45 15 49 23 17
split_gain=156565 82792.7 78322.9 96802.4 59901.9 80711.3
threshold=0.0015524694430725336 -0.15629401845460031 -0.13499999999999995 0.0010861917779208079 -0.019948077053827885 -0.0054811646342160852
decision_type=2 2 8 2 2 2
left_child=-1 -2 3 -3 5 -4
right_child=1 2 4 -5 -6 -7
leaf_value=-0.044303955396320101 0.24885304990857093 0.095919513587874386 0.40465400456576994 0.76792892785742883 0.016521379123916057 -0.0025088909070938824
leaf_weight=14692 793 265 379 123 10709 395
leaf_count=14692 793 265 379 123 10709 395
internal_value=0.000110972 0.0516356 0.038362 0.316013 0.0288469 0.198182
internal_weight=27356 12664 11871 388 11483 774
internal_count=27356 12664 11871 388 11483 774
is_linear=0
shrinkage=0.02


Tree=65
num_leaves=7
num_cat=0
split_feature=46 38 51 38 23 7
split_gain=149031 60505.6 66838.7 53428.7 38806.3 41635.7
threshold=23.409999847412113 321.50000000000006 inf 46.500000000000007 -0.0031438277483658724 5485.6250000000009
decision_type=2 2 8 2 2 2
left_child=3 2 4 -1 5 -2
right_child=1 -3 -4 -5 -6 -7
leaf_value=0.034233664071648608 0.16241060242410871 -0.088180314062550766 0.040828611259674824 -0.038611329393741012 0.13195348186551267 0.43320508054952989
leaf_weight=5250 458 591 1944 17245 1369 465
leaf_count=5250 458 591 1944 17245 1369 465
internal_value=3.58089e-05 0.100813 0.127253 -0.0216066 0.200308 0.300434
internal_weight=27322 4827 4236 22495 2292 923
internal_count=27322 4827 4236 22495 2292 923
is_linear=0
shrinkage=0.02


Tree=66
num_leaves=7
num_cat=0
split_feature=46 38 17 2 46 38
split_gain=143163 58127.7 55358.7 61712.8 53181.5 51314.2
threshold=23.409999847412113 321.50000000000006 -0.0072671580111323252 1.0000000180025095e-35 23.594999313354496 46.500000000000007
decision_type=2 2 2 2 2 2
left_child=5 2 3 -2 -4 -1
right_child=1 -3 4 -5 -6 -7
leaf_value=0.033549641925575732 0.16876302767209636 -0.086431502430455998 0.35555659283597563 0.59042696144336315 0.069473850738540024 -0.037839326171524336
leaf_weight=5250 506 591 278 190 3262 17245
leaf_count=5250 506 591 278 190 3262 17245
internal_value=3.7566e-05 0.0988103 0.124726 0.287263 0.09241 -0.0211744
internal_weight=27322 4827 4236 696 3540 22495
internal_count=27322 4827 4236 696 3540 22495
is_linear=0
shrinkage=0.02


end of trees

feature_importances:
Column_34=84
Column_46=46
Column_32=41
Column_22=36
Column_15=33
Column_17=24
Column_38=17
Column_11=16
Column_6=12
Column_21=12
Column_20=9
Column_45=9
Column_30=8
Column_49=8
Column_23=7
Column_7=5
Column_13=5
Column_48=5
Column_10=4
Column_33=4
Column_14=3
Column_18=3
Column_2=2
Column_8=2
Column_35=2
Column_51=2
Column_0=1
Column_5=1
Column_28=1

parameters:
[boosting: gbdt]
[objective: regression]
[metric: rmse]
[tree_learner: serial]
[device_type: cpu]
[data_sample_strategy: bagging]
[data: ]
[valid: ]
[num_iterations: 400]
[learning_rate: 0.02]
[num_leaves: 7]
[num_threads: 0]
[seed: 0]
[deterministic: 0]
[force_col_wise: 0]
[force_row_wise: 0]
[histogram_pool_size: -1]
[max_depth: -1]
[min_data_in_leaf: 100]
[min_sum_hessian_in_leaf: 0.001]
[bagging_fraction: 0.7]
[pos_bagging_fraction: 1]
[neg_bagging_fraction: 1]
[bagging_freq: 5]
[bagging_seed: 3]
[bagging_by_query: 0]
[feature_fraction: 0.7]
[feature_fraction_bynode: 1]
[feature_fraction_seed: 2]
[extra_trees: 0]
[extra_seed: 6]
[early_stopping_round: 0]
[early_stopping_min_delta: 0]
[first_metric_only: 0]
[max_delta_step: 0]
[lambda_l1: 0]
[lambda_l2: 5]
[linear_lambda: 0]
[min_gain_to_split: 0]
[drop_rate: 0.1]
[max_drop: 50]
[skip_drop: 0.5]
[xgboost_dart_mode: 0]
[uniform_drop: 0]
[drop_seed: 4]
[top_rate: 0.2]
[other_rate: 0.1]
[min_data_per_group: 100]
[max_cat_threshold: 32]
[cat_l2: 10]
[cat_smooth: 10]
[max_cat_to_onehot: 4]
[top_k: 20]
[monotone_constraints: ]
[monotone_constraints_method: basic]
[monotone_penalty: 0]
[feature_contri: ]
[forcedsplits_filename: ]
[refit_decay_rate: 0.9]
[cegb_tradeoff: 1]
[cegb_penalty_split: 0]
[cegb_penalty_feature_lazy: ]
[cegb_penalty_feature_coupled: ]
[path_smooth: 0]
[interaction_constraints: ]
[verbosity: -1]
[saved_feature_importance_type: 0]
[use_quantized_grad: 0]
[num_grad_quant_bins: 4]
[quant_train_renew_leaf: 0]
[stochastic_rounding: 1]
[linear_tree: 0]
[max_bin: 255]
[max_bin_by_feature: ]
[min_data_in_bin: 3]
[bin_construct_sample_cnt: 200000]
[data_random_seed: 1]
[is_enable_sparse: 1]
[enable_bundle: 1]
[use_missing: 1]
[zero_as_missing: 0]
[feature_pre_filter: 1]
[pre_partition: 0]
[two_round: 0]
[header: 0]
[label_column: ]
[weight_column: ]
[group_column: ]
[ignore_column: ]
[categorical_feature: ]
[forcedbins_filename: ]
[precise_float_parser: 0]
[parser_config_file: ]
[objective_seed: 5]
[num_class: 1]
[is_unbalance: 0]
[scale_pos_weight: 1]
[sigmoid: 1]
[boost_from_average: 1]
[reg_sqrt: 0]
[alpha: 0.9]
[fair_c: 1]
[poisson_max_delta_step: 0.7]
[tweedie_variance_power: 1.5]
[lambdarank_truncation_level: 30]
[lambdarank_norm: 1]
[label_gain: ]
[lambdarank_position_bias_regularization: 0]
[eval_at: ]
[multi_error_top_k: 1]
[auc_mu_weights: ]
[num_machines: 1]
[local_listen_port: 12400]
[time_out: 120]
[machine_list_filename: ]
[machines: ]
[gpu_platform_id: -1]
[gpu_device_id: -1]
[gpu_use_dp: 0]
[num_gpu: 1]

end of parameters

pandas_categorical:null
