tree
version=v4
num_class=1
num_tree_per_iteration=1
label_index=0
max_feature_idx=60
objective=regression
feature_names=Column_0 Column_1 Column_2 Column_3 Column_4 Column_5 Column_6 Column_7 Column_8 Column_9 Column_10 Column_11 Column_12 Column_13 Column_14 Column_15 Column_16 Column_17 Column_18 Column_19 Column_20 Column_21 Column_22 Column_23 Column_24 Column_25 Column_26 Column_27 Column_28 Column_29 Column_30 Column_31 Column_32 Column_33 Column_34 Column_35 Column_36 Column_37 Column_38 Column_39 Column_40 Column_41 Column_42 Column_43 Column_44 Column_45 Column_46 Column_47 Column_48 Column_49 Column_50 Column_51 Column_52 Column_53 Column_54 Column_55 Column_56 Column_57 Column_58 Column_59 Column_60
feature_infos=[-0.55870342706051845:1.5539959215651329] [0:1] [0:1] [0:1] [0:1] [0:1] [-0.059362201463347253:0.093770230566206925] [5020.25:7016.5] [0:1] none [2.5899999999999999:4.6100000000000003] [-1.27:1.6200000000000001] [1.53:2.3399999999999999] [-0.37999999999999989:0.45999999999999996] [-0.46999999999999997:0.72999999999999998] [-0.19999999999999998:0.38999999999999996] [0:1] [-0.029008875680261385:0.048269472404831093] [-6.5683078083908981:6.9750959613041346] [-2.1819140324729838:2.5010613264434207] [-6.0376139908259283:6.3679711675470534] [-13.042553191489647:9.3541666666663303] [0.00017192765284372246:0.016775701892906229] [-0.040524228315226722:0.03462934370676353] [-0.015391297775175847:0.019819586858526556] [-0.043613613467594278:0.054173698472155661] [-0.018678121806596098:0.026231806140733394] [-0.024178293784117406:0.03149565573178667] [-0.059571514961795483:0.069841838627982628] [-0.038651858755462433:0.043258734933288003] [-0.5557756882429753:0.54600343625989745] [6.3630199273127062:95.938362189674976] [0.00021618114413349382:0.03526236865512658] [4.5958315961775355e-05:0.033955315051506146] [0.00057817028526808598:0.050757890727628381] [0.050000000000000003:1] [0:11] [-1:0.99987022497137468] [1:384] [-0.99996755571652796:0.99996755571652796] [-200493:77520] [-6.7175633317684929:7.2174898725917682] [-0.032896935896243956:0.025770932284036326] [0:3.4057417475715481] [-0.020929715710136815:0.0069832686021884405] [-0.35753873962348437:0.74039073966007019] [11.859999656677246:52.330001831054688] [-4.204985742629197:128.50201027105643] [-0.037302093557938655:0.047763982486964222] [-0.031014283356675054:0.041055087976994413] [-0.029798810617456803:0.039478810973787422] [-0.0284454557613604:0.039491691386354701] [-0.043494862852668105:0.043037023539715967] [-0.037398125909185287:0.054828704121789112] [-0.030079996804611674:0.040456502578095223] [-0.047590576683626186:0.050119421310524104] [-0.01553454645278138:0.025468945292821916] [-0.032045844364048857:0.038923832518320912] [-0.025865786159067657:0.02982799529579153] [-0.023869290063417332:0.032239960274770378] [-0.046675815276868926:0.049000678554009608]
tree_sizes=787 803 810 803 791 812 801 804 803 807 791 804 801 802 801 800 793 792 795 796 800 798 797 806 802 802 802 795 790 791 797 801 789 793 785 799 808 800 792 789 785 798 793 795 800 779 785 797 788 799

Tree=0
num_leaves=7
num_cat=0
split_feature=11 34 22 39 39 11
split_gain=1.15369e+07 7.60103e+06 2.44312e+06 2.14074e+06 1.54317e+06 1.00799e+06
threshold=1.0149999999999999 0.0032726809189059414 0.0035254990393402161 -0.096513920914515425 0.072432450066572687 -0.035000000000000135
decision_type=10 2 2 2 2 10
left_child=1 3 -3 -1 -4 -6
right_child=-2 2 4 -5 5 -7
leaf_value=72.198969240515268 74.945277495752919 72.872616516136063 72.942128948698596 72.693182782246168 72.909854682959207 73.779155907707562
leaf_weight=6585 1017 6473 1779 7501 630 3501
leaf_count=6585 1017 6473 1779 7501 630 3501
internal_value=72.8602 72.7797 73.1411 72.462 73.4349 73.6468
internal_weight=27486 26469 12383 14086 5910 4131
internal_count=27486 26469 12383 14086 5910 4131
is_linear=0
shrinkage=1


Tree=1
num_leaves=7
num_cat=0
split_feature=46 46 6 22 12 11
split_gain=1.34747e+07 5.34609e+06 2.21271e+06 2.16317e+06 1.60649e+06 1.17411e+06
threshold=21.029999732971195 31.764999389648441 -0.0041461190374652004 0.0049473673611404754 1.9650000000000001 0.024999999999999915
decision_type=2 2 2 2 2 10
left_child=2 4 -1 -4 5 -2
right_child=1 -3 3 -5 -6 -7
leaf_value=0.13666069052209842 -0.25062190646794907 1.8834301775443174 -0.44297202153679904 0.48308160431834274 0.099236244085486591 0.8846844484499784
leaf_weight=4197 410 1307 14750 1079 2607 3136
leaf_count=4197 410 1307 14750 1079 2607 3136
internal_value=-0.00120375 0.724052 -0.271486 -0.379714 0.476452 0.753249
internal_weight=27486 7460 20026 15829 6153 3546
internal_count=27486 7460 20026 15829 6153 3546
is_linear=0
shrinkage=0.02


Tree=2
num_leaves=7
num_cat=0
split_feature=34 11 6 22 6 13
split_gain=1.07811e+07 6.5468e+06 2.79993e+06 1.88363e+06 1.11013e+06 1.05663e+06
threshold=0.0037005425060185047 1.0149999999999999 -0.0041461190374652004 0.0035254990393402161 -0.0031073132561624246 -0.21000000000000005
decision_type=2 10 2 2 2 10
left_child=2 3 -1 4 -2 -5
right_child=1 -3 -4 5 -6 -7
leaf_value=0.16078098442293765 0.4505674464847052 2.0048921135120428 -0.46760519660911981 1.1615084348166578 -0.1688248212268246 0.44844818108883838
leaf_weight=3647 1790 1017 12721 1049 3254 4008
leaf_count=3647 1790 1017 12721 1049 3254 4008
internal_value=-0.00116951 0.479315 -0.327586 0.324799 0.0512118 0.597363
internal_weight=27486 11118 16368 10101 5044 5057
internal_count=27486 11118 16368 10101 5044 5057
is_linear=0
shrinkage=0.02


Tree=3
num_leaves=7
num_cat=0
split_feature=46 46 38 38 6 22
split_gain=1.25524e+07 4.93112e+06 4.13141e+06 3.1637e+06 2.06565e+06 1.82624e+06
threshold=21.029999732971195 31.764999389648441 282.50000000000006 186.50000000000003 -0.0034137263972413008 0.0049473673611404754
decision_type=2 2 2 2 2 2
left_child=2 3 4 -2 -1 -6
right_child=1 -3 -4 -5 5 -7
leaf_value=0.28054524105210066 0.85598350302218096 1.8123399345799374 -0.8497251266722603 -0.059195241793083303 -0.31797762445308553 0.60630987351262888
leaf_weight=3879 3496 1307 3857 2657 11370 920
leaf_count=3879 3496 1307 3857 2657 11370 920
internal_value=-0.00113306 0.698863 -0.262002 0.461062 -0.121585 -0.248569
internal_weight=27486 7460 20026 6153 16169 12290
internal_count=27486 7460 20026 6153 16169 12290
is_linear=0
shrinkage=0.02


Tree=4
num_leaves=7
num_cat=0
split_feature=46 46 38 38 46 12
split_gain=1.20563e+07 4.73674e+06 3.96809e+06 3.0486e+06 1.81326e+06 1.48819e+06
threshold=21.029999732971195 31.764999389648441 282.50000000000006 260.50000000000006 17.534999847412113 1.9650000000000001
decision_type=2 2 2 2 2 2
left_child=2 3 4 5 -1 -2
right_child=1 -3 -4 -5 -6 -7
leaf_value=-0.29774324884030839 1.0145304694310737 1.7762312641309392 -0.83275262852465604 -0.29278967763191099 0.13187681841415713 0.27500722387752147
leaf_weight=9447 2710 1307 3857 1618 6722 1825
leaf_count=9447 2710 1307 3857 1618 6722 1825
internal_value=-0.00110193 0.68492 -0.256763 0.451854 -0.11915 0.717558
internal_weight=27486 7460 20026 6153 16169 4535
internal_count=27486 7460 20026 6153 16169 4535
is_linear=0
shrinkage=0.02


Tree=5
num_leaves=7
num_cat=0
split_feature=34 11 22 6 39 6
split_gain=9.53487e+06 6.21467e+06 2.12015e+06 1.98862e+06 1.69513e+06 1.63587e+06
threshold=0.0033110598633787638 1.0149999999999999 0.0035254990393402161 -0.0041461190374652004 -0.096513920914515425 -0.0028918920577448155
decision_type=2 10 2 2 2 2
left_child=3 2 5 4 -1 -2
right_child=1 -3 -4 -5 -6 -7
leaf_value=-0.38592060513784648 0.45938475711892046 1.909913292511545 0.53756094699359258 -0.48401405828060151 0.55048202585961348 -0.21922218695280898
leaf_weight=1519 2137 985 5818 11197 1565 4216
leaf_count=1519 2137 985 5818 11197 1565 4216
internal_value=-0.00240926 0.385966 0.261899 -0.3602 0.0893861 0.00922701
internal_weight=27437 13156 12171 14281 3084 6353
internal_count=27437 13156 12171 14281 3084 6353
is_linear=0
shrinkage=0.02


Tree=6
num_leaves=7
num_cat=0
split_feature=46 46 38 38 6 22
split_gain=1.16397e+07 4.18634e+06 3.68924e+06 2.95395e+06 1.81427e+06 1.41765e+06
threshold=21.029999732971195 31.764999389648441 288.50000000000006 186.50000000000003 -0.0032363176927213129 0.0048891045197950837
decision_type=2 2 2 2 2 2
left_child=2 3 4 -2 -1 -6
right_child=1 -3 -4 -5 5 -7
leaf_value=0.23981668809311965 0.83564651915237076 1.71103489664825 -0.83574432257381615 -0.048876841894602389 -0.30742956338905258 0.51290817806353939
leaf_weight=4060 3510 1281 3571 2647 11463 905
leaf_count=4060 3510 1281 3571 2647 11463 905
internal_value=-0.00235244 0.672856 -0.25358 0.455644 -0.126818 -0.24722
internal_weight=27437 7438 19999 6157 16428 12368
internal_count=27437 7438 19999 6157 16428 12368
is_linear=0
shrinkage=0.02


Tree=7
num_leaves=7
num_cat=0
split_feature=34 11 38 6 6 38
split_gain=8.88811e+06 5.78136e+06 2.6266e+06 2.03582e+06 1.82203e+06 1.23202e+06
threshold=0.0032726809189059414 1.0149999999999999 292.50000000000006 -0.0034137263972413008 -0.011962849468563406 250.50000000000003
decision_type=2 10 2 2 2 2
left_child=2 4 3 -1 -2 -6
right_child=1 -3 -4 -5 5 -7
leaf_value=0.27873473935026999 0.74110154481912061 1.837860076923864 -0.84869835927934822 -0.35889340655186486 0.22231761753157783 -0.40323987600084416
leaf_weight=2651 2419 985 3275 8149 8484 1474
leaf_count=2651 2419 985 3275 8149 8484 1474
internal_value=-0.00229771 0.367081 -0.352971 -0.202323 0.249337 0.129566
internal_weight=27437 13362 14075 10800 12377 9958
internal_count=27437 13362 14075 10800 12377 9958
is_linear=0
shrinkage=0.02


Tree=8
num_leaves=7
num_cat=0
split_feature=34 11 38 22 6 38
split_gain=8.53673e+06 5.55371e+06 2.54791e+06 1.92352e+06 1.80281e+06 1.76542e+06
threshold=0.0032726809189059414 1.0149999999999999 354.50000000000006 0.0035254990393402161 -0.0039535146800243051 256.50000000000006
decision_type=2 10 2 2 2 2
left_child=2 3 4 -2 -1 -5
right_child=1 -3 -4 5 -6 -7
leaf_value=0.19575666793339694 0.0066418171761663649 1.801288517293304 -1.0801884485431681 0.65953904431635513 -0.37823761803609596 -0.2719881477535625
leaf_weight=2833 6485 985 1662 4920 9580 972
leaf_count=2833 6485 985 1662 4920 9580 972
internal_value=-0.00224641 0.359757 -0.345918 0.244355 -0.24721 0.505765
internal_weight=27437 13362 14075 12377 12413 5892
internal_count=27437 13362 14075 12377 12413 5892
is_linear=0
shrinkage=0.02


Tree=9
num_leaves=7
num_cat=0
split_feature=34 11 38 6 22 38
split_gain=8.19928e+06 5.33504e+06 2.45954e+06 1.90038e+06 1.8474e+06 1.6961e+06
threshold=0.0032726809189059414 1.0149999999999999 288.50000000000006 -0.0034137263972413008 0.0035254990393402161 250.50000000000003
decision_type=2 10 2 2 2 2
left_child=2 4 3 -1 -2 -6
right_child=1 -3 -4 -5 5 -7
leaf_value=0.27974276782950486 0.0065090825429533492 1.7654447546294243 -0.80242161602003836 -0.34089278898672543 0.65163541171317518 -0.24107833275907428
leaf_weight=2614 6485 985 3452 8009 4863 1029
leaf_count=2614 6485 985 3452 8009 4863 1029
internal_value=-0.00219808 0.352579 -0.339009 -0.188113 0.239471 0.495656
internal_weight=27437 13362 14075 10623 12377 5892
internal_count=27437 13362 14075 10623 12377 5892
is_linear=0
shrinkage=0.02


Tree=10
num_leaves=7
num_cat=0
split_feature=46 46 38 38 10 46
split_gain=9.8719e+06 3.54283e+06 3.41716e+06 2.4784e+06 1.57682e+06 1.56622e+06
threshold=21.029999732971195 31.764999389648441 282.50000000000006 182.50000000000003 2.8750000000000004 17.534999847412113
decision_type=2 2 2 2 2 2
left_child=2 3 5 -2 -5 -1
right_child=1 -3 -4 4 -6 -7
leaf_value=-0.26803724336943341 0.78040712187627381 1.5785742399913087 -0.76382170949823947 1.3398930272738139 -0.19681452659978407 0.1322211659747127
leaf_weight=9543 3410 1276 3894 295 2430 6619
leaf_count=9543 3410 1276 3894 295 2430 6619
internal_value=-0.00187678 0.621625 -0.232368 0.421468 -0.028306 -0.104125
internal_weight=27467 7411 20056 6135 2725 16162
internal_count=27467 7411 20056 6135 2725 16162
is_linear=0
shrinkage=0.02


Tree=11
num_leaves=7
num_cat=0
split_feature=32 11 38 6 38 11
split_gain=7.85982e+06 4.00326e+06 3.12171e+06 2.60133e+06 2.09371e+06 1.31532e+06
threshold=0.001912107795505702 1.0750000000000002 282.50000000000006 -0.0034137263972413008 306.50000000000006 0.015000000000000126
decision_type=2 10 2 2 2 10
left_child=2 4 3 -1 5 -2
right_child=1 -3 -4 -5 -6 -7
leaf_value=0.35323848601832419 0.060400024509897683 1.8260472278189073 -0.71903380262025951 -0.25543327038732655 -0.54625071900538846 0.65131966890133453
leaf_weight=3799 2174 810 4131 10730 911 4912
leaf_count=3799 2174 810 4131 10730 911 4912
internal_value=-0.00182977 0.490469 -0.23425 -0.0962128 0.354135 0.470195
internal_weight=27467 8807 18660 14529 7997 7086
internal_count=27467 8807 18660 14529 7997 7086
is_linear=0
shrinkage=0.02


Tree=12
num_leaves=7
num_cat=0
split_feature=46 46 38 38 6 12
split_gain=9.24285e+06 3.27149e+06 3.15332e+06 2.32095e+06 1.53317e+06 1.35944e+06
threshold=21.029999732971195 31.764999389648441 323.50000000000006 182.50000000000003 -0.0032052764024372844 1.9650000000000001
decision_type=2 2 2 2 2 2
left_child=2 3 4 5 -1 -2
right_child=1 -3 -4 -5 -6 -7
leaf_value=0.17850940340785568 1.0876486880180125 1.5211006646068836 -0.91571444857503415 -0.026077828896951764 -0.24448587758673307 0.27432273792000267
leaf_weight=4639 2018 1276 2330 2725 13087 1392
leaf_count=4639 2018 1276 2330 2725 13087 1392
internal_value=-0.00178819 0.601521 -0.224815 0.409177 -0.133766 0.756528
internal_weight=27467 7411 20056 6135 17726 3410
internal_count=27467 7411 20056 6135 17726 3410
is_linear=0
shrinkage=0.02


Tree=13
num_leaves=7
num_cat=0
split_feature=32 11 38 6 38 11
split_gain=7.34071e+06 3.70864e+06 2.91847e+06 2.4227e+06 1.97243e+06 1.22708e+06
threshold=0.001912107795505702 1.0750000000000002 274.50000000000006 -0.0034137263972413008 306.50000000000006 0.015000000000000126
decision_type=2 10 2 2 2 10
left_child=2 4 3 -1 5 -2
right_child=1 -3 -4 -5 -6 -7
leaf_value=0.35270735802841269 0.059630399982835168 1.7595148815933181 -0.67413851755382459 -0.24156083543487866 -0.53112123881560225 0.63038794502951934
leaf_weight=3707 2174 810 4433 10520 911 4912
leaf_count=3707 2174 810 4433 10520 911 4912
internal_value=-0.0017456 0.474018 -0.22636 -0.0866483 0.342795 0.455444
internal_weight=27467 8807 18660 14227 7997 7086
internal_count=27467 8807 18660 14227 7997 7086
is_linear=0
shrinkage=0.02


Tree=14
num_leaves=7
num_cat=0
split_feature=46 46 39 39 46 10
split_gain=8.65495e+06 3.02038e+06 2.42949e+06 2.13866e+06 1.56579e+06 1.42123e+06
threshold=21.029999732971195 31.764999389648441 -0.096513920914515425 0.008055017313645732 17.534999847412113 2.8750000000000004
decision_type=2 2 2 2 2 2
left_child=2 3 -1 5 -4 -2
right_child=1 -3 4 -5 -6 -7
leaf_value=-0.51995743748509604 1.2856394895395205 1.4656910789193212 -0.23256815980440479 0.70861108647174986 0.21497253373811739 -0.21834603808687558
leaf_weight=6941 278 1276 7980 3616 5135 2241
leaf_count=6941 278 1276 7980 3616 5135 2241
internal_value=-0.00170576 0.582101 -0.217523 0.397282 -0.0573245 -0.0501463
internal_weight=27467 7411 20056 6135 13115 2519
internal_count=27467 7411 20056 6135 13115 2519
is_linear=0
shrinkage=0.02


Tree=15
num_leaves=7
num_cat=0
split_feature=34 7 38 45 38 45
split_gain=6.77711e+06 2.90883e+06 2.24673e+06 1.39023e+06 1.28505e+06 1.10543e+06
threshold=0.003329542824202602 5309.2500000000009 359.50000000000006 -0.31955237080057652 324.50000000000006 0.10346974045631187
decision_type=2 2 2 2 2 2
left_child=2 -2 -1 -3 5 -5
right_child=1 3 -4 4 -6 -7
leaf_value=-0.20480148194794789 1.2278640253444948 1.9417748495872986 -0.99612825866388011 0.15661721379605453 -0.6609611064285873 0.65404505914630651
leaf_weight=12749 1308 183 1613 8742 639 2243
leaf_count=12749 1308 183 1613 8742 639 2243
internal_value=0.00611421 0.334741 -0.293991 0.235322 0.207633 0.258437
internal_weight=27477 13115 14362 11807 11624 10985
internal_count=27477 13115 14362 11807 11624 10985
is_linear=0
shrinkage=0.02


Tree=16
num_leaves=7
num_cat=0
split_feature=46 46 39 39 46 10
split_gain=8.46437e+06 2.76629e+06 2.1453e+06 2.11746e+06 1.60876e+06 1.35248e+06
threshold=21.029999732971195 31.764999389648441 -0.096513920914515425 0.04026463370984 17.534999847412113 2.8750000000000004
decision_type=2 2 2 2 2 2
left_child=2 3 -1 5 -4 -2
right_child=1 -3 4 -5 -6 -7
leaf_value=-0.49696790115800293 1.2859260925336318 1.4287144616367675 -0.23859164534931751 0.71281334551101583 0.21243835328512523 -0.19916639194090965
leaf_weight=6799 270 1271 7975 3660 5236 2266
leaf_count=6799 270 1271 7975 3660 5236 2266
internal_value=0.00599963 0.58041 -0.208441 0.405384 -0.0598193 -0.038834
internal_weight=27477 7467 20010 6196 13211 2536
internal_count=27477 7467 20010 6196 13211 2536
is_linear=0
shrinkage=0.02


Tree=17
num_leaves=7
num_cat=0
split_feature=46 38 38 46 46 12
split_gain=8.13015e+06 2.98718e+06 2.6859e+06 2.4472e+06 1.40735e+06 1.39915e+06
threshold=21.029999732971195 254.50000000000003 309.50000000000006 31.764999389648441 17.534999847412113 1.9650000000000001
decision_type=2 2 2 2 2 2
left_child=2 3 4 5 -1 -2
right_child=1 -3 -4 -5 -6 -7
leaf_value=-0.2652270235171158 0.9033680480543208 -0.095103666715163182 -0.78900442091553347 1.7317368461022784 0.10043450983811594 0.18649849305623672
leaf_weight=10070 2705 1988 2711 948 7229 1826
leaf_count=10070 2705 1988 2711 948 7229 1826
internal_value=0.00588948 0.568845 -0.204275 0.809619 -0.112438 0.614993
internal_weight=27477 7467 20010 5479 17299 4531
internal_count=27477 7467 20010 5479 17299 4531
is_linear=0
shrinkage=0.02


Tree=18
num_leaves=7
num_cat=0
split_feature=46 38 38 46 46 12
split_gain=7.80904e+06 2.86925e+06 2.57975e+06 2.35097e+06 1.35165e+06 1.34383e+06
threshold=21.029999732971195 254.50000000000003 309.50000000000006 31.764999389648441 17.534999847412113 1.9650000000000001
decision_type=2 2 2 2 2 2
left_child=2 3 4 5 -1 -2
right_child=1 -3 -4 -5 -6 -7
leaf_value=-0.25992511447093003 0.88533402041160258 -0.093206367141866711 -0.77325338499818075 1.6972838465789684 0.09842720685675041 0.18277871228437129
leaf_weight=10070 2705 1988 2711 948 7229 1826
leaf_count=10070 2705 1988 2711 948 7229 1826
internal_value=0.00577814 0.557505 -0.200194 0.793478 -0.11019 0.602717
internal_weight=27477 7467 20010 5479 17299 4531
internal_count=27477 7467 20010 5479 17299 4531
is_linear=0
shrinkage=0.02


Tree=19
num_leaves=7
num_cat=0
split_feature=46 46 39 39 6 10
split_gain=7.50062e+06 2.48407e+06 1.96766e+06 1.9344e+06 1.45775e+06 1.29401e+06
threshold=21.029999732971195 31.764999389648441 -0.096513920914515425 0.04026463370984 -0.0046338701067827883 2.8750000000000004
decision_type=2 2 2 2 2 2
left_child=2 3 -1 5 -4 -2
right_child=1 -3 4 -5 -6 -7
leaf_value=-0.47251749246457053 1.251786391206221 1.3502539099770419 0.3618845624655313 0.67437710511992666 -0.15993276956099034 -0.20084958052947827
leaf_weight=6799 270 1271 2683 3660 10528 2266
leaf_count=6799 270 1271 2683 3660 10528 2266
internal_value=0.0056689 0.54639 -0.196195 0.380536 -0.0538609 -0.0440331
internal_weight=27477 7467 20010 6196 13211 2536
internal_count=27477 7467 20010 6196 13211 2536
is_linear=0
shrinkage=0.02


Tree=20
num_leaves=7
num_cat=0
split_feature=46 38 38 46 12 6
split_gain=6.92331e+06 2.65948e+06 2.34811e+06 2.17916e+06 1.25048e+06 1.24776e+06
threshold=21.029999732971195 254.50000000000003 276.50000000000006 31.764999389648441 1.9650000000000001 -0.0034137263972413008
decision_type=2 2 2 2 2 2
left_child=2 3 5 4 -2 -1
right_child=1 -3 -4 -5 -6 -7
leaf_value=0.22949038901555771 0.84313476669863352 -0.098640300864810904 -0.62650308377816255 1.6289832477239852 0.16039489905627707 -0.1849980229202848
leaf_weight=3824 2658 2012 4010 935 1802 12039
leaf_count=3824 2658 2012 4010 935 1802 12039
internal_value=9.45891e-05 0.521774 -0.194426 0.753027 0.567772 -0.0850389
internal_weight=27280 7407 19873 5395 4460 15863
internal_count=27280 7407 19873 5395 4460 15863
is_linear=0
shrinkage=0.02


Tree=21
num_leaves=7
num_cat=0
split_feature=46 38 38 46 12 46
split_gain=6.64985e+06 2.55449e+06 2.28058e+06 2.09347e+06 1.20104e+06 1.15431e+06
threshold=21.029999732971195 254.50000000000003 324.50000000000006 31.764999389648441 1.9650000000000001 17.534999847412113
decision_type=2 2 2 2 2 2
left_child=2 3 5 4 -2 -1
right_child=1 -3 -4 -5 -6 -7
leaf_value=-0.25149702687835507 0.82630372559032728 -0.096672384535831921 -0.79259920948707807 1.5965768892352887 0.15719587673802665 0.076337595727804269
leaf_weight=10258 2658 2012 2229 935 1802 7386
leaf_count=10258 2658 2012 2229 935 1802 7386
internal_value=9.98496e-05 0.511373 -0.190541 0.738015 0.556439 -0.114279
internal_weight=27280 7407 19873 5395 4460 17644
internal_count=27280 7407 19873 5395 4460 17644
is_linear=0
shrinkage=0.02


Tree=22
num_leaves=7
num_cat=0
split_feature=46 38 38 46 12 46
split_gain=6.38722e+06 2.45365e+06 2.20336e+06 2.01115e+06 1.15356e+06 1.0492e+06
threshold=21.029999732971195 254.50000000000003 359.50000000000006 31.764999389648441 1.9650000000000001 17.534999847412113
decision_type=2 2 2 2 2 2
left_child=2 3 5 4 -2 -1
right_child=1 -3 -4 -5 -6 -7
leaf_value=-0.25394781748751644 0.80980868467734446 -0.094743731078157548 -0.90383062352472376 1.5648151823599288 0.15406065692229626 0.052721587082568702
leaf_weight=10596 2658 2012 1573 935 1802 7704
leaf_count=10596 2658 2012 1573 935 1802 7704
internal_value=0.000103408 0.501179 -0.186735 0.723303 0.545332 -0.124866
internal_weight=27280 7407 19873 5395 4460 18300
internal_count=27280 7407 19873 5395 4460 18300
is_linear=0
shrinkage=0.02


Tree=23
num_leaves=7
num_cat=0
split_feature=46 39 39 46 6 34
split_gain=6.13499e+06 2.14437e+06 1.84494e+06 1.44358e+06 1.25039e+06 1.22414e+06
threshold=21.029999732971195 0.024162961260732262 -0.096513920914515425 31.764999389648441 -0.0041461190374652004 0.0093479567864330915
decision_type=2 2 2 2 2 2
left_child=2 5 -1 -3 -4 -2
right_child=1 3 4 -5 -6 -7
leaf_value=-0.44994813285574686 -0.048400665018430919 0.61032828707042441 0.33641378581510273 1.5818438416807918 -0.14444913580468743 1.2790480380138822
leaf_weight=6804 2756 3611 2730 736 10339 304
leaf_count=6804 2756 3611 2730 736 10339 304
internal_value=0.000106212 0.491188 -0.183006 0.776446 -0.0439108 0.085348
internal_weight=27280 7407 19873 4347 13069 3060
internal_count=27280 7407 19873 4347 13069 3060
is_linear=0
shrinkage=0.02


Tree=24
num_leaves=7
num_cat=0
split_feature=46 38 38 46 6 22
split_gain=5.89289e+06 2.30884e+06 2.08794e+06 2.00762e+06 1.13733e+06 1.24066e+06
threshold=21.029999732971195 280.50000000000006 276.50000000000006 31.764999389648441 -0.0034137263972413008 0.0048891045197950837
decision_type=2 2 2 2 2 2
left_child=2 3 4 -2 -1 -6
right_child=1 -3 -4 -5 5 -7
leaf_value=0.22408718268630004 0.4978531557831728 -0.18895800979049973 -0.58678382502644699 1.4880420763287883 -0.22926630944412132 0.54240952709588441
leaf_weight=3824 4815 1607 4010 985 11143 896
leaf_count=3824 4815 1607 4010 985 11143 896
internal_value=0.000115686 0.48141 -0.179347 0.667151 -0.0761986 -0.171633
internal_weight=27280 7407 19873 5800 15863 12039
internal_count=27280 7407 19873 5800 15863 12039
is_linear=0
shrinkage=0.02


Tree=25
num_leaves=7
num_cat=0
split_feature=46 11 39 39 6 10
split_gain=5.65748e+06 2.30876e+06 2.09109e+06 1.62135e+06 1.26163e+06 1.21807e+06
threshold=21.029999732971195 1.1400000000000001 0.056355855470963404 -0.096513920914515425 -0.0032052764024372844 2.8750000000000004
decision_type=2 10 2 2 2 2
left_child=3 2 5 -1 -5 -2
right_child=1 -3 -4 4 -6 -7
leaf_value=-0.42603085937063029 1.1811356494788614 1.5018185567299449 0.64738091307542733 0.28789495140677906 -0.16167349043445672 -0.20941330652417775
leaf_weight=6911 275 769 3876 3337 9870 2514
leaf_count=6911 275 769 3876 3337 9870 2514
internal_value=-0.00372724 0.467549 0.34718 -0.177946 -0.0480155 -0.0704346
internal_weight=27552 7434 6665 20118 13207 2789
internal_count=27552 7434 6665 20118 13207 2789
is_linear=0
shrinkage=0.02


Tree=26
num_leaves=7
num_cat=0
split_feature=34 38 11 6 17 23
split_gain=4.8974e+06 2.38739e+06 2.30422e+06 2.08846e+06 897105 875479
threshold=0.0046659251280720187 321.50000000000006 1.1400000000000001 -0.0041461190374652004 -0.0038205687671102819 -0.00020049833091861672
decision_type=2 2 10 2 2 2
left_child=1 3 -2 5 -5 -1
right_child=2 -3 -4 4 -6 -7
leaf_value=0.028659925961640062 0.3174443245434897 -0.70259436776092421 1.4719761812471297 0.77309648008701592 -0.23156596802194598 0.59385468556909837
leaf_weight=2277 6544 2826 769 361 12665 2110
leaf_count=2277 6544 2826 769 361 12665 2110
internal_value=-0.00364245 -0.163931 0.439772 -0.0763338 -0.203437 0.300866
internal_weight=27552 20239 7313 17413 13026 4387
internal_count=27552 20239 7313 17413 13026 4387
is_linear=0
shrinkage=0.02


Tree=27
num_leaves=7
num_cat=0
split_feature=32 38 22 6 38 6
split_gain=4.783e+06 1.90997e+06 1.81142e+06 1.62608e+06 882228 856308
threshold=0.001912107795505702 360.50000000000006 0.0049473673611404754 -0.0034137263972413008 346.50000000000006 -0.0047967292385268636
decision_type=2 2 2 2 2 2
left_child=1 3 5 -1 -4 -2
right_child=2 -3 4 -5 -6 -7
leaf_value=0.20667295314652959 0.46898342317117442 -0.84498308563739655 0.89236965131717771 -0.23845808099085739 -0.5080573609731136 -0.01468233081088257
leaf_weight=4427 2475 1599 2628 12659 190 3574
leaf_count=4427 2475 1599 2628 12659 190 3574
internal_value=-0.00356144 -0.185084 0.37884 -0.123097 0.797215 0.183438
internal_weight=27552 18685 8867 17086 2818 6049
internal_count=27552 18685 8867 17086 2818 6049
is_linear=0
shrinkage=0.02


Tree=28
num_leaves=7
num_cat=0
split_feature=46 38 38 46 12 46
split_gain=5.16296e+06 2.2171e+06 1.85665e+06 1.78888e+06 1.03752e+06 954145
threshold=21.029999732971195 260.50000000000006 360.50000000000006 31.764999389648441 1.9650000000000001 17.534999847412113
decision_type=2 2 2 2 2 2
left_child=2 3 5 4 -2 -1
right_child=1 -3 -4 -5 -6 -7
leaf_value=-0.23479946247075809 0.73431185762998408 -0.1348809191134176 -0.82717447752295292 1.4307646567123049 0.11808437291917574 0.056237126867764768
leaf_weight=10826 2686 1937 1579 967 1844 7713
leaf_count=10826 2686 1937 1579 967 1844 7713
internal_value=-0.00349035 0.446718 -0.169921 0.651595 0.483875 -0.113734
internal_weight=27552 7434 20118 5497 4530 18539
internal_count=27552 7434 20118 5497 4530 18539
is_linear=0
shrinkage=0.02


Tree=29
num_leaves=7
num_cat=0
split_feature=46 38 38 46 11 10
split_gain=4.95906e+06 2.12972e+06 1.78339e+06 1.72521e+06 1.00347e+06 1.05711e+06
threshold=21.029999732971195 262.50000000000006 360.50000000000006 31.764999389648441 0.024999999999999915 3.1250000000000004
decision_type=2 2 2 2 10 2
left_child=2 3 -1 4 -2 -6
right_child=1 -3 -4 -5 5 -7
leaf_value=-0.11145983687627077 -0.23306906715286854 -0.14046264080602142 -0.810683207710584 1.3991353206920647 1.1325671728723421 0.39233532597579618
leaf_weight=18539 684 1896 1579 972 1063 2819
leaf_count=18539 684 1896 1579 972 1063 2819
internal_value=-0.00341639 0.437813 -0.166528 0.63574 0.471878 0.596228
internal_weight=27552 7434 20118 5538 4566 3882
internal_count=27552 7434 20118 5538 4566 3882
is_linear=0
shrinkage=0.02


Tree=30
num_leaves=7
num_cat=0
split_feature=46 39 39 46 46 10
split_gain=4.98066e+06 1.91289e+06 1.42371e+06 1.18721e+06 1.13869e+06 1.07314e+06
threshold=21.029999732971195 0.016110034627291502 -0.096513920914515425 17.534999847412113 31.764999389648441 4.5100000000000007
decision_type=2 2 2 2 2 2
left_child=2 5 -1 -4 -3 -2
right_child=1 4 3 -5 -6 -7
leaf_value=-0.39374728667389064 -0.032956573270564331 0.56793618018447178 -0.19032182843932194 0.1994985757893592 1.4225497671397107 1.5349904349542434
leaf_weight=6815 2847 3583 7960 5138 755 181
leaf_count=6815 2847 3583 7960 5138 755 181
internal_value=0.00495383 0.449113 -0.159416 -0.0373878 0.718142 0.0631441
internal_weight=27279 7366 19913 13098 4338 3028
internal_count=27279 7366 19913 13098 4338 3028
is_linear=0
shrinkage=0.02


Tree=31
num_leaves=7
num_cat=0
split_feature=46 39 39 11 46 11
split_gain=4.78421e+06 1.83712e+06 1.36737e+06 1.24203e+06 1.14024e+06 1.07469e+06
threshold=21.029999732971195 0.016110034627291502 -0.096513920914515425 0.024999999999999915 17.534999847412113 1.1600000000000001
decision_type=2 2 2 10 2 10
left_child=2 5 -1 -3 -4 -2
right_child=1 3 4 -5 -6 -7
leaf_value=-0.38587811441854997 -0.067694986610671998 -0.20454927552127303 -0.18651777765097194 0.82954252193693612 0.19551248294338272 1.1543339562675228
leaf_weight=6815 2711 527 7960 3811 5138 317
leaf_count=6815 2711 527 7960 3811 5138 317
internal_value=0.00486614 0.440178 -0.15623 0.703825 -0.03664 0.0619307
internal_weight=27279 7366 19913 4338 13098 3028
internal_count=27279 7366 19913 4338 13098 3028
is_linear=0
shrinkage=0.02


Tree=32
num_leaves=7
num_cat=0
split_feature=46 38 38 46 13 46
split_gain=4.59515e+06 1.923e+06 1.69092e+06 1.55864e+06 1.00809e+06 897154
threshold=21.029999732971195 278.50000000000006 359.50000000000006 31.764999389648441 -0.21999999999999983 17.534999847412113
decision_type=2 2 2 2 10 2
left_child=2 3 5 4 -2 -1
right_child=1 -3 -4 -5 -6 -7
leaf_value=-0.2171271797868401 1.1260376285759608 -0.17319769605108334 -0.77834615794707784 1.3263240248855919 0.32608221831355111 0.066598719461623712
leaf_weight=10680 745 1635 1587 985 4001 7646
leaf_count=10680 745 1635 1587 985 4001 7646
internal_value=0.00477371 0.431397 -0.153107 0.603883 0.452708 -0.0987648
internal_weight=27279 7366 19913 5731 4746 18326
internal_count=27279 7366 19913 5731 4746 18326
is_linear=0
shrinkage=0.02


Tree=33
num_leaves=7
num_cat=0
split_feature=34 11 38 45 38 22
split_gain=4.10048e+06 2.05721e+06 1.57017e+06 1.17779e+06 965539 917755
threshold=0.0038546011003737532 1.1400000000000001 366.50000000000006 0.063306388090070068 330.50000000000006 0.0035254990393402161
decision_type=2 10 2 2 2 2
left_child=2 4 3 -1 5 -2
right_child=1 -3 -4 -5 -6 -7
leaf_value=-0.21326059030414207 0.079753447181340559 1.3166887351788512 -0.79737166675640225 0.228078462039006 -0.59857410806713784 0.48087075758017461
leaf_weight=12335 4455 758 1532 3004 518 4677
leaf_count=12335 4455 758 1532 3004 518 4677
internal_value=0.00468438 0.316788 -0.187895 -0.126782 0.237606 0.285338
internal_weight=27279 10408 16871 15339 9650 9132
internal_count=27279 10408 16871 15339 9650 9132
is_linear=0
shrinkage=0.02


Tree=34
num_leaves=7
num_cat=0
split_feature=46 38 38 46 7 6
split_gain=4.28948e+06 1.812e+06 1.56517e+06 1.44869e+06 986904 888130
threshold=21.029999732971195 278.50000000000006 334.50000000000006 31.764999389648441 5847.5000000000009 -0.0032363176927213129
decision_type=2 2 2 2 2 2
left_child=2 3 5 4 -2 -1
right_child=1 -3 -4 -5 -6 -7
leaf_value=0.15714642587192459 0.25471325552537694 -0.17009939404938187 -0.67252201255815902 1.2807149743103998 0.89195040214164123 -0.16901265644226929
leaf_weight=4439 3383 1635 2037 985 1363 13437
leaf_count=4439 3383 1635 2037 985 1363 13437
internal_value=0.00459251 0.416782 -0.147947 0.584216 0.438467 -0.087999
internal_weight=27279 7366 19913 5731 4746 17876
internal_count=27279 7366 19913 5731 4746 17876
is_linear=0
shrinkage=0.02


Tree=35
num_leaves=7
num_cat=0
split_feature=46 38 38 46 6 11
split_gain=3.85838e+06 1.71895e+06 1.56582e+06 1.41665e+06 1.01214e+06 939296
threshold=21.029999732971195 291.50000000000006 274.50000000000006 31.764999389648441 -0.0032052764024372844 0.024999999999999915
decision_type=2 2 2 2 2 10
left_child=2 3 4 5 -1 -2
right_child=1 -3 -4 -5 -6 -7
leaf_value=0.21046390700600989 -0.26158558331982223 -0.23655897113860824 -0.49520669513020737 1.2099937190776369 -0.15156849284070334 0.51103902911756283
leaf_weight=4183 737 1419 4086 1031 11767 4200
leaf_count=4183 737 1419 4086 1031 11767 4200
internal_value=-0.00208604 0.388463 -0.146137 0.537147 -0.0565867 0.395553
internal_weight=27423 7387 20036 5968 15950 4937
internal_count=27423 7387 20036 5968 15950 4937
is_linear=0
shrinkage=0.02


Tree=36
num_leaves=7
num_cat=0
split_feature=46 22 38 6 38 15
split_gain=3.7197e+06 2.21164e+06 1.55029e+06 1.35575e+06 1.10408e+06 1.07597e+06
threshold=25.010000228881839 0.0044005254384065452 364.50000000000006 -0.0032052764024372844 246.50000000000003 -0.070000000000000021
decision_type=2 2 2 2 2 10
left_child=1 2 3 -1 -2 -3
right_child=4 5 -4 -5 -6 -7
leaf_value=0.15350939712803646 0.89352261233909847 1.1039959523731675 -0.76660311096087097 -0.2239396446594972 0.098192896901872814 0.20477122442824697
leaf_weight=5286 2171 637 1595 13568 1030 3136
leaf_count=5286 2171 637 1595 13568 1030 3136
internal_value=-0.00204145 -0.0867597 -0.168861 -0.118104 0.638158 0.357849
internal_weight=27423 24222 20449 18854 3201 3773
internal_count=27423 24222 20449 18854 3201 3773
is_linear=0
shrinkage=0.02


Tree=37
num_leaves=7
num_cat=0
split_feature=46 22 39 45 39 10
split_gain=3.57269e+06 2.12438e+06 1.22908e+06 1.17039e+06 943439 837761
threshold=25.010000228881839 0.0044005254384065452 -0.072432450066572743 0.13483811616427435 0.016110034627291502 3.0150000000000001
decision_type=2 2 2 2 2 2
left_child=1 2 -1 -4 -2 -3
right_child=4 5 3 -5 -6 -7
leaf_value=-0.37724343521799286 0.24256402636495164 0.80471081047372128 -0.10330692648143402 0.63197345352718648 0.93379413323206029 0.15498392587554383
leaf_weight=7133 1432 1132 12390 926 1769 2641
leaf_count=7133 1432 1132 12390 926 1769 2641
internal_value=-0.00199529 -0.0850226 -0.165488 -0.0519572 0.625426 0.350726
internal_weight=27423 24222 20449 13316 3201 3773
internal_count=27423 24222 20449 13316 3201 3773
is_linear=0
shrinkage=0.02


Tree=38
num_leaves=7
num_cat=0
split_feature=32 38 10 45 38 17
split_gain=3.43361e+06 1.6622e+06 1.16695e+06 1.11233e+06 920306 781882
threshold=0.002158294510503853 270.50000000000006 4.4350000000000014 0.063306388090070068 321.50000000000006 -0.0036274865380580951
decision_type=2 2 2 2 2 2
left_child=1 3 4 5 -2 -1
right_child=2 -3 -4 -5 -6 -7
leaf_value=0.65741863543331625 0.37954673746868883 -0.45479266985993233 1.2308462024078441 0.29646104643896753 -0.47822402493278404 -0.14992515378280108
leaf_weight=495 5719 4846 592 3274 544 11953
leaf_count=495 5719 4846 592 3274 544 11953
internal_value=-0.00194704 -0.131152 0.385539 -0.0312838 0.304719 -0.11757
internal_weight=27423 20568 6855 15722 6263 12448
internal_count=27423 20568 6855 15722 6263 12448
is_linear=0
shrinkage=0.02


Tree=39
num_leaves=7
num_cat=0
split_feature=46 38 38 46 7 6
split_gain=3.36548e+06 1.53919e+06 1.39997e+06 1.26775e+06 882386 845874
threshold=21.029999732971195 291.50000000000006 354.50000000000006 31.764999389648441 5847.5000000000009 -0.0032052764024372844
decision_type=2 2 2 2 2 2
left_child=2 3 5 4 -2 -1
right_child=1 -3 -4 -5 -6 -7
leaf_value=0.14385583949842062 0.2005045709057412 -0.22857915249956626 -0.67994193879031417 1.1400378779877107 0.79290476229848217 -0.16569913499243821
leaf_weight=4772 3533 1419 1727 1031 1404 13537
leaf_count=4772 3533 1419 1727 1031 1404 13537
internal_value=-0.0019027 0.362848 -0.136438 0.503544 0.369605 -0.0850005
internal_weight=27423 7387 20036 5968 4937 18309
internal_count=27423 7387 20036 5968 4937 18309
is_linear=0
shrinkage=0.02


Tree=40
num_leaves=7
num_cat=0
split_feature=46 38 38 46 12 11
split_gain=3.23934e+06 1.6514e+06 1.33752e+06 1.12098e+06 859228 961375
threshold=20.714999198913578 246.50000000000003 276.50000000000006 31.764999389648441 1.9650000000000001 -0.18500000000000003
decision_type=2 2 2 2 2 10
left_child=2 3 -1 4 5 -2
right_child=1 -3 -4 -5 -6 -7
leaf_value=-0.057700066427167553 -0.34082171756444601 -0.10252830308518912 -0.47066972377702454 1.171075058721456 0.063278648910125107 0.74812400858095995
leaf_weight=15589 368 2427 3923 889 1870 2574
leaf_count=15589 368 2427 3923 889 1870 2574
internal_value=-0.00108665 0.334259 -0.140829 0.520132 0.398782 0.611566
internal_weight=27640 8128 19512 5701 4812 2942
internal_count=27640 8128 19512 5701 4812 2942
is_linear=0
shrinkage=0.02


Tree=41
num_leaves=7
num_cat=0
split_feature=46 38 38 46 45 17
split_gain=3.11135e+06 1.59424e+06 1.28715e+06 1.26951e+06 1.01728e+06 860879
threshold=20.714999198913578 332.50000000000006 312.50000000000006 31.764999389648441 0.0039353603475310592 -0.00019567114017440978
decision_type=2 2 2 2 2 2
left_child=2 3 -1 4 -2 -6
right_child=1 -3 -4 -5 5 -7
leaf_value=-0.074855342386463686 0.039543593680586749 -0.50136725803359239 -0.55585495644533289 1.0412356022522584 0.31042026462254352 0.99158567223923488
leaf_weight=16955 2937 829 2557 1117 2094 1151
leaf_count=16955 2937 829 2557 1117 2094 1151
internal_value=-0.00106126 0.327592 -0.138015 0.422022 0.309388 0.553183
internal_weight=27640 8128 19512 7299 6182 3245
internal_count=27640 8128 19512 7299 6182 3245
is_linear=0
shrinkage=0.02


Tree=42
num_leaves=7
num_cat=0
split_feature=32 38 6 38 7 17
split_gain=3.03752e+06 1.44633e+06 1.52861e+06 1.00207e+06 872564 835007
threshold=0.0021294455977920903 272.50000000000006 -0.0034137263972413008 332.50000000000006 5309.2500000000009 -0.003387689828317737
decision_type=2 2 2 2 2 2
left_child=1 2 -1 4 -2 -4
right_child=3 -3 5 -5 -6 -7
leaf_value=0.29380274125645939 1.0095360020782218 -0.42883062948423722 0.65289766548495554 -0.4889673985362053 0.33002103127050481 -0.18779687638794429
leaf_weight=4207 867 4796 489 520 5781 10980
leaf_count=4207 867 4796 489 520 5781 10980
internal_value=-0.00103551 -0.125103 -0.0320719 0.353145 0.419332 -0.151684
internal_weight=27640 20472 15676 7168 6648 11469
internal_count=27640 20472 15676 7168 6648 11469
is_linear=0
shrinkage=0.02


Tree=43
num_leaves=7
num_cat=0
split_feature=34 11 46 38 13 38
split_gain=2.9387e+06 1.71271e+06 1.03771e+06 1.00713e+06 1.08329e+06 921340
threshold=0.0030223775671902602 1.1400000000000001 16.85000038146973 322.50000000000006 -0.21000000000000005 364.50000000000006
decision_type=2 10 2 2 10 2
left_child=5 2 -2 4 -4 -1
right_child=1 -3 3 -5 -6 -7
leaf_value=-0.16249461182042585 -0.15887379300652243 1.1362727559171104 0.808306150222458 -0.46567455886182496 0.20690653403008794 -0.68980467683888746
leaf_weight=11166 3496 721 1388 753 8616 1500
leaf_count=11166 3496 721 1388 753 8616 1500
internal_value=-0.00101053 0.188627 0.140308 0.23757 0.29071 -0.22519
internal_weight=27640 14974 14253 10757 10004 12666
internal_count=27640 14974 14253 10757 10004 12666
is_linear=0
shrinkage=0.02


Tree=44
num_leaves=7
num_cat=0
split_feature=34 38 6 11 17 17
split_gain=2.83403e+06 1.46963e+06 1.46863e+06 1.22159e+06 776106 625901
threshold=0.0046659251280720187 322.50000000000006 -0.0041461190374652004 1.1400000000000001 -0.0038205687671102819 -0.00038569460078145135
decision_type=2 2 2 10 2 2
left_child=1 2 5 -2 -4 -1
right_child=3 -3 4 -5 -6 -7
leaf_value=0.060997346227254223 0.24927908902006818 -0.54640457227257766 0.75751504383939605 1.1137038021438215 -0.1869265672356869 0.5457612190221266
leaf_weight=2577 6659 2820 353 721 12697 1813
leaf_count=2577 6659 2820 353 721 12697 1813
internal_value=-0.00098788 -0.12322 -0.0546553 0.334427 -0.161099 0.26159
internal_weight=27640 20260 17440 7380 13050 4390
internal_count=27640 20260 17440 7380 13050 4390
is_linear=0
shrinkage=0.02


Tree=45
num_leaves=7
num_cat=0
split_feature=46 38 38 46 13 46
split_gain=2.81048e+06 1.54834e+06 1.12587e+06 976388 841552 756807
threshold=20.714999198913578 262.50000000000006 246.50000000000003 31.764999389648441 -0.21999999999999983 17.534999847412113
decision_type=2 2 2 2 10 2
left_child=2 3 5 4 -2 -1
right_child=1 -3 -4 -5 -6 -7
leaf_value=-0.15721584244157183 1.0118402439827541 -0.15127363511916589 -0.3935412258790465 1.062657896579861 0.26105737416924507 0.13920683289458249
leaf_weight=8879 690 2112 4873 957 4299 5623
leaf_count=8879 690 2112 4873 957 4299 5623
internal_value=-0.000149175 0.313636 -0.130699 0.478759 0.365803 -0.0422727
internal_weight=27433 8058 19375 5946 4989 14502
internal_count=27433 8058 19375 5946 4989 14502
is_linear=0
shrinkage=0.02


Tree=46
num_leaves=7
num_cat=0
split_feature=34 46 13 38 46 45
split_gain=2.72974e+06 1.49255e+06 921474 821103 803185 643710
threshold=0.0030223775671902602 31.764999389648441 -0.21000000000000005 366.50000000000006 17.655000686645511 0.29251442523831755
decision_type=2 2 8 2 2 2
left_child=3 2 4 5 -2 -1
right_child=1 -3 -4 -5 -6 -7
leaf_value=-0.1786000634065566 -0.1796358712365875 0.83619054300780404 0.057335715764614166 -0.66239923158487501 0.78914574918483271 0.98099419112083242
leaf_weight=10917 457 1275 11795 1459 1340 190
leaf_count=10917 457 1275 11795 1459 1340 190
internal_value=-0.00013973 0.18325 0.121716 -0.217097 0.542957 -0.158331
internal_weight=27433 14867 13592 12566 1797 11107
internal_count=27433 14867 13592 12566 1797 11107
is_linear=0
shrinkage=0.02


Tree=47
num_leaves=7
num_cat=0
split_feature=32 38 6 11 38 22
split_gain=2.72376e+06 1.30513e+06 1.35626e+06 1.05408e+06 812347 763859
threshold=0.0022214347621441915 270.50000000000006 -0.0046338701067827883 1.1400000000000001 324.50000000000006 0.0048891045197950837
decision_type=2 2 2 10 2 2
left_child=1 2 -1 4 -2 -4
right_child=3 -3 5 -5 -6 -7
leaf_value=0.302854398382639 0.33783990499680677 -0.39351952511046406 -0.17831745805228566 1.0683995148577805 -0.53398429603152009 0.35888631702365781
leaf_weight=3876 5240 4969 10982 738 461 1167
leaf_count=3876 5240 4969 10982 738 461 1167
internal_value=-0.000130946 -0.110508 -0.0226563 0.359552 0.266935 -0.126589
internal_weight=27433 20994 16025 6439 5701 12149
internal_count=27433 20994 16025 6439 5701 12149
is_linear=0
shrinkage=0.02


Tree=48
num_leaves=7
num_cat=0
split_feature=32 38 45 46 38 17
split_gain=2.61605e+06 1.26084e+06 905043 845474 887653 730920
threshold=0.0022214347621441915 366.50000000000006 0.063306388090070068 17.615000724792484 344.50000000000006 -4.477949702577738e-05
decision_type=2 2 2 2 2 2
left_child=1 2 -1 -2 -5 -4
right_child=3 -3 5 4 -6 -7
leaf_value=-0.13289150150325843 -0.12146862865888265 -0.64521047388824515 0.022466730894374454 0.5310794986396512 -0.53172637325321892 0.60741792872751743
leaf_weight=15415 1219 1610 2730 4888 332 1239
leaf_count=15415 1219 1610 2730 4888 332 1239
internal_value=-0.000124822 -0.108297 -0.063547 0.352375 0.463039 0.205605
internal_weight=27433 20994 19384 6439 5220 3969
internal_count=27433 20994 19384 6439 5220 3969
is_linear=0
shrinkage=0.02


Tree=49
num_leaves=7
num_cat=0
split_feature=32 38 6 11 38 22
split_gain=2.51244e+06 1.22634e+06 1.27679e+06 1.00614e+06 756582 733683
threshold=0.0022214347621441915 270.50000000000006 -0.0046338701067827883 1.1400000000000001 324.50000000000006 0.0048891045197950837
decision_type=2 2 2 10 2 2
left_child=1 2 -1 4 -2 -4
right_child=3 -3 5 -5 -6 -7
leaf_value=0.29485548532010947 0.32327489703905021 -0.38046840892942896 -0.17251273694070965 1.0378553755318654 -0.51808377881610346 0.35397053465126371
leaf_weight=3876 5240 4969 10982 738 461 1167
leaf_count=3876 5240 4969 10982 738 461 1167
internal_value=-0.000123309 -0.106132 -0.0209738 0.345325 0.254846 -0.121815
internal_weight=27433 20994 16025 6439 5701 12149
internal_count=27433 20994 16025 6439 5701 12149
is_linear=0
shrinkage=0.02


end of trees

feature_importances:
Column_38=73
Column_46=73
Column_6=30
Column_11=24
Column_39=19
Column_22=15
Column_34=13
Column_12=10
Column_10=9
Column_32=8
Column_45=8
Column_17=7
Column_13=5
Column_7=4
Column_15=1
Column_23=1

parameters:
[boosting: gbdt]
[objective: regression]
[metric: rmse]
[tree_learner: serial]
[device_type: cpu]
[data_sample_strategy: bagging]
[data: ]
[valid: ]
[num_iterations: 400]
[learning_rate: 0.02]
[num_leaves: 7]
[num_threads: 0]
[seed: 0]
[deterministic: 0]
[force_col_wise: 0]
[force_row_wise: 0]
[histogram_pool_size: -1]
[max_depth: -1]
[min_data_in_leaf: 100]
[min_sum_hessian_in_leaf: 0.001]
[bagging_fraction: 0.7]
[pos_bagging_fraction: 1]
[neg_bagging_fraction: 1]
[bagging_freq: 5]
[bagging_seed: 3]
[bagging_by_query: 0]
[feature_fraction: 0.7]
[feature_fraction_bynode: 1]
[feature_fraction_seed: 2]
[extra_trees: 0]
[extra_seed: 6]
[early_stopping_round: 0]
[early_stopping_min_delta: 0]
[first_metric_only: 0]
[max_delta_step: 0]
[lambda_l1: 0]
[lambda_l2: 5]
[linear_lambda: 0]
[min_gain_to_split: 0]
[drop_rate: 0.1]
[max_drop: 50]
[skip_drop: 0.5]
[xgboost_dart_mode: 0]
[uniform_drop: 0]
[drop_seed: 4]
[top_rate: 0.2]
[other_rate: 0.1]
[min_data_per_group: 100]
[max_cat_threshold: 32]
[cat_l2: 10]
[cat_smooth: 10]
[max_cat_to_onehot: 4]
[top_k: 20]
[monotone_constraints: ]
[monotone_constraints_method: basic]
[monotone_penalty: 0]
[feature_contri: ]
[forcedsplits_filename: ]
[refit_decay_rate: 0.9]
[cegb_tradeoff: 1]
[cegb_penalty_split: 0]
[cegb_penalty_feature_lazy: ]
[cegb_penalty_feature_coupled: ]
[path_smooth: 0]
[interaction_constraints: ]
[verbosity: -1]
[saved_feature_importance_type: 0]
[use_quantized_grad: 0]
[num_grad_quant_bins: 4]
[quant_train_renew_leaf: 0]
[stochastic_rounding: 1]
[linear_tree: 0]
[max_bin: 255]
[max_bin_by_feature: ]
[min_data_in_bin: 3]
[bin_construct_sample_cnt: 200000]
[data_random_seed: 1]
[is_enable_sparse: 1]
[enable_bundle: 1]
[use_missing: 1]
[zero_as_missing: 0]
[feature_pre_filter: 1]
[pre_partition: 0]
[two_round: 0]
[header: 0]
[label_column: ]
[weight_column: ]
[group_column: ]
[ignore_column: ]
[categorical_feature: ]
[forcedbins_filename: ]
[precise_float_parser: 0]
[parser_config_file: ]
[objective_seed: 5]
[num_class: 1]
[is_unbalance: 0]
[scale_pos_weight: 1]
[sigmoid: 1]
[boost_from_average: 1]
[reg_sqrt: 0]
[alpha: 0.9]
[fair_c: 1]
[poisson_max_delta_step: 0.7]
[tweedie_variance_power: 1.5]
[lambdarank_truncation_level: 30]
[lambdarank_norm: 1]
[label_gain: ]
[lambdarank_position_bias_regularization: 0]
[eval_at: ]
[multi_error_top_k: 1]
[auc_mu_weights: ]
[num_machines: 1]
[local_listen_port: 12400]
[time_out: 120]
[machine_list_filename: ]
[machines: ]
[gpu_platform_id: -1]
[gpu_device_id: -1]
[gpu_use_dp: 0]
[num_gpu: 1]

end of parameters

pandas_categorical:null
