tree
version=v4
num_class=3
num_tree_per_iteration=3
label_index=0
max_feature_idx=65
objective=multiclass num_class:3
feature_names=bb_pctb_20 dow_0 dow_1 dow_2 dow_3 dow_4 es_chg_1d es_level evt_fomc_day evt_zero_dte fred_BAMLH0A0HYM2 fred_BAMLH0A0HYM2_chg20d fred_DFII10 fred_DFII10_chg20d fred_T10Y2Y fred_T10Y2Y_chg20d lunch_lull ma_diff_60_240 macd macd_hist macd_sig or_pos or_width_pct overnight_gap ret_1 ret_10 ret_2 ret_3 ret_30 ret_5 ret_ac_60 rsi_14 rvol_15 rvol_5 rvol_60 rvol_60_pct20d sector_breadth_5 session_cos session_min session_sin signed_vol_proxy signed_vol_proxy_z tlt_ret_5 trend_strength_30 uup_ret_5 vix_chg_1d vix_level vol_z_mod vwap_dev vwap_dev_roll_30 xlb_ret_5 xlc_ret_5 xle_ret_5 xlf_ret_5 xli_ret_5 xlk_ret_5 xlp_ret_5 xlre_ret_5 xlu_ret_5 xlv_ret_5 xly_ret_5 mtf_ret_60min mtf_ret_4h mtf_intraday_pct mtf_overnight_change mtf_5d_return
feature_infos=[-0.55906035699425494:1.5593088997923317] [0:1] [0:1] [0:1] [0:1] [0:1] [-0.059362201463347253:0.093770230566206925] [4075.75:7016.5] [0:1] none [2.5899999999999999:4.9500000000000002] [-1.27:1.6200000000000001] [1.1399999999999999:2.52] [-0.54000000000000026:0.54000000000000026] [-1.0800000000000001:0.72999999999999998] [-0.43000000000000005:0.60999999999999999] [0:1] [-0.029317431037259895:0.048358818780184547] [-6.5683078083908981:7.1258668506545746] [-2.271217023548612:2.5010613264434207] [-6.0376139908259283:6.3744936081856958] [-29.28070175438933:11.547169811320119] [1.8716077110220673e-05:0.016775701892906229] [-0.040524228315226722:0.03462934370676353] [-0.041268371586920462:0.027115928615887738] [-0.043613613467594278:0.0566648023021986] [-0.040827585447298642:0.03925184931170457] [-0.041076749312160939:0.032213330403398327] [-0.059571514961795483:0.069841838627982628] [-0.041000090119727994:0.044647092084424439] [-0.61289266531824249:0.63562731463505462] [4.1327125228718273:95.938362189674976] [0.00011317982976751118:0.041923689010449905] [1.5582270493405602e-05:0.041398120679718459] [0.00041779199618871131:0.050757890727628381] [0.050000000000000003:1] [0:11] [-1:1] [1:390] [-0.99996755571652796:0.99996755571652796] [-225645:408931] [-7.4583051266427516:7.5459435276723674] [-0.032896935896243956:0.026246919961870091] [0:3.525961287019133] [-0.020929715710136815:0.0069832686021884405] [-0.35753873962348437:1.0747713490177104] [11.859999656677246:52.330001831054688] [-3.965112933945099:128.50201027105598] [-0.037302093557938655:0.055585238348224653] [-0.031014283356675054:0.040814921187596574] [-0.034895004003945324:0.049716277364908926] [-0.054327287412887039:0.043915102271581546] [-0.046645226929115158:0.052376383903146098] [-0.039778557141213644:0.053582339191021865] [-0.032941971929408377:0.045699470399694395] [-0.066041032194819729:0.051287812517465572] [-0.025834383702630446:0.03071891401778748] [-0.034038942621834031:0.045506265764619344] [-0.029961641991271659:0.034129186550326832] [-0.032015570069729916:0.035849951959162581] [-0.049637225141593133:0.049661095932077848] [-0.053958082917461958:0.066892808198820042] [-0.067381632433989758:0.095120736969991349] [0:1] [-0.06464130579698929:0.094411702986179721] [-0.14033092725323559:0.11355623907504775]
tree_sizes=6985 6821 6972 7126 7016 7134 7140 7022 7114 7136 7082 7141 7122 7062 7119 7151 7055 7111 7144 7035 7078 7126 7061 7128 7101 7051 7118 7129 7069 7110 7116 7098 7117 7115 7083 7151 7079 7087 7127 7100 7096 7089 7136 7089 7072 7071 7041 7104 7130 7120 7113 7129 7112 7093 7118 7053 7135 7139 7053 7120 7100 7079 7128 7143 7145 7144 7118 7103 7145 7124 7105 7136 7100 7091 7103 7140 7099 7114 7152 7096 7100 7140 7108 7069 7150 7092 7172 7066 7065 7132 7067 7086 7089 7135 7111 7136 7129 7099 7115 7107 7072 7111 7132 7132 7108 7127 7106 7144 7120 7105 7078 7161 7082 7115 7142 7131 7117 7116 7107 7140 7107 7132 7036 7104 7129 7142 7116 7104 7135 7048 7118 7141 7098 7113 7096 7114 7117 7099 7120 7088 7105 7142 7134 7080 7146 7090 7099 7093 7117 7111 7130 7116 7108 7111 7104 7109 7081 7128 7072 7118 7135 7032 7134 7126 7095 7086 7125 7109 7130 7107 7108 7107 7151 7097 7107 7139 7101 7100 7133 7039 7111 7127 7076 7125 7086 7100 7064 7152 7068 7090 7133 7112 7072 7135 7124 7121 7127 7071 7110 7079 7112 7104 7128 7097 7106 7068 7088 7057 7134 7107 7036 7138 7122 7128 7151 7081 7084 7164 7136 7121 7148 7059 7056 7096 7054 7078 7107 7076 7081 7103 7043 7079 7150 7065 7092 7135 7061 7105 7140 7044 7083 7120 7064 7096 7122 7075 7064 7132 7079 7156 7155 7138 7113 7107 7070 7083 7087 7086 7130 7131 7056 7024 7146 7133 7023 7108 7088 7084 7148 7106 7075 7122 7056 7070 7131 7085 7075 7126 7058 7062 7137 7081 7041 7115 7043 7040 7133 7097 7150 7092 7046 7126 7099 7063 7112 7112 7089 7096 7128 7073 7105 7099 7067

Tree=0
num_leaves=63
num_cat=0
split_feature=6 64 6 6 64 6 64 6 64 64 6 17 34 64 6 64 39 23 64 18 6 14 7 64 6 13 38 64 6 15 64 64 46 38 6 11 22 64 18 62 45 45 38 34 21 64 6 61 17 5 11 63 38 6 17 64 39 14 38 13 30 2
split_gain=2303.08 378.984 471.765 369.664 853.109 257.878 232.323 230.601 207.92 182.514 174.966 144.461 137.429 132.727 95.8551 94.3639 87.5334 117.193 82.6398 81.1564 77.7853 76.9993 71.072 71.028 94.9209 78.2771 67.804 67.6508 116.759 67.0769 66.8769 66.0196 65.502 78.8701 66.6788 65.4276 66.4281 63.6679 62.6613 62.2363 61.8258 60.2383 66.1838 59.7525 55.587 54.6468 54.1732 69.5052 53.4612 52.9096 52.1002 51.6172 50.2783 67.9589 72.4081 50.0838 49.5525 48.9425 48.9267 48.7627 46.2186 46.1615
threshold=-0.0019624485358703532 -0.0021240537144026784 -0.0091476479344336208 0.0032929241671172398 0.00013540568551398272 0.0013420558641425997 0.0048232109914520148 0.0057977516052019071 0.0020773564223860812 -0.0078652934113857334 -0.0048522189846363353 0.0044081015091351613 0.0023149451477492444 -0.0090500430849359322 -0.015609045031882372 0.0033099602729552168 0.088490244815620581 0.003285380845165158 -0.0032857884845001865 -0.059475825824250698 0.01180743455929001 0.64500000000000013 5928.0000000000009 -0.0011259987959811137 -0.00087679602828794046 0.029999999999999919 176.50000000000003 0.0023709683077037034 0.0041691177462026561 0.090000000000000011 0.017519869023025741 -0.011795871914542002 18.065000534057621 344.50000000000006 0.010859205155130615 -0.20499999999999982 0.0040969072664128895 0.011165121663497264 -0.045526262726127691 0.0046844663508971438 0.047312370481515272 0.047312370481515272 365.50000000000006 0.00098476102083742381 0.36482236953933406 0.011435059916600987 -0.012907366220776538 -0.0066180102966826295 0.0018447241598704243 1.0000000180025095e-35 -0.63500000000000012 0.789184146833391 338.50000000000006 0.0044441456975490299 0.0013376032979745243 -0.015482713180281655 -0.39935162646793765 -0.34499999999999992 323.50000000000006 -0.044999999999999922 0.059589985396695341 1.0000000180025095e-35
decision_type=2 2 2 2 2 2 2 2 2 2 2 2 2 2 2 2 2 2 2 2 2 2 2 2 2 10 2 2 2 8 2 2 2 2 2 10 10 2 2 2 2 2 2 2 10 2 2 2 2 2 10 2 2 2 2 2 2 2 2 10 2 2
left_child=1 2 13 4 23 15 12 44 26 -4 38 32 35 14 60 29 17 48 -12 -18 45 -10 -20 25 41 -2 -7 -14 -29 50 61 46 33 34 37 36 -5 -9 -11 -21 57 42 43 -25 -8 -13 55 -48 58 -35 -6 -51 -46 -54 -55 -16 -57 -40 -3 -19 -1 -22
right_child=3 16 9 6 5 8 7 11 21 10 18 20 27 -15 31 -17 19 59 22 39 30 -23 -24 24 -26 -27 -28 28 -30 -31 -32 -33 -34 49 -36 -37 -38 -39 40 -41 -42 -43 -44 -45 52 -47 47 -49 -50 51 -52 -53 53 54 -56 56 -58 -59 -60 -61 -62 -63
leaf_value=-0.93139774701626932 -0.97201193996677937 -0.93160675362037226 -0.9624943553510692 -0.97582914249891717 -0.92308837241064656 -0.94970500907493427 -0.91707213984309033 -0.96221054430090736 -0.93851431030434851 -0.93083716112093928 -0.9570727871492114 -0.94400063318874727 -0.96278166594579739 -0.92048849481056316 -0.96022951973290704 -0.92274266346243805 -0.92176943035918124 -0.9144186154690197 -0.95093258716968065 -0.93910868557765759 -0.95643700878798543 -0.97024268019409543 -0.92990625570548724 -0.98123749406132255 -0.96112670107691511 -0.95905304370268474 -0.96513867319947144 -0.92524866869791322 -0.95618425898894621 -0.9277500626547196 -0.93644998510567112 -0.93280088962810648 -0.9526275581778475 -0.95700468061009869 -0.97128358528089087 -0.9644650402266215 -0.92846067474228899 -0.93634735783755862 -0.96369520875090453 -0.92052583767244978 -0.93449489965562926 -0.90512232967811901 -0.90996066569510381 -0.94697290199369089 -0.94672654473191364 -0.92024466062328647 -0.91903665367253273 -0.97027180345561892 -0.90247061544907503 -0.9622119356771055 -0.94233567722705058 -0.92209414301624137 -0.8917611923732206 -0.95458936287951812 -0.90745821945317118 -0.92017254756466382 -0.94788457878036581 -0.9420078165009188 -0.91448151035263503 -0.88506801790695144 -0.91390738224530321 -0.98494816287970299
leaf_weight=1749.4117723405361 2428.5323545634747 1741.9371747374535 1642.9877398014069 2646.0075514912605 382.27227741479874 1195.5796832740307 232.7803253531456 3972.5706594288349 3015.110299795866 2072.243202149868 2563.4310446381569 922.5789041519165 3110.5004025399685 2286.5150001049042 260.54311645030975 1226.5458733439445 1502.7500514388084 296.8483048081398 1045.3758647739887 2610.0582963526249 995.1892808675766 203.23786816000938 651.7137243449688 148.06821918487549 3731.6038700342178 2244.8708134591579 1757.5982363820076 356.28915241360664 2083.9889983832836 1260.3595291674137 383.34007707238197 1125.4608390927315 2420.7018237411976 1106.2404452562332 2276.904803186655 4032.3674402534962 75.457842469215393 252.35665240883827 467.69625002145767 544.2218921482563 1045.3758647739887 86.847705483436584 102.15283390879631 868.12112161517143 1694.953989803791 327.45856165885925 77.593441784381866 421.42493152618408 235.6277911067009 117.81389555335045 4277.6054282784462 246.66172090172768 99.661301374435425 235.27185788750648 123.50882706046104 315.71276542544365 328.8822945356369 583.73047947883606 549.9168236553669 278.69571062922478 483.0013784468174 164.79708048701286
leaf_count=4915 6823 4894 4616 7434 1074 3359 654 11161 8471 5822 7202 2592 8739 6424 732 3446 4222 834 2937 7333 2796 571 1831 416 10484 6307 4938 1001 5855 3541 1077 3162 6801 3108 6397 11329 212 709 1314 1529 2937 244 287 2439 4762 920 218 1184 662 331 12018 693 280 661 347 887 924 1640 1545 783 1357 463
internal_value=-0.948619 -0.936156 -0.940311 -0.954722 -0.950019 -0.941827 -0.95859 -0.954532 -0.949314 -0.947254 -0.944283 -0.95712 -0.963725 -0.93039 -0.935149 -0.935362 -0.92699 -0.920481 -0.951408 -0.931332 -0.947026 -0.940524 -0.942852 -0.961372 -0.957187 -0.965791 -0.958893 -0.957894 -0.95166 -0.937981 -0.954534 -0.941817 -0.959833 -0.96202 -0.964385 -0.968515 -0.974509 -0.960663 -0.937002 -0.935895 -0.9431 -0.94499 -0.948122 -0.951993 -0.940232 -0.93776 -0.949051 -0.962262 -0.925135 -0.951562 -0.940752 -0.935063 -0.942749 -0.928077 -0.938295 -0.94176 -0.934289 -0.95166 -0.927485 -0.900121 -0.9276 -0.960515
internal_weight=75687.1 24881.2 17121.1 50805.9 22928.5 13318.3 27877.4 15572.8 6171.53 10072.6 8429.57 13186.6 12304.6 7048.55 4762.03 7146.78 7760.06 3103.03 4260.52 4657.03 2793.36 3218.35 1697.09 9610.2 4936.79 4673.4 2953.18 5550.78 2440.28 5920.24 1543.33 2529.62 10393.3 7972.55 6501.83 6753.83 2721.47 4224.93 4169.05 3154.28 2096.8 1205.19 1118.34 1016.19 2386.18 1250.04 1404.16 499.018 2527.48 1470.72 4659.88 364.476 2153.4 458.442 358.781 905.138 644.595 1051.43 2291.85 575.544 2232.41 1159.99
internal_count=212644 69904 48102 142740 64418 37418 78322 43752 17339 28299 23683 37048 34570 19803 13379 20079 21802 8718 11970 13084 7848 9042 4768 27000 13870 13130 8297 15595 6856 16633 4336 7107 29200 22399 18267 18975 7646 11870 11713 8862 5891 3386 3142 2855 6704 3512 3945 1402 7101 4132 13092 1024 6050 1288 1008 2543 1811 2954 6439 1617 6272 3259
is_linear=0
shrinkage=1


Tree=1
num_leaves=63
num_cat=0
split_feature=34 38 34 32 38 34 32 32 34 34 7 64 38 7 64 37 46 18 7 45 25 28 22 21 21 61 65 31 46 30 7 39 11 14 7 37 65 35 6 63 65 21 7 30 65 46 37 52 19 46 14 65 65 34 14 39 37 65 1 23 63 32
split_gain=3243.9 840.628 654.124 603.779 169.848 136.101 124.946 110.647 104.408 85.3249 83.7205 67.0827 55.4155 53.0832 44.1481 39.3373 39.1049 38.5894 64.2229 36.5295 34.7252 34.4043 34.1005 30.4749 51.2938 31.8903 30.1871 29.9385 29.7002 32.3148 29.6423 29.561 28.7721 28.634 32.0423 28.0341 27.5839 26.7525 26.4946 32.1719 28.0414 27.6904 26.0818 32.0684 26.057 24.4045 24.7694 23.787 23.1929 22.9072 22.81 21.9376 21.7106 21.3765 21.0088 20.8805 20.3402 19.9847 28.3526 19.902 33.0155 33.5917
threshold=0.0017787898047518646 369.50000000000006 0.0010574554251540635 0.0014107148994039927 367.50000000000006 0.0012884229168502908 0.00087315280193338155 0.00036860160614488361 0.0036901465392396499 0.0025114457219924126 6907.7500000000009 -0.0012471119641768184 374.50000000000006 6023.7500000000009 -0.0010157708963690138 0.96895112360571434 16.164999961853031 0.04034061149693003 6268.2500000000009 -0.0030937629606352375 -0.00011991414168730362 0.0002443439108744522 0.003323462898928257 0.24828759089843477 2.1843183779120205 0.00084020598945366853 0.015008816839798824 56.21015474277214 16.644999504089359 -0.050003236665469013 6944.0000000000009 -0.56804631627748214 -0.34000000000000002 -1.0099999999999998 4993.8750000000009 0.76429092286994893 -0.0026484533108406256 0.19375000000000003 0.00021330644489592213 0.95268478002781565 0.0094081772965046735 2.2415918859814492 5430.5000000000009 -0.2871377452845012 0.0061884965781637833 16.285000801086429 -0.72117904844717207 0.00070356476665116828 -0.016767870705849428 12.494999885559084 0.17500000000000002 0.021927573565546869 -0.0075394078690043101 0.0025267349973956076 0.56500000000000006 0.54123916674123573 0.8136991196570672 -0.0041877828800971342 1.0000000180025095e-35 0.0011057859053559599 0.61309828434956593 0.00039016970050842779
decision_type=2 2 2 2 2 2 2 2 2 2 2 2 2 2 2 2 2 2 2 2 2 2 8 10 10 2 2 2 2 2 2 2 10 2 2 2 2 2 2 2 2 10 2 2 2 2 2 10 2 2 2 2 2 2 2 2 2 2 2 2 2 2
left_child=1 2 7 4 6 21 14 10 12 28 17 52 53 16 -2 -3 33 32 19 -19 -12 30 -10 48 25 51 -20 -16 29 -8 36 -22 -1 -13 49 38 -4 -27 47 -40 -41 -42 43 -36 -45 46 -39 -15 -9 -35 -44 -25 -7 -5 -34 56 -26 -29 -59 60 -23 -62
right_child=3 15 5 8 -6 11 9 23 22 -11 20 13 -14 35 27 -17 -18 18 26 -21 31 59 -24 24 55 37 -28 57 -30 -31 -32 -33 54 34 42 -37 -38 45 39 40 41 -43 50 44 -46 -47 -48 -49 -50 -51 -52 -53 -54 -55 -56 -57 -58 58 -60 -61 61 -63
leaf_value=-1.6488122272176071 -1.723696873446084 -1.7280842347625676 -1.6768664311702162 -1.7260255128185809 -1.7477406866681726 -1.7281379371052712 -1.7145811969572446 -1.7196183596385779 -1.739567244020495 -1.73040897765338 -1.6758875037616747 -1.6739663225977639 -1.7537196231944263 -1.6833726769258439 -1.717807116929406 -1.7486138536287907 -1.7156902858280276 -1.7223875570006644 -1.6580311223930932 -1.6643168520774694 -1.6122367093710257 -1.7166343163241082 -1.7468496336919004 -1.6775460374842717 -1.68689273237943 -1.6813258470371795 -1.6105267005952875 -1.7214510847670288 -1.7260585768349272 -1.7237765431738274 -1.7284677754776565 -1.6556644802078533 -1.6841720825756774 -1.6926842366276784 -1.6570410772563959 -1.7152194358781359 -1.7008682912856459 -1.6364287533347788 -1.7045762411445515 -1.7021036743465019 -1.6952174809224954 -1.6541538508229729 -1.7125581718233944 -1.7124271174429357 -1.6940132518396556 -1.6157066329201242 -1.6865242195468442 -1.7108467624067634 -1.6902815771182063 -1.7123934304306787 -1.6893019868588766 -1.7087099445840541 -1.7136137274414749 -1.7341178134675694 -1.7209561433552367 -1.7241080876132067 -1.7134821387223005 -1.709163544171882 -1.6899503002796821 -1.6841240517077476 -1.6563468077740482 -1.6946568202508903
leaf_weight=50.707691311836243 1408.3510091304779 318.13564592599869 128.75344228744507 1003.7918197512627 737.24573802947998 301.82099741697311 1911.4594942331314 95.903677046298981 3335.4637472033501 5643.5455747842789 50.707691311836243 68.565617382526398 329.59999352693558 462.54233205318451 1666.5192983746529 884.51851105690002 1344.4152244329453 44.314112842082977 81.132306098937988 68.345149159431458 117.06862646341324 153.88681972026825 3138.1446875333786 727.98607265949249 552.27289885282516 88.848693907260895 64.817657589912415 242.73551362752914 2655.5397471785545 1908.3729391098022 89.951035022735596 68.345149159431458 272.27825552225113 159.61899352073669 48.06207263469696 247.80628275871277 1683.2748833298683 51.589564204216003 1218.9688054919243 159.83946174383163 77.384346306324005 91.273844361305237 642.4444020986557 256.1840752363205 780.45750975608826 47.1801997423172 50.707691311836243 95.903677046298981 225.75946044921875 1828.122505903244 125.44641894102097 62.172038912773132 1714.3609027862549 4411.7896123528481 45.195985734462738 49.164413750171661 83.33698832988739 1130.7815162539482 231.05069780349731 692.71115696430206 63.053911805152893 591.51624256372452
leaf_count=230 6388 1443 584 4553 3344 1369 8670 435 15129 25598 230 311 1495 2098 7559 4012 6098 201 368 310 531 698 14234 3302 2505 403 294 1101 12045 8656 408 310 1235 724 218 1124 7635 234 5529 725 351 414 2914 1162 3540 214 230 435 1024 8292 569 282 7776 20011 205 223 378 5129 1048 3142 286 2683
internal_value=-1.72024 -1.7029 -1.69986 -1.73021 -1.72427 -1.70464 -1.72324 -1.67837 -1.73875 -1.72592 -1.66335 -1.70768 -1.73384 -1.70553 -1.7163 -1.74319 -1.70833 -1.67305 -1.65818 -1.68698 -1.63791 -1.69604 -1.7431 -1.68477 -1.68211 -1.67504 -1.63633 -1.71311 -1.722 -1.71917 -1.70053 -1.62781 -1.68363 -1.7058 -1.70638 -1.69929 -1.69914 -1.65889 -1.69742 -1.70081 -1.68693 -1.67274 -1.70165 -1.69666 -1.69855 -1.64589 -1.66069 -1.68807 -1.699 -1.7108 -1.70872 -1.67998 -1.71579 -1.73262 -1.68939 -1.69279 -1.69036 -1.70824 -1.70588 -1.69037 -1.69577 -1.69087
internal_weight=46881.2 17126.9 15924.2 29754.4 17535.6 13026.4 16798.4 2897.83 12218.8 12118.9 862.913 9623.22 5745.18 7607.04 4679.44 1202.65 5253.32 626.791 258.609 112.659 236.121 3403.15 6473.61 2034.92 1713.26 1028.48 145.95 3271.09 6475.37 3819.83 1901.98 185.414 368.182 3908.9 3840.34 2353.72 1812.03 238.326 2105.91 1547.47 328.498 168.658 1852.59 1084.7 1036.64 149.477 102.297 558.446 321.663 1987.74 767.891 790.158 2016.18 5415.58 317.474 684.774 635.61 1604.57 1361.83 1501.17 808.457 654.57
internal_count=212644 77684 72229 134960 79538 59085 76194 13144 55422 54969 3914 43649 26059 34504 21225 5455 23828 2843 1173 511 1071 15436 29363 9230 7771 4665 662 14837 29371 17326 8627 841 1670 17730 17419 10676 8219 1081 9552 7019 1490 765 8403 4920 4702 678 464 2533 1459 9016 3483 3584 9145 24564 1440 3106 2883 7278 6177 6809 3667 2969
is_linear=0
shrinkage=1


Tree=2
num_leaves=63
num_cat=0
split_feature=6 64 6 64 6 64 6 32 38 38 6 64 64 6 64 38 64 64 6 6 64 21 6 48 64 6 6 64 38 6 63 46 61 7 38 5 64 38 32 15 32 6 37 38 46 62 38 38 6 30 38 8 14 6 37 65 39 39 64 6 64 38
split_gain=1266.01 977.88 836.57 442.232 344.988 301.499 278.944 237.631 208.749 163.994 155.343 145.922 134.659 126.665 116.546 115.13 98.9853 97.8237 126.767 97.7362 89.9872 89.0484 86.6391 84.0349 79.5322 126.059 78.988 77.7096 72.4108 69.3815 69.1321 67.8048 65.5963 64.2832 63.5107 62.3514 61.9609 61.672 68.5271 61.6352 60.7058 60.0399 59.6891 58.3958 58.2415 57.7285 60.2434 57.2377 72.2467 55.0163 54.8433 54.2278 52.9614 52.6012 52.1371 51.9513 51.4006 48.8013 48.7188 76.4136 60.8697 47.5468
threshold=0.0029887283944818326 -0.00013584569496426926 -0.0014047284949157965 0.0022720356489214538 0.0051765068603215622 -0.0025889292944412481 -0.0074345389594597236 0.00084509870075165524 374.50000000000006 374.50000000000006 0.0013174944290489379 0.001551298177577871 -0.0074247506842504358 -0.012227057995648492 0.0043511083726688179 168.50000000000003 -0.0011259987959811137 -0.0066596539213379874 -0.0041592235006418501 -0.0024882036905701783 -0.0113530700376289 3.4908249158249123 -0.0091476479344336208 0.0041005702505464833 0.0064019837052431685 0.0081732944534335123 -0.00015307231760097737 -0.015482713180281655 374.50000000000006 -0.0014047284949157965 0.64596273291925577 13.305000305175783 -0.0031578840667751957 5946.6250000000009 180.50000000000003 1.0000000180025095e-35 -0.0090500430849359322 266.50000000000006 0.0011161056524048786 0.044999999999999991 0.00069781071167562554 0.004383332274329855 -0.66310114370129436 374.50000000000006 16.550000190734867 -0.0048598525874949941 364.50000000000006 367.50000000000006 0.0041298871124049183 0.16815397264390311 369.50000000000006 1.0000000180025095e-35 0.16500000000000004 -0.016830343529521504 0.20790494527192532 -0.01916526498751869 -0.23931566428755782 0.37709484168832064 0.010906182949865397 0.013459902365320466 0.016559016421487171 184.50000000000003
decision_type=2 2 2 2 2 2 2 2 2 2 2 2 2 2 2 2 2 2 2 2 2 10 2 2 2 2 2 2 2 2 2 2 2 2 2 2 2 2 2 10 2 2 2 2 2 2 2 2 2 2 2 2 2 2 2 2 2 2 2 2 2 2
left_child=1 2 5 37 14 6 9 24 10 12 15 34 13 27 47 23 54 -8 28 33 32 43 30 -3 -6 -26 -18 53 -19 -17 -22 -23 -15 56 -12 39 -24 38 51 -10 -13 -16 -14 58 -30 -20 -47 -5 -49 -31 57 -2 -44 -1 -4 -21 -7 -43 61 -60 -61 -9
right_child=3 8 16 4 7 19 17 21 35 -11 11 40 42 20 41 29 26 18 45 55 22 31 36 -25 25 -27 -28 -29 44 49 -32 -33 -34 -35 -36 -37 -38 -39 -40 -41 -42 50 52 -45 -46 46 -48 48 -50 -51 -52 -53 -54 -55 -56 -57 -58 -59 59 60 -62 -63
leaf_value=-0.84098439527555158 -0.82149986822005949 -0.84995064551361643 -0.81906698291581359 -0.83779147639555462 -0.8273994637464327 -0.85651884436407832 -0.81913906603673714 -0.8223436387032057 -0.84196967491664731 -0.81180180337387353 -0.8421983960389624 -0.85736648676296734 -0.84060028123021535 -0.83504260268845398 -0.85941384342667171 -0.86643842629190415 -0.83610382142069828 -0.84192471895289434 -0.81286256057686945 -0.80023450206061042 -0.84948553336306221 -0.80693115907462698 -0.79322932991870576 -0.81222613022219847 -0.84910045662958589 -0.83222913114408725 -0.81979971490712478 -0.85080196198692748 -0.84059650146825549 -0.8559969231516229 -0.80427260125545541 -0.83889137297029948 -0.80087147794663749 -0.8623250036056731 -0.82456450972492457 -0.79098603341069418 -0.83052987675316303 -0.80332368258055098 -0.81256500822997035 -0.80501698158332835 -0.8438098666041195 -0.85526878191447875 -0.86513813107425863 -0.80109744208329148 -0.7892367585414366 -0.83181057663733216 -0.80625660824374634 -0.83155386824064537 -0.77644659358904256 -0.82325405787889727 -0.80431921494160519 -0.84797781485746315 -0.84797314973572213 -0.8184040089864375 -0.80719493471545933 -0.84122850030358687 -0.84294593832017006 -0.83331420980409487 -0.84104495142504354 -0.81338559617309591 -0.83313870374278376 -0.8132630754209329
leaf_weight=1296.7999172210693 2488.9716593027115 6284.6902806460857 2354.502349704504 2695.6491461098194 3085.0575303435326 1266.5903736948967 1849.4135183095932 4039.2370148897171 333.04179692268372 425.51247283816338 974.44198325276375 1504.5826312303543 681.5567746758461 222.15066763758659 1050.3342511355877 1961.7782838642597 1246.3278749883175 2728.0691440403461 725.39745369553566 79.944767624139786 889.70789775252342 192.67794224619865 149.57408136129379 150.31089949607849 1617.6842149198055 3502.8334127664566 1837.624428153038 2298.1357623934746 99.838857263326645 3715.4054446518421 92.47067591547966 1158.278107881546 380.93497568368912 1348.3771866559982 1070.5967498421669 132.25885519385338 428.45974537730217 851.02494567632675 3001.4286720454693 169.46817100048065 1833.5719284117222 594.61223477125168 1069.8599317073822 369.51429459452629 121.9434013068676 2093.6687299907207 258.25475624203682 184.20453369617462 86.944539904594421 132.25885519385338 84.734085500240326 208.88794121146202 778.44835940003395 320.88429769873619 1530.0028568804264 1713.102163374424 1555.0546734631062 439.880426466465 723.92381742596626 949.02175760269165 662.03109410405159 2248.0321292281151
leaf_count=3520 6756 17059 6391 7317 8374 3438 5020 10964 904 1155 2645 4084 1850 603 2851 5325 3383 7405 1969 217 2415 523 406 408 4391 9508 4988 6238 271 10085 251 3144 1034 3660 2906 359 1163 2310 8147 460 4977 1614 2904 1003 331 5683 701 500 236 359 230 567 2113 871 4153 4650 4221 1194 1965 2576 1797 6102
internal_value=-0.835398 -0.840437 -0.83486 -0.827381 -0.830561 -0.839481 -0.836072 -0.827386 -0.84955 -0.842068 -0.850564 -0.843483 -0.843566 -0.839531 -0.842028 -0.853677 -0.819694 -0.829195 -0.832283 -0.849147 -0.829822 -0.822345 -0.836166 -0.849066 -0.83374 -0.837561 -0.826387 -0.844894 -0.839689 -0.85878 -0.845201 -0.834315 -0.813437 -0.853344 -0.832966 -0.821396 -0.820822 -0.815883 -0.817764 -0.829472 -0.849925 -0.850832 -0.853258 -0.820547 -0.812277 -0.825185 -0.828993 -0.835586 -0.813732 -0.854869 -0.842764 -0.823554 -0.85792 -0.836498 -0.814385 -0.839382 -0.849044 -0.84594 -0.821385 -0.827557 -0.821496 -0.819094
internal_weight=78340 48105 29842.6 30235 23684.7 22874.2 16911.1 18548.3 18262.4 9034.5 17627.6 5383.19 8608.98 6079.12 5136.36 12244.4 6968.46 7876.59 6027.17 5963.07 2163.3 10342.7 1560.21 6435 8205.58 5120.52 3083.95 3915.82 2949.85 5809.44 982.179 1350.96 603.086 4170.02 2045.04 634.769 578.034 6550.31 5699.29 502.51 3338.15 2169.56 2529.87 8991.76 221.782 3077.32 2351.92 2966.8 271.149 3847.66 1119.23 2697.86 1848.31 1617.68 3884.51 1793.05 2821.65 1034.49 8622.25 2334.98 1611.05 6287.27
internal_count=212644 130575 81004 82069 64289 62089 45903 50347 49571 24523 47848 14612 23368 16501 13942 33236 18915 21380 16360 16186 5872 28074 4235 17467 22273 13899 8371 10629 8007 15769 2666 3667 1637 11319 5551 1723 1569 17780 15470 1364 9061 5889 6867 24407 602 8353 6384 8053 736 10444 3038 7323 5017 4391 10544 4867 7659 2808 23404 6338 4373 17066
is_linear=0
shrinkage=1


Tree=3
num_leaves=63
num_cat=0
split_feature=6 64 6 6 64 64 6 34 17 64 6 64 64 64 37 6 49 6 64 21 38 64 11 38 64 6 15 65 22 37 10 64 64 34 11 6 65 45 38 34 6 11 62 64 38 11 63 6 37 64 62 21 11 6 61 64 49 11 38 34 39 6
split_gain=2067.11 333.507 409.818 332.017 802.834 210.631 174.183 185.783 174.755 170.707 152.078 128.399 123.002 118.307 103.083 85.8006 85.195 85.1036 83.5805 83.3142 77.4712 70.4351 69.2119 65.9202 64.9818 64.8095 61.4634 61.3211 60.2175 59.7658 59.7185 59.041 57.8231 57.5855 56.1169 55.9005 55.4535 55.2858 60.5834 55.8693 54.7107 53.2276 52.3188 51.9051 58.074 51.8968 51.1053 51.0615 68.6388 51.9598 49.9408 49.5884 48.4247 48.2767 63.6487 47.6633 47.1042 46.9493 46.9155 45.0424 45.0131 44.8938
threshold=-0.0019624485358703532 -0.0019780397541572887 -0.0091476479344336208 0.0020346722867967686 0.00013540568551398272 0.0023709683077037034 0.0052135108161304186 0.0011113403727395614 0.0044081015091351613 -0.0078652934113857334 -0.0042900573194774019 0.0031857976956254576 0.0047400656628575318 -0.0090500430849359322 0.74312071467601581 -0.015609045031882372 0.0035139290362866593 0.0013420558641425997 -0.0011259987959811137 -2.0340522572665898 313.50000000000006 -0.003106095113976587 0.094999999999999987 287.50000000000006 -0.0032857884845001865 -0.00087679602828794046 0.090000000000000011 -0.022085410189105922 0.0059739819715323803 -0.57465703571039606 2.8750000000000004 -0.011795871914542002 0.0039985107003072864 0.0019521589335763038 -0.26499999999999985 0.0034483295704280663 0.0033774198997895692 0.047312370481515272 365.50000000000006 0.00098476102083742381 0.011926666566806412 -0.20499999999999982 0.0045297478082013684 0.0020773564223860812 180.50000000000003 -0.58000000000000018 0.92156862745100032 -0.0076892649780632696 -0.87393967735992162 -0.0064875954894647418 0.0024525560590085154 3.200000000000053 0.38999999999999996 -0.012907366220776538 -0.0066180102966826295 0.0052752935321084644 -0.0021149014990572159 -0.63500000000000012 122.50000000000001 0.0021735675470979511 -0.18420929737143846 0.0077897938538427089
decision_type=2 2 2 2 2 2 2 2 2 2 2 2 2 2 2 2 2 2 2 8 2 2 10 2 2 2 8 2 10 2 10 2 2 2 10 2 2 2 2 2 2 10 2 2 2 10 2 2 2 2 2 10 10 2 2 2 2 8 2 2 2 2
left_child=1 2 13 4 18 -5 7 12 14 -4 24 17 41 15 52 -1 28 26 60 -3 22 -12 42 45 47 37 51 -9 40 -26 -23 53 35 -27 55 -29 -14 38 39 -20 -10 -7 -21 44 -19 -13 -44 48 -11 -49 -36 57 -8 -17 -55 -34 -50 -6 -54 -37 -2 -16
right_child=3 19 9 5 11 6 8 27 16 10 21 23 36 -15 61 31 -18 43 25 20 -22 30 -24 -25 29 33 -28 32 -30 -31 -32 -33 34 -35 50 59 -38 -39 -40 -41 -42 -43 46 -45 -46 -47 -48 49 56 -51 -52 -53 58 54 -56 -57 -58 -59 -60 -61 -62 -63
leaf_value=0.019887752550986869 -0.022534995065087826 0.048569249070097249 -0.013119459250798979 -0.015371762137228781 0.02867972694155815 -0.035708808456314849 -0.014598367807474975 0.029805976178137794 0.0039351522617501215 -0.013491283606803493 -0.0083123660800492865 0.053587525055781675 -0.014032307446348992 0.02651263085889953 0.0039343273594871012 0.0064714720279508524 0.014924247696179897 0.0048691956516457857 -0.031641916537164819 0.013104417011859562 0.03515473257993245 0.023666962120733454 0.027100911861359201 0.048518936595519153 0.0048647074545921133 -0.015650241916486923 0.01972917545832183 0.006487370846417111 0.034707401024268288 0.029839813738546207 0.00011744429032146591 0.01496084047950819 0.017712954918560696 -0.0020265531437599193 0.01845640772820106 -0.016561376910335796 0.024644123447433549 0.041494091020941856 0.036812025273655201 0.001608717160114331 -0.012961806686470685 -0.012168639899936282 0.038674219445273134 0.010373484542112147 -0.018145965688042037 0.016137190406225563 0.0067183834072632306 -0.0079448045061789371 0.040255295074193842 0.0077953021586700316 0.0010967040945263355 0.038323917932723467 0.027014024180314036 0.028250172079340032 -0.020652814037602916 0.061036620999782 0.014426022886258811 0.0051650052942375695 -0.0069060566828604139 0.0031602375986476924 -0.012039817887389385 -0.0077999676060470612
leaf_weight=2247.6418463885784 1685.7420626878738 257.59945642948151 1634.1156060695648 8790.641383767128 222.5226137638092 534.45451155304909 9979.2481835782528 239.1144218146801 865.47818824648857 149.33798801898956 2356.6946066915989 97.909029096364975 158.77081128954887 2334.1750401258469 1222.3524420261383 907.54338511824608 909.5669409930706 457.61068570613861 146.81692937016487 4341.7320550978184 725.33721119165421 346.80262172222137 1560.1068816184998 206.08537873625755 364.72269922494888 1896.2762928903103 1247.0849710404873 1084.1975922584534 97.284323036670685 699.40879714488983 1191.3242425918579 1131.5592918694019 335.35945945978165 1312.5981923043728 569.2370817065239 762.40005785226822 219.96658939123154 87.760441720485687 103.1689877808094 868.61675822734833 1070.9812154173851 438.15756359696388 411.09820434451103 502.66483229398727 681.15324035286903 1488.3017784357071 180.35366660356522 689.49298769235611 270.83322304487228 2178.727011859417 1515.4894898831844 123.63974189758301 115.41919720172882 78.190692543983459 418.11993059515953 77.802228569984436 509.11686965823174 4244.5609723925591 819.01433995366096 465.95068281888962 2605.2767062485218 2442.4973791837692
leaf_count=6272 4766 715 4616 24839 620 1513 28178 668 2430 418 6640 273 446 6499 3441 2543 2552 1285 416 12123 2017 970 4349 575 1021 5350 3480 3038 272 1955 3340 3162 941 3700 1595 2154 617 244 287 2439 3019 1234 1144 1407 1924 4153 502 1935 756 6103 4251 346 325 218 1184 217 1422 11884 2307 1307 7367 6880
internal_value=4.77723e-05 0.0118184 0.00804263 -0.00575371 -0.000295097 -0.00875342 -0.00632091 0.000737943 -0.00889947 0.00171101 0.00447982 0.00994332 -0.0157214 0.0172848 -0.011143 0.0127769 0.00221296 0.00706111 -0.0111982 0.0206583 0.0196557 -0.00288169 0.0179192 0.0219601 0.0103768 -0.00636638 0.00988888 0.00514499 -0.00347655 0.0212924 0.0054391 0.00646771 0.00391322 -0.0100798 0.00918625 -0.00178393 0.00843629 0.00351134 0.000496987 -0.00322524 -0.00541177 -0.0251275 0.0150106 -0.00299587 -0.0089012 0.0184811 0.0289576 0.0073132 0.0174929 0.00401008 0.00584337 0.00721202 -0.0135793 -0.000383842 -0.0129071 0.0259989 0.0234352 0.00634252 -0.00269192 -0.00908389 -0.0161672 -0.00388617
internal_weight=75675.2 24984 17507.8 50691.2 17977.8 32713.4 23922.7 6400.9 17521.8 10390.6 8756.46 9271.53 1351.35 7117.23 14578.5 4783.06 2943.31 7479.24 8706.26 7476.23 7218.63 3894.82 6493.29 1792.3 4861.64 4415.24 5837.81 5049.55 2033.74 1064.13 1538.13 2535.41 4810.44 3208.87 2497.89 2312.55 378.737 1206.36 1118.6 1015.43 1936.46 972.612 4933.18 1641.43 1138.76 1586.21 591.452 3797.51 929.288 2868.22 2084.73 4590.72 10913.7 1403.85 496.311 413.162 779.95 4467.08 934.434 1228.35 4291.02 3664.85
internal_count=212644 69904 49054 142740 50516 92224 67385 17981 49404 29176 24560 25947 3810 19878 41131 13379 8273 20946 24569 20850 20135 10950 18118 5001 13610 12436 16330 14171 5721 2976 4310 7107 13503 9050 7004 6499 1063 3386 3142 2855 5449 2747 13769 4616 3209 4426 1646 10634 2596 8038 5846 12850 30810 3945 1402 1158 2178 12504 2632 3461 12133 10321
is_linear=0
shrinkage=0.05


Tree=4
num_leaves=63
num_cat=0
split_feature=34 37 32 34 37 32 32 39 34 34 34 12 34 39 64 13 65 37 10 31 22 18 14 37 43 14 39 37 34 6 39 35 39 46 31 46 64 21 31 6 21 12 6 13 20 48 12 37 23 37 31 46 39 65 23 63 21 14 23 37 62 46
split_gain=2971.04 667.305 571.163 570.734 131.885 128.737 117.624 103.721 100.93 79.7662 78.4419 59.7956 47.7553 41.6651 39.0113 36.3812 35.773 35.6501 35.387 37.8776 33.0643 31.6118 40.3726 34.9889 30.8962 29.3071 29.2962 36.5033 29.2775 35.1166 28.923 33.9232 28.3066 27.3025 26.8859 26.5667 28.9058 25.7074 29.0178 26.0151 25.682 28.5314 25.1798 25.0185 24.1166 27.7235 23.1199 33.6661 22.6871 24.7713 21.9779 21.1575 20.6989 28.0668 29.9939 20.9032 20.6944 19.5841 25.3202 19.5915 19.2118 18.9077
threshold=0.0017787898047518646 0.94592412760244438 0.0014107148994039927 0.001161195915065534 0.96895112360571434 0.00036860160614488361 0.00087315280193338155 0.032215887894172894 0.0036901465392396499 0.0015465125752915883 0.0025114457219924126 1.9850000000000001 0.00073163008834645183 0.59426375826522615 -0.0010157708963690138 -0.22499999999999995 -0.0075394078690043101 0.96895112360571434 3.2150000000000003 56.077166212344615 0.003323462898928257 -0.10060347629638498 0.49500000000000005 -0.8408301117770105 0.8088023213421317 -1.0099999999999998 1.0000000180025095e-35 0.96895112360571434 0.0010852587457234068 -0.00087679602828794046 -0.61986427551636092 0.14642857142857144 0.032215887894172894 16.819999694824222 56.21015474277214 18.510000228881839 -0.0017690607725628709 1.1272727272727192 44.122371400716347 -0.00037116044622897965 0.24828759089843477 1.7150000000000001 -0.00034893641711292162 0.20000000000000009 0.059318795455700492 0.001936123646207078 1.8250000000000004 -0.98827833104448182 0.00061934387408222138 0.25491824248212824 42.034503146006124 15.97499990463257 -0.77964905808746321 0.0082229545900065499 0.00084128496737738282 0.8602552279692991 0.049416632749986721 0.085000000000000006 0.0013549672932740284 0.47891205135254394 0.0073865239223778198 13.375000000000002
decision_type=2 2 2 2 2 2 2 2 2 2 2 2 2 2 2 10 2 2 8 2 8 2 2 2 2 2 2 2 2 2 2 2 2 2 2 2 2 10 2 2 10 2 2 8 2 2 2 2 2 2 2 2 2 2 2 2 10 2 2 2 2 2
left_child=1 3 4 5 6 11 14 17 26 13 33 12 30 18 -2 61 60 -3 19 -5 -10 -7 23 28 -13 -20 27 -4 29 -23 31 -1 -6 -8 -16 36 -17 39 -39 -14 41 -24 -9 48 52 -46 -18 -48 -25 -50 -38 57 55 54 -54 -42 -27 58 -21 -59 -11 -15
right_child=2 7 8 9 32 21 10 42 20 16 -12 24 37 15 34 35 46 -19 25 51 -22 22 40 43 -26 56 -28 -29 -30 -31 -32 -33 -34 -35 -36 -37 50 38 -40 -41 44 -43 -44 -45 45 -47 47 -49 49 -51 -52 -53 53 -55 -56 -57 -58 59 -60 -61 -62 -63
leaf_value=0.11925325306395095 -0.0033628814443657784 -0.0076740784447024068 -0.014905350838647111 0.014345932629519302 -0.03221910020742412 0.011132690661093644 0.00057723985656569111 0.039965660333575799 -0.018895598959446321 -0.0078330594258450483 -0.010034392701745377 0.010543039569094961 0.047798403207879273 0.034492794985289697 0.0021030485930880831 -0.0044413253052933066 0.005129446087791009 -0.02723094935341977 0.046281563017479564 0.034818398373547665 -0.026130233476162126 0.072196862779440277 0.057754914357897549 0.018045893892487744 0.049388661023262122 0.00057930153900917481 -0.0099269224935534198 -0.032959220752056755 0.018581450819411007 0.03642650727651827 0.049146492046208586 0.069803849857951975 -0.00050897852066885665 -0.0060692824377940003 0.011106564463726511 -0.013283644179913867 0.0092222809501758801 0.018273162873651928 0.061130002272601618 0.0059076703084876819 0.029101619935394514 0.013866907839390734 0.0027187996500782812 -0.0017427237298866612 0.06629457781106432 0.036591876227949675 -0.0089097288748502292 0.014387319286299702 0.022591711650866278 0.04311648324670167 0.028038601551824423 0.017280865515250095 0.072809686055870612 0.021358344138209664 0.024806254486548291 0.060490608017783713 0.011888950133912049 0.045489968204494552 0.0057411035865691587 0.015085063597807057 0.024540533787336619 0.073113930137239311
leaf_weight=57.774928867816925 1423.3493358492851 316.58975611627102 2273.0088820755482 2115.1480680555105 484.4028235822916 207.76670251786709 4006.6186227798462 75.099815189838409 3287.1033823788166 436.58444578945637 5650.4892045706511 122.18737499415874 92.878693282604218 96.517805144190788 1687.106455758214 88.458926394581795 1577.8803849518299 892.4496109187603 53.937046200037003 171.55753906071186 3073.6048877686262 89.016446128487587 46.051579877734184 677.11609230935574 87.990525141358376 524.61215101182461 3090.2761309295893 319.46791665256023 152.86015556752682 316.89248906075954 74.76341700553894 105.14010652899742 82.349145814776421 2513.7700956910849 1630.6095462441444 51.624985590577126 184.87005226314068 46.156673267483711 324.61715526878834 61.758978232741356 89.542567700147629 179.1197238266468 112.77745495736599 98.472388952970505 181.15694768726826 147.30386230349541 165.36337305605412 2351.4961803257465 348.68103513121605 259.67053805291653 1008.5602131932974 438.98275366425514 65.739497005939484 304.71950785815716 66.569678395986557 141.85803446173668 1766.8702786415815 280.3942427188158 133.06731270253658 66.86883533000946 50.211940109729767 49.39035589993
leaf_count=246 6477 1443 10410 9473 2251 927 18171 337 15129 1980 25839 539 406 431 7633 399 7104 4134 238 768 14234 390 204 3006 387 2362 14154 1495 680 1398 324 451 374 11464 7329 233 827 204 1412 272 395 801 507 437 796 652 743 10558 1546 1152 4500 1963 290 1345 294 625 7920 1247 593 299 226 220
internal_value=-3.86577e-05 0.0163782 -0.0096898 0.019279 -0.00391646 0.0347346 -0.00312051 -0.0167506 -0.0180676 0.0134924 -0.00572293 0.0507665 0.057279 0.0168378 0.00356002 0.0242987 0.00835602 -0.0221205 0.0148455 0.0182611 -0.0223951 0.0300943 0.0313352 0.0268253 0.0269625 0.0101709 -0.0132209 -0.017142 0.0374039 0.0444291 0.0760085 0.0879608 -0.0276206 -0.0019857 0.00653016 0.0216741 0.0230912 0.0486781 0.0558584 0.0312136 0.0384768 0.0230585 0.0177402 0.0225302 0.0419328 0.0531254 0.0098792 0.0128537 0.0243895 0.0314089 0.025134 0.0258323 0.0363617 0.029827 0.0490246 0.0485218 0.0093011 0.0315556 0.0221771 0.0396953 -0.00445033 0.0479749
internal_weight=46877.3 17355.1 29522.2 15958.2 17478.7 4345.81 16911.9 1396.92 12043.5 11612.4 12170.9 973.268 763.09 7030.86 4741.07 1479.42 4581.54 1209.04 5551.44 3206.02 6360.71 3372.54 3164.77 1942.71 210.178 2345.42 5682.75 2592.48 558.769 405.909 237.678 162.915 566.752 6520.39 3317.72 1333.51 1281.89 525.412 370.774 154.638 1222.06 225.171 187.877 1383.94 996.89 328.461 4094.74 2516.86 1285.47 608.352 1193.43 1090.87 668.429 437.029 132.309 231.401 2291.48 651.888 304.625 347.263 486.796 145.908
internal_count=212644 77684 134960 71263 79538 19179 76913 6421 55422 52084 55474 4241 3315 31473 21439 6610 20611 5577 24863 14343 29363 14938 14011 8609 926 10520 26059 11905 2468 1788 1021 697 2625 29635 14962 5959 5726 2294 1616 678 5402 1005 844 6141 4397 1448 18405 11301 5704 2698 5327 4870 2949 1929 584 1020 10282 2907 1361 1546 2206 651
is_linear=0
shrinkage=0.05


Tree=5
num_leaves=63
num_cat=0
split_feature=6 64 6 64 6 64 6 38 34 38 6 64 17 64 6 38 6 64 6 64 6 64 45 64 45 17 6 64 6 64 64 6 6 37 13 7 38 5 38 64 37 11 64 21 38 46 38 48 64 38 38 6 64 34 6 45 37 64 38 8 34 37
split_gain=1124.99 886.858 740.915 396.254 316.743 271.692 248.305 189.056 150.865 150.224 139.974 132.476 129.897 122.393 114.703 105.155 90.6039 117.906 87.6661 87.2904 84.3589 84.1141 83.6406 80.0306 78.0985 80.5777 76.5651 74.5139 72.2084 71.3391 65.5611 65.0127 62.4748 59.8032 59.432 59.4125 58.1491 57.8668 56.7666 56.7074 56.201 55.4056 54.9127 54.8644 54.8178 52.8423 52.5589 51.7504 68.0115 51.5686 49.5444 48.1287 67.3935 46.9324 46.8473 46.5381 58.9484 46.3986 46.3913 43.7118 43.6184 42.5223
threshold=0.0029887283944818326 -0.00013584569496426926 -0.0014047284949157965 0.0022720356489214538 0.0062706909236449624 -0.0025889292944412481 -0.0074345389594597236 374.50000000000006 0.001596975392754065 374.50000000000006 0.0017987786470746727 0.0044266476432096389 0.0044081015091351613 -0.0074247506842504358 -0.012227057995648492 256.50000000000006 -0.0028672328065399428 -0.0044973479167066408 -0.0024882036905701783 -0.0011259987959811137 0.004383332274329855 0.0019311705384923942 0.024414321868059811 -0.0113530700376289 -0.043319952397522503 -0.00048448954567479897 -0.0091476479344336208 0.0061899995070618585 -0.00015307231760097737 -0.015482713180281655 0.0051835229857841282 0.0049110557802015684 0.011926666566806412 0.97280650724424012 0.2100000000000001 5946.6250000000009 333.50000000000006 1.0000000180025095e-35 374.50000000000006 -0.0090500430849359322 -0.66310114370129436 -0.27999999999999953 -0.0019099937024209352 2.1578947368421288 86.500000000000014 16.375000000000004 368.50000000000006 0.0041005702505464833 0.0031234431805774224 268.50000000000006 305.50000000000006 -0.00078874411777390952 0.0016468052939236806 0.0018055248420473251 -0.016830343529521504 0.10600204873107434 0.80422987888922448 -0.0066596539213379874 154.50000000000003 1.0000000180025095e-35 0.00095150535508702787 0.97280650724424012
decision_type=2 2 2 2 2 2 2 2 2 2 2 2 2 2 2 2 2 2 2 2 2 2 2 2 2 2 2 2 2 2 2 2 2 2 10 2 2 2 2 2 2 10 2 10 2 2 2 2 2 2 2 2 2 2 2 2 2 2 2 2 2 2
left_child=1 2 5 36 11 6 9 10 27 13 15 31 43 14 29 24 17 22 35 50 -13 -12 -8 44 25 -3 -25 -6 -21 54 46 -5 -14 60 -20 -7 42 -9 -19 -28 -15 -26 -2 -10 -16 57 -22 -43 -49 -33 -4 -17 -53 -27 -1 56 -31 -24 -32 -44 -29 -45
right_child=3 7 19 4 8 18 16 37 12 -11 21 20 32 40 23 51 -18 38 34 28 30 -23 45 26 41 53 39 33 -30 55 58 49 -34 -35 -36 -37 -38 -39 -40 -41 -42 47 59 61 -46 -47 -48 48 -50 -51 -52 52 -54 -55 -56 -57 -58 -59 -60 -61 -62 -63
leaf_value=-0.0051767333884216726 0.029121426315848839 0.023370971243677457 0.017553630350781647 -0.0020237717127396166 0.012597945051392088 -0.012878471330418854 0.021806652645796242 0.0054925673866054736 0.017650748807294784 0.022651502400646003 0.0017712948268669372 -0.023063717910188242 -0.0056659655643662224 -0.0046771050656826754 -0.010963536854363463 -0.033489558227588631 0.017939177409965656 -0.0060168463761605048 -0.0068238366910460639 -0.00080834956271428184 0.0018466787182523569 -0.013045153061515217 0.0067180497204104893 -0.0091451520250689696 -0.0094494623163889971 -0.028903243240632273 0.04006031504671604 -0.017913416810656137 0.014769914852946944 0.00062569297320784869 0.0020216915296012638 0.0062851142245148248 0.0095516115908324695 0.023875364465744481 0.023422585600505381 -0.02568015302336767 0.041400138911852194 0.042475655800721109 0.022345545812110998 0.0044686192175587237 -0.021507187730021804 -0.018897775531297081 0.01660364404049483 0.0073030957239977644 0.027886787793287293 0.011877830806953572 0.043917138834109776 0.044239372622404703 -0.017775986921740313 0.029655999669627672 0.03432803612720324 -0.014077272192120112 -0.030705802991083903 -0.0018233064923941476 0.016110777035362924 -0.019868880605355261 -0.038128729365937974 -0.011582116309703345 -0.01519299628308482 -0.0035464335406505103 -0.0017341605012171878 0.029781133130841769
leaf_weight=1294.4377001225948 865.29892408847809 249.85451331734657 3394.6555196046829 2714.9845828413963 1061.7244713306427 2811.6557229161263 989.4232859313488 503.24557080864906 5633.090838521719 426.86843395233154 1824.4965816736221 974.50506234169006 1304.3895804286003 679.97467404603958 110.57958748936653 1002.6338081657887 1299.925822108984 2668.8896926939487 1611.6219292283058 1246.6779451668262 697.01871848106384 2015.2340589463711 725.37720102071762 979.2360038459301 2545.230056732893 216.79654324054718 150.55357360839844 487.06634241342545 1842.9339960515499 686.48764589428902 528.48800206184387 1145.1987513899803 1394.5257150530815 201.60652077198029 179.61754742264748 1340.0668444037437 262.94168967008591 133.05180299282074 187.92620465159416 429.06452390551567 1839.3098190426826 6361.7765698730946 5163.6817915439606 2609.4151000380516 494.8384702205658 1352.2109628021717 82.102787226438522 75.17107954621315 104.46580436825752 296.60363584756851 506.58154195547104 1570.9894496798515 998.08259949088097 603.49381840229034 321.86547607183456 1490.1748926341534 113.48076775670052 661.10912811756134 1504.9407038986683 283.60432943701744 2845.9209247529507 228.03643861413002
leaf_count=3520 2338 680 9176 7369 2877 7659 2681 1364 15246 1155 4951 2657 3540 1850 300 2739 3520 7246 4380 3383 1891 5487 1964 2666 6934 591 406 1324 4988 1870 1435 3102 3777 546 487 3660 710 359 508 1163 5017 17336 13963 7070 1337 3665 222 204 284 803 1368 4278 2721 1643 871 4059 309 1796 4090 769 7723 617
internal_value=-2.30193e-05 -0.0047808 0.000525891 0.00752396 0.00451163 -0.00383292 -0.000599343 -0.0134775 0.00861366 -0.00626619 -0.0144474 -0.00362955 0.011751 -0.00770568 -0.00385964 -0.0168076 0.00588105 0.0034983 -0.0130275 0.0147681 -0.010393 -0.0060063 0.00935401 0.0053724 -0.01421 -0.00143257 -0.000622705 0.000988728 0.00848576 -0.00897449 -0.00599621 0.00253336 0.00219756 -0.00250104 -0.00377948 -0.0170157 0.0183833 0.0132804 -0.00414395 0.0137665 -0.0169683 -0.0157145 0.0174182 0.0147944 0.0207844 0.00484887 0.00633062 -0.0181504 0.00827628 0.0111101 0.0197401 -0.0241884 -0.0205469 -0.00900681 -0.000930266 -0.0146489 -0.00491262 -0.00200996 -0.0107201 0.0155541 -0.00410318 0.00911944
internal_weight=78325.2 48040.1 29835.5 30285.1 23709.6 22844.7 16901.7 18204.5 15765.8 9016.87 17568.2 7943.84 11169.5 8590 6070.72 13728.5 7884.86 6584.94 5942.96 6990.85 3787.06 3839.73 3728.12 2164.27 10156.8 1070.14 1558.85 4596.32 3089.61 3906.45 2812.55 4156.79 2698.92 3534.59 1791.24 4151.72 6575.53 636.297 2856.82 579.618 2519.28 9086.64 6312.59 8470.54 605.418 2738.7 779.122 6541.41 179.637 1441.8 3901.24 3571.71 2569.07 820.29 1616.3 2290.14 799.968 1386.49 2033.43 5447.29 3332.99 2837.45
internal_count=212644 130575 81004 82069 64289 62089 45903 49571 42720 24523 47848 21569 30250 23368 16501 37410 21380 17860 16186 18915 10295 10438 10106 5872 27672 2914 4235 12470 8371 10629 7638 11274 7317 9593 4867 11319 17780 1723 7754 1569 6867 24758 17070 22933 1637 7425 2113 17824 488 3905 10544 9738 6999 2234 4391 6238 2179 3760 5525 14732 9047 7687
is_linear=0
shrinkage=0.05


Tree=6
num_leaves=63
num_cat=0
split_feature=45 45 32 64 45 32 64 49 45 64 1 11 14 13 11 64 13 18 39 61 64 32 23 62 14 13 33 11 37 37 65 13 62 32 65 12 17 62 14 45 18 65 11 62 32 11 17 13 37 21 45 64 35 1 11 17 35 7 15 64 19 11
split_gain=1142.32 207.473 157.652 144.612 127.263 125.349 96.4122 93.1716 95.99 86.4149 94.1372 68.9252 64.2339 68.6999 59.1684 59.0642 57.2129 53.1605 63.5273 52.2392 51.7479 50.3064 50.1493 49.683 49.4367 49.1861 48.8516 48.4687 44.5812 44.3941 68.2424 44.0809 44.3746 43.8189 44.1398 46.0332 43.5869 48.9649 42.3063 41.8798 41.4922 40.8424 51.9932 40.6829 40.9364 40.6607 56.4484 40.4696 44.0847 39.3894 48.1403 38.9965 41.3751 46.5652 40.0313 39.6832 38.4349 37.9817 37.8506 37.7017 37.2948 37.2582
threshold=0.052213768787031663 -0.0029443342389950384 0.00098704379846775345 -0.00064720066838826445 0.10600204873107434 0.00066720070919907214 0.00098204662407865321 0.0036190666500655251 -0.029883265784418574 -0.0072308066407655953 1.0000000180025095e-35 -0.035000000000000135 0.70500000000000007 -0.079999999999999724 -0.49500000000000005 -0.014678886688867692 -0.074999999999999942 -0.22666880590628577 -0.42867865278006939 -0.0023644790431371905 0.0010282656206182679 0.0018428451775893558 0.0069044128093209058 -0.0046126690630865488 -0.41499999999999992 -0.015000000000000123 0.00068627022016032422 0.2050000000000001 0.93784234793320442 0.43594205350114751 0.048206592855450932 0.315 -0.0027637470497392509 0.00049816473492570866 0.007295796528306032 1.9450000000000001 0.0021480529939884572 0.011291734267605326 0.66500000000000015 0.0091478412114857095 -0.45890839405984701 -0.020321745868824955 0.30999999999999989 0.0061166331093240886 0.0023760012988126304 -0.28499999999999986 -3.6278536699403589e-05 0.17000000000000007 0.7099260061654552 2.1843183779120205 -0.056015260073032751 -0.010045324953573265 0.63961038961038974 1.0000000180025095e-35 -1.0000000180025095e-35 0.0023779533775846215 0.14642857142857144 5863.8750000000009 -0.059999999999999963 -0.013350849993879697 -0.013193329361974012 -0.21999999999999995
decision_type=2 2 2 2 2 2 2 2 2 2 2 8 2 8 10 2 8 2 2 2 2 2 2 2 2 10 2 8 2 2 2 10 2 2 2 2 2 2 2 2 2 2 10 2 2 8 2 8 2 10 2 2 2 2 8 2 2 2 10 2 2 8
left_child=1 3 29 -1 9 12 51 8 21 40 16 -10 13 -5 -12 47 20 23 25 -13 -11 41 58 -17 -21 -19 -20 39 -15 30 31 32 -3 34 -34 -36 -26 -38 -23 43 -2 42 -7 44 -8 46 -43 -6 -49 50 -47 -4 55 -54 -55 -53 -41 -24 -9 -42 -52 -60
right_child=4 2 6 5 15 7 27 22 11 10 14 19 -14 28 -16 17 -18 18 26 24 -22 38 57 -25 36 -27 -28 -29 -30 -31 -32 -33 33 -35 35 -37 37 -39 -40 56 59 45 -44 -45 -46 49 -48 48 -50 -51 60 52 53 54 -56 -57 -58 -59 61 -61 -62 -63
leaf_value=-0.011958951480519894 0.022564229905865346 -0.013639327018790432 -0.013892813950485318 -0.013684589198396303 0.014589214563661541 0.015522505136638496 0.00095983248641879531 -0.011309694817329567 -0.0021889914169660927 0.0062136776253105637 -0.03786105418291591 0.02593913650815842 -0.040651657332552792 -0.0056963342805883988 0.0037995391292198924 0.024204697858994931 0.021160271696599352 0.014730595995887856 0.004959090075277681 0.015207144405196313 0.041438643918811219 0.0021329431762501477 0.031558230921547865 0.04629216684476456 -0.0041737095078204769 0.039454674353780771 0.021300825460752439 0.025627118769124546 0.014612218586846085 0.0018529293508245917 0.040225769780988817 0.019568727048583701 0.0038647002484798361 -0.0017329606028301592 -0.021055224958105273 -0.0029070711452448346 0.025322578147135177 -0.012673466572978957 -0.033224490286436141 -0.00089024987197626731 -0.016922103795592256 -0.01669767917649077 -0.011923414979958967 -0.024591553240123652 0.040709783165982241 -0.015105616301991268 0.0042275448649048012 0.0060715122784994347 -0.038660653661873864 -0.003326575091011258 0.00010845237443425228 -0.00092064053616191437 0.011200243722451283 -0.016647103629266441 0.0073194922874776445 0.029881350670849679 0.019407342843022205 -0.0088526149131571436 0.032329813442292042 0.0021359028854566653 -0.011027809260120154 0.0049542591685174664
leaf_weight=6348.1116772294044 217.61094808578491 1390.228491127491 339.41036707162857 3481.5479660630226 1562.3533401191235 434.57920837402344 526.22650104761124 336.75678840279579 4636.6705216467381 1405.1504811048508 91.10451152920723 343.12259039282799 155.32125148177147 4690.8255718648434 1140.4836491942406 813.73402306437492 2489.0928305983543 332.79799056053162 907.58518013358116 826.91944858431816 111.68667709827423 2457.2275480628014 303.45080342888832 373.55030465126038 1299.2771896123886 514.51740521192551 922.43363803625107 643.98101514577866 285.80147406458855 3854.0137487351894 83.417887896299362 178.96837314963341 420.86822378635406 5722.7274575829506 957.7962689101696 550.34412223100662 294.95731264352798 118.12088683247566 86.618839353322983 296.54733002185822 294.34117069840431 421.92330569028854 284.84125396609306 133.27055644989014 72.870169878005981 3420.1514394283295 1353.5438349246979 200.53777450323105 74.829048603773117 2241.2534064054489 1264.5150106847286 3670.1997874975204 2328.9817051291466 316.21167415380478 385.64866095781326 106.63124498724937 1089.77160769701 71.404327213764191 132.34495875239372 2137.6872429549694 1853.1722998321056 1842.8094448149204
leaf_count=17963 607 3913 957 9856 4345 1218 1479 951 13054 3932 260 959 445 13248 3197 2259 6918 928 2520 2316 311 6918 852 1032 3649 1428 2559 1785 803 10823 234 499 1181 16084 2706 1550 822 331 245 830 830 1192 802 376 204 9684 3809 559 210 6328 3568 10305 6522 893 1088 299 3039 202 371 5995 5232 5169
internal_value=4.47756e-05 -0.00283067 0.000927794 -0.00505457 0.0131741 -0.00371131 0.00569052 -0.00185571 -0.00296072 0.009058 0.0127799 0.00158542 -0.00888588 -0.00829781 0.000689555 0.0188647 0.0164959 0.0223745 0.0184563 0.00765565 0.00883293 -0.00543447 0.00691755 0.0311871 0.00517583 0.0297727 0.0132034 0.0136212 -0.00452734 -0.00265924 -0.00452825 -0.00493744 -0.0054246 -0.0039305 -0.0104456 -0.014439 0.00032553 0.0144531 0.000916428 0.00996159 0.00169884 -0.00686744 0.00465433 0.000288213 0.00585454 -0.00765315 -0.000751741 0.0114754 -0.00618005 -0.00904863 -0.0110094 0.00262348 0.00344885 0.00779915 -0.00348659 -4.33287e-05 0.015068 0.0238575 0.00416177 -0.000176638 -0.00651242 0.00680399
internal_weight=75642.9 62053.4 23068.1 38985.3 13589.5 32637.2 9909.75 24023.7 21336.9 7887.16 5237.52 7519.07 8613.5 8458.18 1231.59 5702.34 4005.93 3864.62 2677.33 2882.4 1516.84 13817.8 2686.77 1187.28 2539.27 847.315 1830.02 2762.67 4976.63 13158.4 9304.35 9220.93 9041.96 7651.74 1929.01 1508.14 1712.36 413.078 2543.85 2118.69 2649.64 11274 719.42 732.367 599.097 10554.6 1775.47 1837.72 275.367 8779.09 6537.84 7147.08 6807.67 3030.84 701.86 3776.83 1386.32 374.855 2311.91 2432.03 3117.69 1975.15
internal_count=212644 174754 64767 109987 37890 92024 27777 67672 60127 22050 14618 21131 24352 23907 3457 15840 11161 10726 7435 8077 4243 38996 7545 3291 7118 2356 5079 7713 14051 36990 26167 25933 25434 21521 5437 4256 4802 1153 7163 5928 7432 31833 2020 2059 1683 29813 5001 5114 769 24812 18484 20064 19107 8503 1981 10604 3869 1054 6491 6825 8800 5540
is_linear=0
shrinkage=0.05


Tree=7
num_leaves=63
num_cat=0
split_feature=34 38 34 32 32 38 32 34 34 34 38 7 25 64 37 65 46 34 11 46 7 18 14 20 65 65 64 65 46 30 18 18 65 65 43 38 23 11 18 7 49 46 37 7 1 49 15 10 7 15 7 38 15 49 10 61 61 38 38 32 45 37
split_gain=2725.26 717.312 576.155 476.785 146.388 132.702 95.9629 87.5488 84.5548 68.3605 52.657 48.896 52.0909 45.7882 39.7304 38.8913 34.0594 33.6739 33.3031 33.1742 32.0777 31.6089 30.1495 29.4809 28.5433 39.3264 29.3303 26.2629 26.22 25.2424 24.4634 23.3454 24.3371 46.5482 34.1599 31.1457 24.927 23.3056 25.012 26.5868 27.0773 22.6721 26.6306 21.4486 21.2181 21.1122 20.3883 20.2255 20.2149 24.3077 21.5134 35.994 27.0046 20.3686 20.1842 20.1613 20.9454 31.8883 24.5102 20.0447 19.9039 25.8957
threshold=0.0018636458308106314 369.50000000000006 0.0012264670604020969 0.0014399776606452044 0.00036860160614488361 371.50000000000006 0.00087315280193338155 0.0041486433405960544 0.0015630053699993193 0.0025114457219924126 374.50000000000006 6268.2500000000009 -0.00016582926845163005 -0.0042345769571485491 0.96895112360571434 0.0098685529986495286 18.214999198913578 0.0010574554251540635 -0.36999999999999983 16.644999504089359 6146.8750000000009 0.140774195209076 -1.0099999999999998 -0.044751493145291775 0.01482922499766959 0.018567623110832269 0.0036463711488011318 -0.0039703570855609263 15.050000190734865 -0.050003236665469013 -0.098360048975109735 -0.093778955900177138 0.018133840018935036 0.013250119270963092 0.8887477677398129 150.50000000000003 -0.0020655788830880538 -0.015000000000000123 0.085154307787291841 6050.5000000000009 0.0013226159903467702 12.984999656677248 -0.95588035352895118 6944.0000000000009 1.0000000180025095e-35 0.0031364634344065909 0.10500000000000005 2.9950000000000006 4601.0000000000009 -0.064999999999999988 5430.5000000000009 162.50000000000003 0.25500000000000012 -0.00064021415032869931 3.8050000000000002 0.0032486544012892975 -0.00022686497283297411 268.50000000000006 180.50000000000003 0.00054238562352973418 -1.0000000180025095e-35 0.048311812032526227
decision_type=2 2 2 2 2 2 2 2 2 2 2 2 2 2 2 2 2 2 10 2 2 2 2 2 2 2 2 2 2 2 2 2 2 2 2 2 2 10 2 2 2 2 2 2 2 2 10 10 2 10 2 2 10 2 8 2 2 2 2 2 2 2
left_child=1 2 4 5 11 6 23 10 13 19 -5 28 -13 -4 -3 21 -9 31 45 29 22 -10 -15 -2 46 -26 -27 -25 -1 -8 -22 -6 33 36 -35 -34 -33 38 43 40 -40 -38 47 -19 -29 -17 -14 -43 49 54 51 53 -52 -50 -24 56 58 -58 -20 -41 61 -55
right_child=3 14 8 7 17 -7 9 16 15 -11 -12 12 24 20 -16 18 -18 37 55 -21 30 -23 48 27 25 26 -28 44 -30 -31 -32 32 35 34 -36 -37 41 -39 39 59 -42 42 -44 -45 -46 -47 -48 -49 50 -51 52 -53 -54 60 -56 -57 57 -59 -60 -61 -62 -63
leaf_value=0.038037749415040532 -0.0050974984853222466 -0.0074621424492603925 -0.0028998539949254918 -0.013003164146110954 0.010543237698892658 -0.029616960282823762 0.0052269798882203632 -0.017487365425752525 0.0011316651277158479 -0.0098109532008542593 -0.033160052141160544 0.026336733757212651 0.03892188371069788 0.046392451327501055 -0.027623942335831438 0.0048923142693112496 -0.026110896569809347 0.01846289504425078 0.018609002601073683 -0.0066367045174114186 0.0073784681820989687 0.016383262899956674 -0.011904575618350259 -0.0039892055300170337 0.09157497356454937 0.022378769710484935 0.070271756297472551 0.0054564675742029764 0.0011184165995306481 -0.0033078144755452087 0.024759329762002361 0.010438050291305824 -0.011162802616216471 0.041189266859110771 0.074375467674414886 0.027443841404338965 0.010788332363918268 0.0327829674633748 0.038097288314787293 0.058618849994884814 -0.0031158151123406638 0.039910850154690133 0.032095777845739221 -0.0082508476493898582 0.017509789519215221 -0.020683979004987505 0.068543242628258505 0.082909283563118136 0.00021930153292088565 0.00088053082705929694 0.010261173181383053 0.014480982273018859 0.037325430350261694 0.037590708940545281 0.017818252018965253 -0.01140779725517619 0.014143975878515591 0.031882410920526225 -0.00042131538910826429 0.025638986247143138 0.047334322406728711 0.0034429299475207441
leaf_weight=318.18820089101791 863.94650754332542 334.67116242647171 341.31925511360168 6011.6734494417906 132.73163695633411 513.4874525219202 1717.93747651577 1815.573769390583 2839.940316811204 5970.5742385238409 342.00311516225338 129.67766177654266 171.05543777346611 69.04213935136795 913.73547677695751 553.58863943815231 3148.6118320375681 1477.1035254597664 302.82175604999065 2493.3988937735558 240.21024666726589 384.90748938918114 62.855731397867203 598.04871006309986 143.73896276950836 50.380454376339912 92.962606087327003 1952.1154184788465 56.694966226816177 1745.6624706983566 1324.0813824385405 140.36293983459473 57.373025119304657 295.38210821151733 108.25855793058872 532.58040697872639 100.8189200758934 429.48542983829975 75.323846220970154 108.14088454842567 83.115706011652946 70.204661250114441 657.18642973899841 78.619129106402397 448.68626318871975 93.426448196172714 93.226070567965508 48.363126218318939 47.38117054104805 623.73352138698101 1727.8416254371405 1000.155304312706 96.568733647465706 151.63980937004089 563.46720825135708 73.603604838252068 967.87206499278545 344.14201262593269 381.75043825805187 84.282821536064148 181.14066807925701 87.598918333649635
leaf_count=1358 3927 1532 1535 27876 583 2443 7768 8488 12776 27529 1645 555 721 296 4331 2488 14838 6480 1354 11426 1064 1727 282 2710 584 210 381 8784 245 7939 5807 609 252 1268 463 2295 436 1874 329 468 363 298 2822 351 2013 420 387 204 209 2781 7664 4425 424 667 2512 329 4314 1533 1708 367 794 383
internal_value=-3.68868e-05 0.0144086 0.0169515 -0.0101005 0.0303734 -0.00462681 -0.00381233 -0.0179845 0.0109866 -0.00603041 -0.0140932 0.0471272 0.0551347 0.0149197 -0.0222293 0.0066711 -0.0229611 0.0264143 0.0110769 -0.00224024 0.0159048 0.00295656 0.0138 0.00303645 0.0618479 0.072921 0.0537106 0.0053807 0.0324721 0.00092571 0.0220968 0.030952 0.0322935 0.0358527 0.0502518 0.0236768 0.0300938 0.0222397 0.0198487 0.0319156 0.0165934 0.0332257 0.036124 0.0171085 0.00771547 0.00117298 0.0495899 0.0579964 0.0132945 0.00787154 0.0153506 0.01986 0.0117134 0.0313059 0.0148211 0.0141702 0.0151184 0.0188175 0.00801165 0.0443807 0.0348009 0.0251536
internal_weight=46864.5 19242.8 17994.3 27621.7 5535.26 16303.9 15790.4 11317.9 12459.1 11927.6 6353.68 1055.92 681.041 6517.04 1248.41 5942.05 4964.19 4479.33 2717.2 5957 6175.72 3224.85 4611.42 3862.8 551.364 287.082 143.343 2998.85 374.883 3463.6 1564.29 2143.26 2010.53 1420.58 403.641 589.953 1016.94 2336.07 1906.59 350.863 158.44 876.573 775.754 1555.72 2400.8 647.015 264.282 118.568 4542.38 1250.06 3292.33 1467.92 1824.41 467.761 626.323 2070.19 1996.59 1312.01 684.572 192.424 420.379 239.239
internal_count=212644 85258 79395 127386 23903 74539 72096 52847 55492 54662 29521 4441 2838 28843 5863 26649 23326 19462 12146 27133 27308 14503 20437 17434 2283 1175 591 13507 1603 15707 6871 9230 8647 6100 1731 2547 4369 10232 8358 1527 692 3760 3324 6831 10797 2908 1108 502 20141 5575 14566 6478 8088 2053 2794 9238 8909 5847 3062 835 1844 1050
is_linear=0
shrinkage=0.05


Tree=8
num_leaves=63
num_cat=0
split_feature=6 64 6 64 6 64 6 32 38 64 6 64 64 6 38 17 38 64 6 6 64 6 37 46 6 6 64 64 6 38 34 38 8 46 23 13 64 6 64 5 15 64 6 61 63 10 65 39 34 46 38 6 38 6 6 38 21 38 64 38 38 64
split_gain=1001.37 806.964 657.5 354.138 284.816 244.443 220.017 171.928 171.256 140.766 124.267 121.133 119.694 116.843 102.882 97.7464 93.6765 91.6045 81.6589 79.0835 77.1763 76.7216 68.9681 63.7565 63.7094 63.0456 62.6578 61.1975 59.5966 57.0317 56.0701 55.8588 58.2044 55.5518 58.2872 55.3927 54.2953 69.0264 69.0978 53.9301 57.6567 53.8824 81.7816 61.2482 54.8973 53.658 53.2479 52.2807 52.0072 64.7066 51.5093 50.3557 49.6716 48.8917 48.8256 48.7115 48.6619 48.1009 46.981 66.6706 56.8723 44.7805
threshold=0.0029887283944818326 -0.00013584569496426926 -0.0014047284949157965 0.0022720356489214538 0.0062706909236449624 -0.0025889292944412481 -0.0068592123129617147 0.00085906044028964082 374.50000000000006 -0.0074247506842504358 0.0013174944290489379 0.001551298177577871 0.0044266476432096389 -0.012227057995648492 170.50000000000003 0.0041406477537038059 370.50000000000006 -0.0044973479167066408 -0.0029909933743373913 -0.0024882036905701783 -0.0010692073879642805 0.004383332274329855 -0.62616488140825843 15.875000000000002 -0.00087679602828794046 -0.00015307231760097737 -0.016536144418684409 0.0051835229857841282 0.0049110557802015684 180.50000000000003 0.0023666958541866891 266.50000000000006 1.0000000180025095e-35 17.860000610351566 0.0033433134322675435 0.2100000000000001 0.0064019837052431685 0.0081732944534335123 0.0089643022237877422 1.0000000180025095e-35 0.044999999999999991 -0.0113530700376289 -0.0091476479344336208 -0.0021364216344412763 0.66990291262135948 2.8650000000000007 0.020267429468253887 0.60714280886619421 0.0033459673482254901 18.564999580383304 374.50000000000006 -0.0080710228932908672 365.50000000000006 -0.018905006470917803 0.01180743455929001 368.50000000000006 -2.8342902135756591 268.50000000000006 0.010624004439854499 198.50000000000003 306.50000000000006 0.00079872595609103893
decision_type=2 2 2 2 2 2 2 2 2 2 2 2 2 2 2 2 2 2 2 2 2 2 2 2 2 2 2 2 2 2 2 2 2 2 2 10 2 2 2 2 10 2 2 2 2 8 2 2 2 2 2 2 2 2 2 2 10 2 2 2 2 2
left_child=1 2 5 31 12 6 9 36 10 13 14 29 28 16 33 58 26 23 50 45 -4 -14 51 56 -16 -22 53 55 -5 -12 -13 32 -2 -3 48 -21 -6 38 46 40 -10 43 44 -15 -43 -7 -38 -29 -35 -50 -19 -11 -25 -1 -17 -23 -8 -30 59 -9 -60 -26
right_child=3 8 20 4 7 19 17 15 39 22 11 30 21 41 24 54 -18 18 -20 35 25 27 -24 52 61 -27 -28 47 57 -31 -32 -33 -34 34 -36 -37 37 -39 -40 -41 -42 42 -44 -45 -46 -47 -48 -49 49 -51 -52 -53 -54 -55 -56 -57 -58 -59 60 -61 -62 -63
leaf_value=-0.005491627041248703 0.016660263189285259 -0.015044336802239603 0.01841828968303209 -0.0019993890039733653 0.009555903062586215 -0.027580521356743048 0.025774366483542782 0.013376683592832232 -0.0070063342654823743 -0.011915104812121701 -0.0066143538925333804 -0.016934197852825204 -0.022048741049162292 0.0041250465858279932 -0.028426505543429254 -0.0033979292262886727 0.021397529717399819 -0.0058416851896298527 0.012988578192420126 -0.0064767169224426591 -0.0011452490699777153 0.0018402825973009729 -0.019204417007601171 0.016061018361861558 -0.010331015803749363 0.013750006254598785 -0.013358440969942296 -0.014495460434745869 0.0059072696538129445 0.010089689055692063 -0.001639801127855332 0.029235890724732479 -0.0073194349114634868 -0.0073333552832091711 -0.016446283011226453 0.022694790868226955 -0.013693733702966067 0.0028328806404408326 -0.032695612673961642 0.04072019722914199 0.028659311116720959 -0.010354525113695882 0.013925141988532716 0.033561288880713962 0.03029904272849784 -0.013277252689177199 0.0099677485242116188 0.0050570375791873911 0.046842992023839208 0.0043118559975134484 0.021578294066397198 0.013332012936810772 0.047199530680539309 0.016492806806901832 0.010574208680782919 0.04225838141458025 0.0016985577385598477 0.028441822423041649 0.016743471363043615 0.025178781114001594 -0.0018726664576831191 -0.021823666448103227
leaf_weight=1005.4347009956837 5473.4128307700157 4730.8350211679935 4050.3935685455799 2714.5300621390343 1753.871680945158 818.33179104328156 242.96171256899834 2934.0149616599083 333.55895948410034 515.22987797856331 973.51507937908173 2533.9504452347755 969.23289999365807 358.95428550243378 2085.0580972731113 1151.0001279711723 276.57177624106407 2485.320656478405 968.48491424322128 1609.0295127332211 1183.8429611027241 696.98904502391815 2144.5893234312534 1651.4573324918747 1376.5200507640839 1774.7700996398926 2500.6886487901211 1595.0658065974712 1146.7245830893517 1073.3820000588894 785.06252950429916 858.38835865259171 264.77767807245255 599.41451522707939 646.26808950304985 180.04815924167633 613.36294683814049 3620.6543553173542 277.73672404885292 133.64904677867889 170.3995398581028 962.65057152509689 858.75281980633736 347.67873880267143 89.906034469604492 3314.2127270996571 386.99132207036018 434.52775499224663 117.25716954469681 367.84202098846436 182.9691971540451 318.89828786253929 138.24568831920624 336.77337944507599 1366.9049962759018 82.487804383039474 1503.5153176188469 297.7183932363987 922.83714747428894 2026.0969251096249 737.66540604829788 2217.891348272562
leaf_count=2739 14752 12935 10911 7369 4744 2249 657 7916 904 1406 2645 6922 2657 970 5734 3124 748 6756 2617 4380 3212 1891 5872 4463 3762 4792 6830 4345 3102 2906 2139 2310 718 1638 1767 487 1668 9814 756 359 460 2628 2319 935 244 9070 1052 1180 319 1004 493 867 373 913 3695 222 4073 803 2493 5465 1993 6077
internal_value=-2.11812e-05 -0.00451748 0.000541535 0.00709042 0.00424112 -0.00357407 -0.000509016 0.00812466 -0.0128313 -0.00541219 -0.0137584 -0.0074199 -0.0034852 -0.00140984 -0.016559 0.0125757 -0.00665833 0.00613241 0.000560142 -0.0123144 0.0139343 -0.00992593 -0.0144614 0.0118614 -0.0214692 0.00779153 -0.00868254 -0.00573675 0.00236699 0.00214581 -0.0133181 0.0173374 0.0155527 -0.0122405 -0.00457234 -0.00352993 0.00200945 -0.000693766 -0.0106787 0.0126073 0.00508588 0.00684831 0.00248307 0.0186353 -0.00685656 -0.0161156 -0.00453938 -0.0103089 0.00251205 0.0146676 -0.00395407 -0.00225839 0.0184913 3.26584e-05 0.00418837 0.00616617 0.0050607 0.0105684 0.0157644 0.0182017 0.00847725 -0.0174265
internal_weight=78289.3 47964.3 29819.7 30325 23728.4 22810.7 16889.1 15791.1 18144.6 9716.13 17507 5365.91 7937.28 6737.41 12141.1 9138.52 4119.47 7172.95 3636.77 5921.62 7009.01 3778.3 2978.72 3536.18 5679.47 2958.61 3842.9 2809.07 4158.97 2046.9 3319.01 6596.58 5738.19 6461.62 1730.78 1789.08 6652.62 4898.75 1278.09 637.608 503.958 2617.94 1911.31 706.633 1052.56 4132.54 1000.35 2029.59 1084.51 485.099 2668.29 834.128 1789.7 1342.21 2517.91 779.477 1746.48 1444.44 6620.61 4960.11 1660.5 3594.41
internal_count=212644 130575 81004 82069 64289 62089 45903 42720 49571 26471 47848 14612 21569 18326 33236 24686 11230 19432 9866 16186 18915 10295 8145 9566 15573 8004 10482 7638 11274 5551 9061 17780 15470 17663 4728 4867 18034 13290 3476 1723 1364 7096 5191 1905 2872 11319 2720 5525 2961 1323 7249 2273 4836 3652 6819 2113 4730 3905 17867 13381 4486 9839
is_linear=0
shrinkage=0.05


Tree=9
num_leaves=63
num_cat=0
split_feature=6 64 6 6 64 64 46 6 64 6 64 64 48 6 13 64 13 34 38 10 6 21 38 15 21 6 38 17 23 38 18 6 64 32 64 34 6 18 15 45 38 34 17 64 45 62 34 45 15 14 49 18 23 6 34 64 6 64 38 6 23 6
split_gain=1716.35 279.026 390.391 276.729 679.609 191.66 174.588 155.947 117.14 143.283 106.357 98.096 72.646 70.4773 69.4673 69.2454 73.7145 65.8965 77.418 71.3072 65.3441 65.5671 70.1222 60.7569 62.0374 58.0654 57.3259 56.3595 55.4661 55.2989 69.1548 55.041 55.2464 53.7162 53.714 53.4838 52.4393 51.3474 50.5943 49.6469 54.4391 51.3121 49.1262 47.6598 46.9664 46.9544 45.4687 45.3209 45.1274 53.1518 44.0489 43.9199 43.0798 42.9708 42.2375 41.915 53.8318 41.7018 44.8498 46.1738 41.4373 47.5011
threshold=-0.0019624485358703532 -0.0026681711788645178 -0.0091476479344336208 0.0019362580152746391 0.00013540568551398272 0.0023709683077037034 19.015000343322757 0.0032929241671172398 -0.0078652934113857334 -0.0048522189846363353 0.0031857976956254576 -0.0090500430849359322 -0.0047067668829343283 -0.015609045031882372 -0.41000000000000009 -0.0011259987959811137 0.029999999999999919 0.0013847877613080294 344.50000000000006 2.7850000000000006 0.0052448081869634908 2.7719752749750537 162.50000000000003 0.10000000000000003 3.0937500000000653 -0.00087679602828794046 287.50000000000006 0.0013376032979745243 0.0037953528413070228 311.50000000000006 -0.038938200839652375 0.011926666566806412 0.017519869023025741 0.00090143356070522768 -0.016536144418684409 0.0010852587457234068 -0.0031849240314788525 -0.045526262726127691 0.059999999999999977 0.047312370481515272 365.50000000000006 0.00098476102083742381 0.0047261893446096199 -0.00013584569496426926 0.047312370481515272 0.0046844663508971438 0.0025114457219924126 -0.054500765109989018 -0.029999999999999982 0.29500000000000004 0.0022348319783827473 -0.5836098623447582 -0.00089888656624167638 0.010667315293861336 0.0047410061114719557 0.0016002374561671186 0.00080848588880078076 0.007348260160796467 337.50000000000006 0.010621865947444966 0.00052187328602050032 0.0094609242297776248
decision_type=2 2 2 2 2 2 2 2 2 2 2 2 2 2 8 2 10 2 2 10 2 10 2 8 10 2 2 2 2 2 2 2 2 2 2 2 2 2 10 2 2 2 2 2 2 2 2 2 10 2 2 2 2 2 2 2 2 2 2 2 2 2
left_child=1 2 11 4 15 47 7 35 -4 37 23 13 -3 -1 -14 16 -2 18 28 -20 -19 22 60 24 55 39 -12 48 -9 30 43 -29 -33 -27 -15 -7 -31 -10 -21 40 41 -17 -23 -16 50 -32 -25 -5 -8 -50 -39 -36 -47 -30 -45 56 -6 -24 59 -59 -22 -62
right_child=3 12 8 5 10 6 27 17 9 -11 26 -13 14 34 29 25 -18 20 19 38 21 42 57 46 -26 33 -28 31 53 36 45 32 -34 -35 51 -37 -38 44 -40 -41 -42 -43 -44 54 -46 52 -48 -49 49 -51 -52 -53 -54 -55 -56 -57 -58 58 -60 -61 61 -63
leaf_value=0.017875931623139961 -0.021210782051909616 0.048239858442895224 -0.012384806760357123 -0.0074662987128219192 0.004624710995922608 -0.013936335240342069 0.01034244233076774 -0.021186560560349024 0.014868182432836531 -0.004949117413962166 0.017298452012409229 0.024144851667717071 -0.015653574081957902 -0.018173457519271886 0.01679130834401386 -0.030396643625970877 -0.0079936731457032183 0.00063082653742421236 0.021635675559355035 -0.0015703982584058308 -0.027176268024578183 -0.0046729236984877935 -0.022530019200596239 0.0094446693185254119 0.031324752496097209 -0.015017588932042511 0.046501691359922666 0.01341990507525352 -0.0031690252011086864 0.038170892870477147 0.010200948287995445 -0.012869395656981912 0.014080061499275091 -0.0018204687335112311 0.036520182784548369 0.0092551204303493572 0.016847736072664255 -0.0086096751266427872 -0.031625185965056583 0.039252278664192057 0.034830682455853128 0.0016429609566141271 0.014963519394069591 0.033156526238626943 0.010867774488283166 -0.0016980147617785442 0.029893084680341769 -0.016141757889647362 -0.022532630632308558 -0.00024627852079339788 0.02686961950360596 0.0063074126827388187 0.030081190597000165 -0.020587791201217384 0.0040342624741844871 0.0091278156007648398 -0.0083433681827590773 -0.0064977448413414355 0.0016433453420606231 -0.023897140115356735 0.00032191937217898196 -0.010431628536551711
leaf_weight=2271.5916194617748 2193.2560195624828 189.51086747646332 1624.3537440598011 1924.7665809094906 2514.7731173932552 291.19640919566154 413.69769880175591 2641.254301160574 1925.7369028925896 3435.332849085331 1533.5939982533455 2239.8871490061283 159.14281061291695 213.79475292563438 1757.7119127810001 144.95545846223831 2035.3682033717632 2243.4389804601669 252.33689871430397 563.00411778688431 235.11326313018799 2203.3700200021267 1515.8074581921101 716.11848318576813 210.92043992877007 1822.1813055872917 188.33337727189064 1721.9943006038666 1010.7845997214317 593.25562533736229 4011.3043810427189 490.69290116429329 309.13412383198738 1336.6702623069286 126.30382257699966 1668.1435236334801 565.52560865879059 821.78229668736458 185.43563345074654 88.67595574259758 104.14318642020226 868.30394819378853 371.3204790353775 1059.8618445396423 984.87498188018799 130.78197976946831 438.67192533612251 6952.6630679368973 438.22726762294769 684.47052240371704 96.915023237466812 2204.5316174328327 574.28378969430923 544.32801851630211 141.39900901913643 2275.872894436121 1172.5595365464687 718.31321570277214 488.43986362218857 814.1485601067543 1852.6431388258934 2302.9388262033463
leaf_count=6272 6280 517 4616 5493 7008 824 1159 7540 5357 9693 4243 6157 443 605 4864 416 5804 6304 710 1589 668 6244 4319 1988 585 5178 517 4830 2866 1634 11121 1389 864 3778 349 4655 1563 2306 526 244 287 2439 1040 2917 2739 361 1211 19837 1241 1925 271 6153 1578 1558 388 6344 3297 2045 1383 2323 5251 6538
internal_value=4.18492e-05 0.0107192 0.00672009 -0.005273 -0.000222722 -0.00798654 -0.005661 -0.00758825 -0.000250631 0.00246387 0.00933854 0.0155003 0.0176618 0.0114758 0.0170122 -0.0102927 -0.0148524 -0.00905082 -0.0137962 -0.00129835 -0.00711492 -0.00876946 -0.0110207 0.00670957 0.0047391 -0.005873 0.0205177 0.00379003 -0.0167757 0.0176023 0.0160611 0.00838797 -0.00244882 -0.00943556 0.00575763 0.00580306 0.0277879 0.00911373 -0.00904912 0.00345783 0.00058466 -0.00296603 -0.00183626 0.0220543 0.00328752 0.0122973 0.0172316 -0.0142618 -0.00375751 -0.00895771 -0.00484175 0.00795955 0.0241924 -0.00927534 0.0297348 0.00379366 0.000499761 -0.01626 -0.0115482 -0.015751 -0.00679778 -0.00563855
internal_weight=75609.9 25127.9 15945.1 50482.1 17644.4 32837.7 23960.2 19902 8889 7264.64 9050.84 7056.11 9182.78 4816.22 8993.27 8593.55 4228.62 17942.7 5197.14 1000.78 12745.5 10502.1 7927.4 7328.92 6174.13 4364.93 1721.93 4058.22 4196.37 8834.12 7675.34 2521.82 799.827 3158.85 2544.63 1959.34 1158.78 3829.31 748.44 1206.08 1117.4 1013.26 2574.69 2958.97 1903.57 4716.37 1154.79 8877.43 1536.4 1122.7 918.697 2330.84 705.066 1555.11 1201.26 5963.21 3687.33 3536.71 2020.9 1532.46 4390.7 4155.58
internal_count=212644 69904 44518 142740 49619 93121 67791 56383 24982 20366 25193 19536 25386 13379 24869 24426 12084 50904 14789 2825 36115 29811 22527 20433 17234 12342 4760 11408 11964 24426 21229 7083 2253 8956 7107 5479 3197 10673 2115 3386 3142 2855 7284 8169 5316 13060 3199 25330 4325 3166 2577 6502 1939 4424 3305 16649 10305 10070 5751 4368 12457 11789
is_linear=0
shrinkage=0.05


Tree=10
num_leaves=63
num_cat=0
split_feature=34 38 34 32 32 38 32 34 34 34 38 14 20 64 13 37 13 63 23 61 22 65 14 13 14 39 37 22 21 17 61 30 22 34 21 21 12 20 15 22 45 12 23 62 62 63 64 17 21 65 18 39 45 13 22 65 17 30 10 61 10 37
split_gain=2499.15 659.169 508.716 451.145 126.373 126.363 89.2554 84.6589 75.8024 54.6876 51.0086 44.4974 48.7344 40.9282 40.2034 38.302 37.3132 36.9035 35.6485 33.4999 29.8785 29.0576 28.2679 35.0731 27.1964 26.9738 29.3473 26.9602 27.961 38.32 26.8957 26.5715 26.2159 25.5481 32.0622 43.6604 32.7447 30.6203 27.9802 24.1516 32.226 23.6785 23.3813 23.0539 22.7014 22.6334 24.036 22.4359 21.965 21.4813 27.7093 21.4863 24.7077 21.3495 20.7356 20.3911 19.9556 19.6446 18.9576 18.8412 20.2408 19.5699
threshold=0.0018636458308106314 369.50000000000006 0.0012264670604020969 0.0014399776606452044 0.00039016970050842779 371.50000000000006 0.0010035619427615718 0.0041486433405960544 0.0015630053699993193 0.0025114457219924126 374.50000000000006 0.49500000000000005 0.044643433695590616 -0.0042345769571485491 1.0000000180025095e-35 0.96895112360571434 -0.015000000000000123 0.89420906298235525 -0.00015523174745155186 -0.0020272363541087297 0.003323462898928257 0.015201698536588372 0.47500000000000003 -0.015000000000000123 -1.0099999999999998 -0.66910889689578534 0.34705030558948152 0.0026915040329606485 2.8133830845771262 0.00069659480170867008 0.00037154435162500837 -0.24649693124383093 0.0018349356456436193 0.0010574554251540635 2.9481673383227265 0.24828759089843477 2.1150000000000007 -0.088685374860223945 -0.064999999999999988 0.0021438654618375678 -0.019636199294238706 1.5350000000000004 -0.0039809544466445877 0.0010763849585768705 0.0049273461068031219 0.8351104433977744 0.0020773564223860812 -0.00031366502504818073 3.9428571428571346 -0.00088513457748495828 0.078890205653777926 -0.93209922330095385 0.0059420031225188028 -0.029999999999999912 0.0020846795989629533 0.0055900482903799018 0.00047125491945665447 -0.047324422859007342 2.6850000000000005 0.00084020598945366853 2.9950000000000006 -0.72117904844717207
decision_type=2 2 2 2 2 2 2 2 2 2 2 2 2 2 8 2 8 2 2 2 10 2 2 10 2 2 2 10 10 2 2 2 10 2 10 10 2 2 10 10 2 2 2 2 2 2 2 2 10 2 2 2 2 8 8 2 2 2 10 2 10 2
left_child=1 2 4 5 11 6 17 10 13 57 54 16 18 -4 19 -3 -1 27 -13 -10 -9 -16 24 -24 -15 26 56 28 55 -30 -25 -23 -18 34 35 38 37 -37 -6 40 45 -35 -21 -42 -36 -26 53 -40 -45 -43 -51 -52 -53 -47 -5 -2 -20 -8 -44 -39 -61 -62
right_child=3 15 8 7 33 -7 9 20 14 -11 -12 12 -14 22 21 -17 32 -19 25 42 -22 31 23 30 39 -27 -28 -29 29 -31 -32 -33 -34 41 44 36 -38 59 47 -41 43 49 58 48 -46 46 -48 -49 -50 50 51 52 -54 -55 -56 -57 -58 -59 -60 60 61 -63
leaf_value=0.039762387285384504 -0.0038251783341383509 -0.0072746592192827753 -0.0027356225939348141 -0.0084825056873190693 0.04151861132788659 -0.029133374167447764 0.001052595408917175 -0.018551676169476804 -0.010939512629314937 -0.010389091106586718 -0.032703561626738202 0.008695630254400382 0.063967740811408519 0.043463515047113759 -0.00085222772246992167 -0.027156939265470512 -0.0025450854006795857 0.0077472187791855556 0.060745240618900666 -0.0019771614034329592 -0.02640609082163306 0.038353931640804639 0.026064697558216377 -1.7442951841408636e-05 0.0011793554232933344 0.030596733231717573 0.081050635138456784 -0.0075420492049390322 0.057895734566190231 0.0053638338250801198 0.020261818758002766 0.0072502857440947428 0.034553660107965324 -0.0031431586186936749 0.0076118807120556312 0.0017177008145476394 0.003959753281382105 0.035795538069865317 0.022887549985988062 0.0063242930636192504 0.013670565819188045 0.036781551423943029 0.02961427166772735 0.026811829246470839 0.033898017685189109 0.046525771783605716 0.0088778574869511438 -0.0078451643675479018 0.00025906512255903649 0.016954853101696889 0.0054631928344915006 0.045536912974989449 0.017929935697639957 0.010518720098898374 -0.014720550209246119 0.0034442374352779861 0.020673804861967286 -0.0059995853878421768 0.012217373320377546 0.061657958923912404 0.056841683301640022 0.014502605548904904
leaf_weight=404.93987828493118 1885.3430717438459 333.23424205183983 340.17730174958706 2025.3201812803745 73.652497127652168 501.47381944954395 1945.5727324038744 2454.4032212495804 170.1120428442955 5026.1838247925043 332.65497666597366 82.164728313684464 332.57222938537598 71.127573311328888 2132.258208796382 895.01060336828232 113.24025654792786 1448.6174018532038 65.952214911580086 274.1551378518343 2419.7202785313129 73.922674387693405 1075.3331201374531 289.78855317831039 588.1751629114151 179.54268838465214 80.648309171199799 1289.35290569067 48.08775819838047 119.38612423837185 374.17304462194443 835.55806110799313 81.019209355115891 99.962318360805511 273.17782825231552 55.814804598689079 75.957171276211739 830.99949948489666 109.46794825792313 1176.4016134142876 1120.3112655729055 213.93579886853695 167.61446560919285 841.19412751495838 116.9815928786993 94.718387186527252 460.7152124941349 127.62556160986423 85.842754691839218 1563.5374998301268 68.327294155955315 238.62781630456448 125.40397807955742 73.525810599327087 3922.7324165403843 1973.3737612366676 60.852558776736259 2003.7935398370028 2318.7449265420437 173.6129712164402 49.509097799658775 61.43855956196785
leaf_count=1679 8589 1532 1535 9459 313 2443 8866 11653 766 23363 1645 342 1333 296 9561 4331 481 6534 266 1239 11673 326 4646 1263 2584 737 318 5879 216 539 1622 3711 341 432 1161 240 323 3483 469 5190 4920 914 741 3663 495 411 2017 551 374 6766 293 1012 536 322 18417 8925 245 9185 10305 710 202 261
internal_value=-3.70041e-05 0.0136682 0.016058 -0.00976777 0.0285049 -0.00444981 -0.00366158 -0.0175095 0.0104499 -0.00692993 -0.0136682 0.0415376 0.0492673 0.0141467 0.00636819 -0.021773 0.0311304 0.000675655 0.0387327 0.0105466 -0.0224556 0.00234027 0.0150657 0.0204856 0.0129724 0.0450712 0.0573913 -0.00125262 0.000762893 0.0207017 0.0114241 0.00981774 0.0130253 0.0242083 0.0284378 0.0316506 0.0358294 0.0378909 0.0148157 0.0124744 0.014688 0.0206301 0.0118741 0.0185184 0.0155598 0.00823487 0.0148205 0.0063809 0.024356 0.0217064 0.0200729 0.0312837 0.0361019 0.0309452 -0.0125983 -0.000107621 0.0418275 -0.00252609 0.0134016 0.0396975 0.0509273 0.0337349
internal_weight=46847.1 19451.1 18222.8 27396 5658.96 16241.2 15739.7 11154.8 12563.8 8975.55 6280.71 1400.93 801.733 6591.48 5972.37 1228.24 599.199 6764.16 469.16 2930.63 4874.12 3041.74 6251.31 1739.29 4512.01 386.996 207.453 5315.54 4026.19 167.474 663.962 909.481 194.259 4258.03 1948.24 1558.08 1247.33 1171.37 310.746 4440.88 3264.48 2309.79 2760.51 2047.35 390.159 1217.13 628.959 237.094 927.037 2209.83 1995.9 432.359 364.032 168.244 5948.05 3858.72 126.805 3949.37 2486.36 1115.56 284.561 110.948
internal_count=212644 85258 79395 127386 23903 74539 72096 52847 55492 41414 29521 5742 3241 28843 26649 5863 2501 30682 1908 13051 23326 13598 27308 7531 19777 1566 829 24148 18269 755 2885 4037 822 18161 8208 6552 5219 4896 1333 19481 14291 9953 12285 8957 1656 5334 2750 1020 4037 9521 8607 1841 1548 733 27876 17514 511 18051 11046 4656 1173 463
is_linear=0
shrinkage=0.05


Tree=11
num_leaves=63
num_cat=0
split_feature=6 64 6 64 6 64 6 32 6 64 64 45 64 17 64 6 39 32 6 48 64 64 6 64 6 7 64 6 45 13 6 6 39 13 63 23 6 39 21 46 30 11 23 39 39 34 8 39 6 48 14 64 12 18 39 64 6 21 10 46 15 39
split_gain=916.791 746.249 606.241 325.957 259.763 222.698 200.225 177.322 134.307 133.447 123.969 98.6302 89.6001 85.5817 77.376 100.571 74.7886 74.6503 74.373 71.7343 71.126 64.7621 105.681 62.5007 59.4002 53.5999 53.0704 63.0015 51.0725 49.9517 48.4712 48.2976 46.4956 60.8294 46.0718 52.7535 44.2733 46.045 44.2459 47.7345 43.939 42.8756 42.4266 41.9036 41.7066 40.7371 53.5809 40.1159 45.9836 43.4241 39.4468 39.2761 39.1465 39.0666 38.969 38.9005 54.8353 40.5036 39.8315 38.8075 38.5227 38.4578
threshold=0.0029887283944818326 -0.00017873970938694962 -0.0014047284949157965 0.0022720356489214538 0.0051765068603215622 -0.0025889292944412481 -0.0074345389594597236 0.00084031842411313366 -0.00016633057393905523 0.001551298177577871 -0.0074247506842504358 0.10600204873107434 0.0043511083726688179 0.0042706837721627781 -0.0066596539213379874 -0.0041592235006418501 -0.13650918285440786 0.00087805436806772514 -0.0024882036905701783 0.0036345945226125605 -0.014678886688867692 0.0065060332818415922 0.0081732944534335123 -0.0011259987959811137 -0.00015307231760097737 5946.6250000000009 -0.012763333572593537 -0.0091476479344336208 0.0037470328453164119 0.2100000000000001 0.01180743455929001 0.004383332274329855 -0.23931566428755782 -0.38999999999999996 0.91466374908825976 0.008465533007503738 0.0013420558641425997 0.21577719580415741 3.4908249158249123 13.305000305175783 0.027252514245239178 0.11000000000000011 -0.0025596075826305464 -0.16835157912346463 0.83644299933595334 0.0039176771666145369 1.0000000180025095e-35 -0.74848646327620527 -0.010195530060887302 -0.00087538156265361559 0.40000000000000008 -0.0088066447994576882 1.6850000000000003 -0.3147261795454312 -0.39935162646793765 0.0093622510308081063 0.0066651824177252914 2.2116086468276666 4.0450000000000008 17.154999732971195 0.05000000000000001 -0.24712108883887543
decision_type=2 2 2 2 2 2 2 2 2 2 2 2 2 2 2 2 2 2 2 2 2 2 2 2 2 2 2 2 2 10 2 2 2 10 2 2 2 2 10 2 2 10 2 2 2 2 2 2 2 2 2 2 2 2 2 2 2 10 10 2 8 2
left_child=1 2 5 45 12 6 10 21 16 36 11 26 -5 38 42 61 28 -11 25 -18 -13 -6 55 43 59 32 53 -28 -3 -20 -15 -14 -7 -34 35 -32 -10 -38 -9 -40 -24 -17 -8 -4 -37 46 -2 49 60 -12 -46 -29 -19 -1 -33 56 -23 58 -58 -25 -49 -16
right_child=3 8 23 4 7 18 14 13 9 17 47 20 31 30 15 41 19 52 29 -21 -22 22 40 24 -26 -27 27 51 -30 -31 34 54 33 -35 -36 44 37 -39 39 -41 -42 -43 -44 -45 50 -47 -48 48 -50 -51 -52 -53 -54 -55 -56 -57 57 -59 -60 -61 -62 -63
leaf_value=-0.0023119197154477743 0.015920671120630451 -0.016945965821831627 0.024600910114550623 -0.00029701752431784848 0.0068139613255112823 -0.018693715602510843 0.0093127532904445833 0.015067840358944845 -0.00665407297665516 -0.018564878143534747 -0.041919268024905962 -0.00033169996455127281 -0.021465294866764746 -0.0039216837332554048 -0.0096867475028463434 0.0067677217490703118 -0.015068181191614306 -0.02052085430733068 -0.0059896565326656645 0.012689226705645354 -0.014243739659242411 -0.025727865250568801 0.0055316514415605167 -0.0042324623080136998 0.013989490399025212 -0.023794114168136662 -0.0035296223894033907 0.030976838935058128 -0.031049574688754845 0.021968333826625289 0.032354519002501657 -0.01934611341695831 0.037423202374217909 -0.0079576015571825223 -0.0018471134794258992 0.02026534375522545 0.0094920171324290939 -0.0053785963714662504 0.028508471305759061 -0.0013049159677820396 -0.008225650094663018 0.025048042379758668 0.025770203799597755 0.013841448394570645 0.0090325689946643712 0.025129826132077721 -0.0068713127521779233 -0.0087113425393898613 -0.0050428639125293558 -0.013272875886538646 -0.033006357264456117 0.0051968744854686512 -0.0036822205578438886 0.027102543083900296 0.00031793035570478704 -0.034723742351282054 0.035656407252069804 -0.008843154316232343 -0.011187947316956914 0.021268576406714541 -0.029868246326046267 0.001738212834641502
leaf_weight=155.82818529009819 5182.3690646588802 1256.9154229164124 1423.7657196521759 2967.0902917683125 3182.5038025081158 1239.1803591251373 1300.7669942080975 6932.1977460384369 2817.0494278371334 3353.7109044790268 255.52482125163078 1857.0510102808475 1036.1778184771538 1243.6488624811172 1476.0042288303375 2727.3769069314003 4981.2976562380791 423.49691876769066 1567.1987712681293 243.43796080350876 1817.3627102077007 401.61508631706238 2683.8892473578453 1018.3870860636234 1737.6084912419319 1314.1877260506153 1578.5871549844742 241.50834089517593 1322.0835530757904 176.90216457843781 335.89081570506096 383.57288730144501 76.854978680610657 1437.7604128718376 520.98867547512054 258.00717487931252 1177.411801636219 931.58295112848282 160.01421868801117 807.59339335560799 739.5182246863842 362.80221930146217 560.6459473669529 2499.7000628709793 128.72525182366371 1156.3177374899387 270.82675105333328 394.19011586904526 1141.9183053672314 275.99820011854172 97.068237334489822 379.37132036685944 1850.4894608259201 407.17111092805862 730.49534732103348 184.42084726691246 112.99009662866592 757.17911365628242 74.755765974521637 173.7681919336319 475.73688873648643 1468.7858145534992
leaf_count=423 13941 3460 3825 8053 8613 3403 3508 18672 7704 9199 705 5056 2851 3377 4016 7375 13675 1159 4271 662 4980 1098 7272 2763 4684 3629 4303 649 3655 477 906 1051 210 3934 1407 696 3184 2533 431 2184 2005 978 1512 6719 347 3104 735 1085 3128 760 262 1025 5055 1099 1987 505 307 2062 203 471 1310 3991
internal_value=-1.82839e-05 -0.00432619 0.000593514 0.00678101 0.00404635 -0.00334312 -0.000435899 0.00678821 -0.0122429 -0.00856396 -0.0055425 -0.00184893 -0.00593012 0.0110863 0.00537161 0.00262176 -0.0172165 -0.0138235 -0.0117833 -0.0137727 -0.00721459 0.00124949 -0.00232557 0.013625 0.00809509 -0.0154861 0.00528808 0.0017785 -0.0241852 -0.00314295 0.00318659 -0.0136994 -0.0115141 -0.00563171 0.00977842 0.0171608 -0.00255366 0.00292395 0.0136699 0.0036497 0.00255829 0.00892133 0.0142808 0.0177512 0.00656712 0.0166005 0.0147877 -0.014886 -0.0116479 -0.0270972 -0.00910574 0.0152584 -0.00682581 0.0189715 -0.00646366 -0.013241 -0.0102752 -0.00368715 0.0170437 -0.000500728 -0.0203024 -0.00398961
internal_weight=78247.3 47899.4 29541.9 30347.9 23738.3 22688.7 16876.6 18621 18357.5 10553.7 8980.25 6436.88 5117.34 10484.1 7896.38 6034.97 7803.73 5627.7 5812.08 5224.74 3674.41 8136.87 4954.37 6853.23 2929.76 4067.98 2762.47 2199.47 2579 1744.1 2584.33 2150.25 2753.8 1514.62 1340.68 819.691 4926.04 2108.99 7899.81 967.608 3423.41 3090.18 1861.41 3923.47 483.801 6609.51 5453.2 2543.37 2011.85 531.523 225.793 620.88 2273.99 562.999 1114.07 1530.96 1346.54 944.925 187.746 1192.16 869.927 2944.79
internal_count=212644 130575 80289 82069 64289 61827 45903 50347 50286 28834 24523 17535 13942 28282 21380 16360 21452 15413 15924 14337 10036 22065 13452 18462 7918 11176 7499 5977 7115 4748 6995 5889 7547 4144 3618 2211 13421 5717 21287 2615 9277 8353 5020 10544 1305 17780 14676 6988 5523 1465 609 1674 6214 1522 3038 4175 3670 2572 510 3234 2395 8007
is_linear=0
shrinkage=0.05


Tree=12
num_leaves=63
num_cat=0
split_feature=6 64 6 6 64 64 6 49 64 6 34 6 64 64 6 64 34 39 23 64 15 14 6 18 10 64 13 64 6 61 38 21 11 34 64 37 62 37 62 62 65 11 38 65 38 2 28 49 11 65 37 23 49 30 64 6 6 38 64 10 38 17
split_gain=1542.13 248.751 299.517 248.59 603.244 172.16 146.722 142.193 134.017 121.12 97.3483 97.9731 96.6253 89.7713 86.9315 86.927 76.528 73.6979 91.9465 70.4985 65.6201 64.4005 64.3141 62.4673 59.7336 59.4928 70.2376 59.2687 104.787 55.4102 53.2343 52.1793 51.9387 51.773 49.4776 47.2289 46.9155 46.3852 46.1932 45.9991 47.6863 45.9871 45.5958 44.5041 44.462 44.4461 43.971 43.8975 43.6795 42.3179 42.1969 42.0435 43.805 41.393 41.2566 75.0153 54.1684 51.2196 72.0258 52.6471 41.1934 40.9235
threshold=-0.0019624485358703532 -0.0019780397541572887 -0.0091476479344336208 0.0018929049880032081 0.00013540568551398272 0.0023709683077037034 0.0034483295704280663 0.0031364634344065909 -0.0078652934113857334 -0.0048522189846363353 0.0019833446115700695 0.0064882079357442288 0.0033099602729552168 0.0051835229857841282 0.0075578219055589821 -0.0090500430849359322 0.0011244463983569094 0.088490244815620581 0.003285380845165158 -0.0032857884845001865 0.090000000000000011 -0.15499999999999997 -0.015609045031882372 -0.045526262726127691 2.8750000000000004 -0.0011865750314361929 0.029999999999999919 0.0083946194984171347 0.0094609242297776248 -0.0013427056094457155 287.50000000000006 3.200000000000053 -0.63500000000000012 0.0014807973600638371 -0.016536144418684409 0.52076352791745062 0.009375493360151756 0.74312071467601581 0.0046844663508971438 0.007228023560034825 0.0055900482903799018 -0.58000000000000018 266.50000000000006 0.0275274226366693 323.50000000000006 1.0000000180025095e-35 0.0017699290055059765 0.00053925297016801552 -0.53500000000000003 -0.011472209341982341 -0.67507323257282759 0.0013549672932740284 -0.0035169411632842407 0.059589985396695341 0.015853453784921898 0.018815240151957794 0.011926666566806412 204.50000000000003 0.010624004439854499 2.8950000000000005 287.50000000000006 0.00108051413643822
decision_type=2 2 2 2 2 2 2 2 2 2 2 2 2 2 2 2 2 2 2 2 8 2 2 2 10 2 10 2 2 2 2 10 10 2 2 2 2 2 2 2 2 10 2 2 2 2 2 2 8 2 2 2 2 2 2 2 2 2 2 10 2 2
left_child=1 2 15 4 25 42 16 10 -4 29 13 -12 20 -8 37 22 60 18 44 -11 31 35 53 -19 -21 26 46 -16 -29 -10 41 32 -6 47 -24 36 -9 -15 45 40 49 -14 51 -34 -3 -25 -2 -27 -44 -23 -40 -5 -53 -1 56 -56 57 59 -59 -13 -7 -33
right_child=3 17 8 5 12 6 7 21 9 19 11 54 30 14 27 -17 -18 23 -20 24 -22 39 34 38 -26 33 -28 28 -30 -31 -32 61 43 -35 -36 -37 -38 -39 50 -41 -42 -43 48 -45 -46 -47 -48 -49 -50 -51 -52 52 -54 -55 55 -57 -58 58 -60 -61 -62 -63
leaf_value=0.013388996298882273 -0.022035411213707924 0.01575891795356137 -0.011782403760533022 -0.014524862570770097 0.021387094935991807 -0.03026616617731941 -0.018265828976296722 -0.019316707472374073 0.016594460798549242 -0.0073492194759095094 0.0047210823098771757 -0.021138004859594203 0.052376909234387065 -0.0036076454972172774 -0.020147909372898114 0.022531265123232044 0.0097633310219895023 0.021642753185269967 0.041897626600379656 0.020476551338267895 0.016374894228740021 -0.0015256222213073454 -0.017637971025846706 0.0036232709952875026 0.00022210815175777404 -0.017413012606452893 -0.0073455145540120281 0.011034326162999826 -0.013391797552078939 0.0050842446781620559 0.046780631778662742 0.0066924820597389911 0.00072271212074864885 -0.0016083413376207362 0.0074935321520238213 0.0055540911292795191 0.0025205987797490303 0.015226990431507343 -0.0093175096803073988 0.014619536734068945 -0.0099695885080339393 0.01466213965873104 0.013154086938781459 0.016000542645250356 0.031758200535382634 0.022359416775792895 0.014985399780461608 0.002100496041964319 -0.022976439225036754 0.02677354018742617 0.028602416838571988 -0.036477696756472541 -0.0052601540331133961 0.02973651531472804 0.024251220267475105 -0.012718483989259941 -0.01779376647907855 -0.020984930804716632 0.011256462991232391 2.1344800466831265e-06 0.0015814180013252136 0.058998008221214128
leaf_weight=1786.8206944167614 1983.567288339138 1841.5211972296238 1616.120876967907 4841.8071030974388 377.26459378004074 196.5927177965641 3591.1499892175198 704.57674595713615 1787.9161271750927 2542.9097321927547 2103.3909285664558 333.89390924572945 85.30431342124939 1543.1669934391975 1545.1125460267067 2378.4105168879032 2145.5706431865692 1619.2504114508629 569.57906827330589 485.3679583966732 1370.3339573442936 301.04759591817856 212.80665838718414 2067.0443536639214 1447.0814679563046 1232.7867220938206 1970.7369367778301 574.12419071793556 1856.8242968916893 2519.6306876242161 167.23354139924049 73.842991709709167 4864.5836687088013 2809.0809563696384 2336.7413274049759 624.34934628009796 377.25165435671806 413.67893281579018 86.76798477768898 1125.157122194767 559.63404005765915 1324.6162728965282 87.84606808423996 527.46490904688835 569.69186785817146 372.89818385243416 82.919822365045547 375.79503035545349 1535.1969074010849 234.2618810236454 459.51017364859581 116.69460621476173 2507.2870039343834 495.03291773796082 265.14392060041428 282.32791525125504 1364.2819019854069 943.18575674295425 211.46825763583183 2442.2219757437706 208.66463467478752 75.366967737674713
leaf_count=4915 5728 5069 4616 13907 1039 560 10295 2004 4952 7202 5910 951 233 4375 4427 6499 5963 4439 1548 1348 3781 846 605 5713 4045 3516 5645 1626 5314 7013 455 203 13565 7944 6502 1763 1065 1160 238 3153 1584 3649 254 1469 1556 1031 239 1065 4408 662 1256 335 7179 1357 750 800 3895 2700 599 6926 591 207
internal_value=3.84534e-05 0.0101372 0.00687561 -0.00501438 -0.000162679 -0.00755807 -0.00533401 -0.00668535 0.00144548 0.00388058 -0.00861761 -0.0045305 0.00894899 -0.0120267 -0.00824767 0.0147064 0.00599918 0.017706 0.0238334 -0.00187987 0.00651919 0.00191222 0.0108506 0.0137359 0.00531732 -0.00971733 -0.0141044 -0.0124928 -0.00762084 0.00986449 0.0201671 0.00423489 0.00347678 -0.00570581 0.00538975 -0.00539062 -0.0117064 0.000379757 0.00944261 0.00752446 0.000226921 0.0169795 -0.0134167 0.00221992 0.0195506 0.00649472 -0.0205434 -0.0128558 -0.021014 0.0108855 0.0225734 -0.0117625 -0.00666184 0.016947 -0.00786144 0.00519774 -0.00921239 -0.00623022 -0.0150755 -0.00254717 -0.0139045 0.0333292
internal_weight=75551.9 25195.1 17608.8 50356.8 17320.9 33035.9 23947.1 21396.2 10399 8782.91 17470 7945.91 8866.01 9524.06 5932.91 7209.81 2550.83 7586.26 2980.79 4475.36 7288.86 3926.28 4831.4 4605.47 1932.45 8454.89 4037.22 3976.06 2430.95 4307.55 1577.15 5918.52 5769.31 4417.66 2549.55 1706.18 1081.83 1956.85 2986.22 2220.1 1094.94 1409.92 9088.83 5392.05 2411.21 2439.94 2066.49 1608.58 1623.04 535.309 546.278 7465.79 2623.98 2281.85 5842.52 547.472 5295.05 3930.77 1154.65 2776.12 405.257 149.21
internal_count=212644 69904 49054 142740 48738 94002 67919 60805 29176 24560 49728 22531 24601 27197 16902 19878 7114 20850 8173 12595 20264 11077 13379 12677 5393 24137 11612 11367 6940 11965 4337 16483 16073 12525 7107 4832 3069 5535 8238 6245 3092 3882 26083 15034 6625 6744 5967 4581 4662 1508 1494 21421 7514 6272 16621 1550 15071 11176 3299 7877 1151 410
is_linear=0
shrinkage=0.05


Tree=13
num_leaves=63
num_cat=0
split_feature=34 38 34 32 38 32 32 34 34 34 38 12 37 13 46 13 34 61 46 14 13 12 65 20 14 22 61 18 23 30 7 65 45 62 22 30 21 46 37 7 14 18 20 7 12 13 22 37 7 65 35 22 65 23 10 37 62 61 32 61 39 10
split_gain=2291 609.644 448.552 427.296 121.022 110.477 82.6155 81.4843 68.0055 60.429 49.6988 37.6572 37.1276 36.9334 32.9913 32.457 32.2845 30.7857 30.3323 29.6779 30.6186 27.7495 26.7588 26.2605 25.7743 27.1489 25.0994 24.6628 47.3198 24.0118 23.8465 23.629 23.0376 29.1531 22.8667 22.7954 22.4663 22.2256 22.0283 22.0103 31.0129 21.8686 21.8062 21.2163 22.2251 20.9912 20.9134 20.2255 22.662 21.9108 27.3977 19.679 19.6105 19.5135 20.1565 19.3125 23.2615 18.6204 18.9369 18.487 34.4568 18.0958
threshold=0.0018636458308106314 369.50000000000006 0.0012264670604020969 0.0014399776606452044 371.50000000000006 0.00036860160614488361 0.00087315280193338155 0.0041486433405960544 0.0015630053699993193 0.0025114457219924126 374.50000000000006 1.9850000000000001 0.96895112360571434 1.0000000180025095e-35 18.214999198913578 0.0099999999999998996 0.00073163008834645183 -0.0020272363541087297 16.644999504089359 0.47500000000000003 -0.015000000000000123 1.5350000000000004 0.015201698536588372 -0.044751493145291775 -1.0099999999999998 0.0021438654618375678 0.00072586452805412105 0.0014728480115877576 0.0011273829613672765 -0.24649693124383093 6944.0000000000009 -0.0063531071029445654 -0.019636199294238706 0.0010763849585768705 0.0011668058974738137 -0.050003236665469013 1.1272727272727192 14.015000343322756 -0.99060605463630635 6087.6250000000009 -0.32499999999999996 0.019623706399784172 0.041985922859861059 6423.8750000000009 1.7550000000000001 -0.18999999999999981 0.0040969072664128895 -0.85783016541116053 5359.8750000000009 0.0068072674243753193 0.44722222222222224 0.0020846795989629533 -0.0032928312511768527 -0.0046726775568317275 2.6850000000000005 -0.48598341324260635 0.0069564502039272122 8.3797712394861903e-05 0.00056135951706931758 0.00084020598945366853 -0.55471472962927526 3.4550000000000005
decision_type=2 2 2 2 2 2 2 2 2 2 2 2 2 8 2 10 2 2 2 2 10 2 2 2 2 10 2 2 2 2 2 2 2 2 10 2 10 2 2 2 2 2 2 2 2 8 10 2 2 2 2 8 2 2 10 2 2 2 2 2 2 10
left_child=1 2 5 4 6 11 23 10 19 18 51 16 -3 17 -9 -13 34 -10 35 24 -21 -7 -15 -2 -4 32 -22 30 39 -24 -23 -25 45 61 -1 -8 -18 -36 -19 40 -29 -39 -38 44 -30 -26 -11 -35 49 -49 -51 -5 -46 -40 -55 -33 -57 -45 59 60 -59 -34
right_child=3 12 8 7 -6 21 9 14 13 46 -12 15 -14 22 -16 -17 36 38 -20 20 26 27 29 31 25 -27 -28 28 43 -31 -32 55 33 47 37 -37 42 41 53 -41 -42 -43 -44 57 52 -47 -48 48 -50 50 -52 -53 -54 54 -56 56 -58 58 -60 -61 -62 -63
